tree
num_class=1
num_tree_per_iteration=1
label_index=0
max_feature_idx=35
objective=regression
feature_names=mp_count_click mp_count_cart mp_count_purchase mp_count_favorite mp_count_click_may mp_count_click_jun mp_count_click_jul mp_count_click_aug mp_count_click_sep mp_count_click_oct mp_count_click_nov mp_count_cart_may mp_count_cart_jun mp_count_cart_jul mp_count_cart_aug mp_count_cart_sep mp_count_cart_oct mp_count_cart_nov mp_count_purchase_may mp_count_purchase_jun mp_count_purchase_jul mp_count_purchase_aug mp_count_purchase_sep mp_count_purchase_oct mp_count_purchase_nov mp_count_favorite_may mp_count_favorite_jun mp_count_favorite_jul mp_count_favorite_aug mp_count_favorite_sep mp_count_favorite_oct mp_count_favorite_nov mp_click_slope mp_cart_slope mp_purchase_slope mp_favorite_slope
feature_infos=[0.00019618149933582827:1] [0:1] [0.0015373197625106023:1] [0:1] [0:1] [0:1] [0:1] [0:1] [0:1] [0:1] [0.00032803751556314349:1] [0:1] [0:1] [0:1] [0:1] [0:1] [0:1] [0:1] [0:1] [0:1] [0:1] [0:1] [0:1] [0:1] [0.0026666666666666666:1] [0:1] [0:1] [0:1] [0:1] [0:1] [0:1] [0:1] [0:1] [0:1] [0:1] [0:1]

Tree=0
num_leaves=91
num_cat=0
split_feature=23 4 19 21 19 21 30 32 9 21 13 26 33 22 3 31 29 7 27 4 22 33 3 25 7 8 15 3 21 32 12 11 25 4 19 2 12 8 8 21 26 21 29 2 7 34 30 0 23 7 33 9 3 0 0 2 8 30 22 22 19 25 33 18 8 22 23 12 23 25 23 25 22 33 34 22 13 0 27 0 2 20 26 30 7 24 19 30 9 27
split_gain=55.581951957011832 18.003859547903321 16.473166867838074 13.513750505772602 20.184901522548358 12.977681074266046 9.7303580145549073 11.132022872411934 9.6398319099564809 9.4605709619983749 6.743981792187018 5.6076333677703261 5.485558356166452 5.3938208472144424 7.4986161369936895 5.5144521166290943 7.1283462441872576 6.6162956691741925 8.9623066447466258 5.8021821297497755 5.2196300448608346 5.0905952217433503 4.9590347991739998 8.3357372039407647 4.5127570815865781 4.9503823446705271 5.9636771278855019 4.5099011522413441 4.4656818603290738 4.3391340743739724 4.3385528004864469 4.315642742282936 4.094251580934797 4.0839776438935509 3.9348790540801026 3.8928755935601771 3.751757846691282 4.9289380227253154 3.6801102931759324 3.7169926700822273 3.6587583344251149 3.4884600971531423 4.6095436805899039 7.6342362292351869 4.5511186920156188 4.6958195201310158 3.4525017990333744 3.3775057176944223 3.3030266168178453 3.211851245297705 3.1966132682307773 3.3496506777396773 3.0784710084408626 2.9940121545049259 2.9734341862213016 2.9321589473771947 2.9304848008314028 3.1899217094623964 7.0965313307753952 3.6099698404953244 2.9997130570515731 2.9034153599096668 2.7256412722258005 2.6694903509136623 2.8848983619985833 2.6628936428170995 2.6503648794594614 2.59578621822806 2.5714287246976602 2.5311618380277459 4.1082233375302888 2.5086978860639579 2.4873064033681036 2.4795919845298862 2.5581801057530997 2.3849187420810782 2.321378938776018 2.3152534289051889 2.4819295549141707 2.1667098497735964 2.1033557763436437 2.1317258437248214 2.0038964301289841 2.0167509837070341 2.4001106763495166 3.2264421103155705 3.7551056256662592 2.1919521363921204 2.6243811088062494 2.0925781684229707
threshold=0.074415131906421114 0.29366733203184986 0.078507578701904404 0.12283653846153848 0.11057131752817724 0.28461538461538466 0.028705636743215034 0.077263433092227288 0.02068984336626099 0.083413461538461547 0.060000000000000005 0.096764875794338553 0.015254237288135608 0.0082106455266138176 0.0019314510464952946 0.11363799669468996 0.015488792029887921 0.018005579193552935 0.029461687681862272 0.015606834982122881 0.10956964892412233 0.016707021791767574 0.047607341855129472 0.072420364824394248 0.013032207162782835 0.014957834536906899 9.9999996826552254e-21 0.0071288102261553602 0.08846153846153848 0.090644763805215592 9.9999996826552254e-21 0.34210526315789475 0.0031309556221072697 0.016264888459935515 0.097745821997668111 0.11688931297709924 0.055555555555555559 0.019016866185237246 0.001908350700334416 0.038701923076923085 0.0037550548815713466 0.021394230769230773 0.007861145703611459 0.1008799830364716 0.0069035475781228 0.25439654042720472 0.016063558339132453 0.077979150848597314 0.2518666002986561 0.022077263377384544 0.0060532687651331787 0.0049173170332369167 0.0039916654960902758 0.7346165999499813 0.0059543331401469722 0.080338210347752348 0.0041741385159695639 0.0023776385989329627 0.018969422423556061 0.04614949037372594 0.013797123979790131 0.0069425537707595983 0.058837772397094472 0.0046195652173913054 0.0024778267823389721 0.0671007927519819 0.010204081632653064 0.092592592592592601 0.013688402190144352 0.002041927579635176 0.01319064211050274 0.0083038388238497168 0.03992072480181201 0.024455205811138029 0.25557594024374253 0.1826160815402039 0.060000000000000005 0.022778768669065776 0.0010911736178467509 0.15289053222093932 0.032363231552162856 0.013478402078596949 0.039187367610244564 0.014381813964277431 0.0087985009439544657 0.010617283950617286 0.0091333074232413537 0.016527487821851084 0.013054630791900891 0.026551891367604271
decision_type=2 2 2 2 2 2 2 2 2 2 2 2 2 2 2 2 2 2 2 2 2 2 2 2 2 2 2 2 2 2 2 2 2 2 2 2 2 2 2 2 2 2 2 2 2 2 2 2 2 2 2 2 2 2 2 2 2 2 2 2 2 2 2 2 2 2 2 2 2 2 2 2 2 2 2 2 2 2 2 2 2 2 2 2 2 2 2 2 2 2
left_child=2 3 13 4 6 34 7 73 27 20 47 67 -10 30 32 16 38 24 19 80 -8 -20 55 29 25 26 -18 -9 -11 -24 62 -12 50 -22 61 -29 37 -4 -16 41 46 56 44 -44 54 -46 -14 -7 -30 -21 -15 66 -47 -3 -43 -23 63 58 -58 82 -61 -5 77 64 -40 -51 -52 -6 -68 -41 -71 -72 -54 74 -2 -42 -39 78 -1 -13 -19 -82 83 84 -59 86 -86 88 -85 -89
right_child=1 53 36 5 11 10 9 8 12 28 31 79 40 14 15 -17 17 18 21 49 33 22 23 -25 -26 -27 -28 35 48 -31 -32 -33 -34 -35 -36 -37 -38 76 39 69 75 42 43 -45 45 52 -48 -49 -50 65 51 -53 72 -55 -56 -57 57 59 -60 60 -62 -63 -64 -65 -66 -67 68 -69 -70 70 71 -73 -74 -75 -76 -77 -78 -79 -80 -81 81 -83 -84 87 85 -87 -88 89 -90 -91
leaf_value=0.32972420826833343 0.35652173982150309 0.36467065961655976 0.33500000004967051 0.32155172378681168 0.33826530626943319 0.33333333333333331 0.33400383143760692 0.32564102541177697 0.37192982571166855 0.36153846237903986 0.33542600903097641 0.36009615464374806 0.34927536279395005 0.36842105367727446 0.36060606141885121 0.31810526270406286 0.37321428690283071 0.35370370431078801 0.36511628001697299 0.32647058803076834 0.31625615712652849 0.31588447601427955 0.36981132184184573 0.312389379906795 0.31447963744716584 0.32717584351098628 0.32641509413344305 0.36476964863335215 0.3413012732219044 0.3390670555644642 0.31589147234840909 0.36481481575303604 0.30416666579743223 0.33085399441646807 0.32759073004311157 0.33529411770549472 0.33595959603786468 0.35202020257711408 0.34687500040357311 0.31032257995938739 0.34366852917207241 0.33690476201119873 0.31740506281643976 0.35056179826625722 0.32525252501169838 0.371428572563898 0.32341463385074115 0.36113537200760459 0.31607142805698368 0.35436507999187422 0.35517241444395875 0.36829268396869907 0.3420408165860338 0.34970059929017772 0.31639344211810272 0.33557692314378723 0.3636363645394643 0.32712808255174375 0.32027026988096063 0.3496000004847844 0.32040816288010604 0.33881578963707409 0.31283783722702446 0.31528150080249606 0.32259615352616094 0.37796610302507538 0.29999999900658925 0.35128939881593468 0.33571428578524359 0.34444444477558134 0.32763157877744287 0.31760435524811831 0.36923077030059615 0.35000000049670538 0.32201834828664039 0.31714285666034331 0.37419354960482609 0.33916083933451235 0.32288428293557159 0.38166666810711225 0.31666666616996125 0.33825503370372506 0.30624999919285373 0.30999999930461247 0.37083333445092043 0.31544502564489735 0.31363636304934817 0.32772585653070346 0.34952381000632332 0.35909090985854464
leaf_count=979 23 167 160 116 196 54 1044 39 57 104 669 208 69 57 33 475 56 54 43 34 406 277 53 113 221 563 53 369 707 343 516 54 24 363 2287 51 495 198 64 155 1074 168 316 89 99 56 205 229 56 252 58 41 245 668 122 104 77 1257 74 125 49 608 148 373 208 59 24 698 126 90 456 551 39 42 327 35 62 143 1158 60 66 149 48 20 24 382 22 642 105 22
internal_value=0 0.052465484798307246 -0.04412857091431429 0.040853860002433136 0.070384262111745616 -0.0042320140668756483 0.042647355928000875 0.090499056967415184 0.12216956656879346 0.0017412935842328998 0.094102057145082685 0.18904188744685327 0.081944446886579189 -0.053911847336725757 -0.041939712914383115 -0.047473375536729333 -0.041511995808662244 0.0039617487519490917 0.04352510364578089 0.13735070984798456 -0.039345469089482811 -0.018220793683429239 -0.034456929865847814 0.030124427878786397 -0.0645763363776789 -0.023809524519102915 0.17125382773373105 0.24836602047377943 0.087658595461333907 0.09848485141992569 -0.091145836049690843 0.042876903075894875 0.10606060922145844 -0.10186389553686422 -0.037086240449881326 0.27857143687350411 0.085245904179870102 0.15476190937416895 -0.060283089824546478 -0.062152661487090019 0.069414318771527803 -0.049070472711873578 -0.0008818342414482561 -0.086419755661929096 0.04663923321437443 0.11085801393404637 -0.034063261355796869 0.22497056029710669 0.061162081333475372 0.22318841244863427 0.13725490605129914 0.088353416287755393 0.1666666716337204 0.19361278022120812 -0.050574714150922052 -0.12073491173466359 -0.064719360462578715 -0.050930805873318143 0.090507728966656112 -0.058852622921106018 0.080459772512830541 0.027163905045274873 -0.073448656774333126 -0.12558139909145444 -0.050245099536636299 0.25509111156800934 0.036858975457457394 0.15100671590974668 -0.033333334326744082 -0.11048988614695522 -0.093588577690402699 -0.11188348562501985 0.12441314924770677 -0.062925171943343419 -0.090476193172591077 0.094980465710109374 0.23974359688850549 -0.064912282636291105 -0.073155516140584811 0.31592040742511179 0.027261463018155008 -0.017054264074148135 -0.068464183906635348 -0.064537862338360605 -0.084075175601580024 -0.14875389851420839 0.10144927838574284 -0.022813688892828646 0.098666669607162472 -0.045682732285146251
internal_count=24000 10985 13015 10150 6133 4017 4971 2291 1899 2680 1006 1162 1440 12100 9156 8826 8351 2440 1547 614 1813 933 890 509 893 672 109 459 867 396 2944 723 330 769 3011 420 915 420 5911 5878 1383 4626 1134 405 729 439 274 283 763 345 306 249 340 835 290 381 3492 2847 151 2696 174 724 2428 645 272 311 208 894 150 1252 1097 1007 284 392 350 1109 260 2280 2137 268 269 215 2522 2474 1685 428 46 789 125 664
shrinkage=1


Tree=1
num_leaves=91
num_cat=0
split_feature=23 4 19 21 19 21 29 10 1 32 32 16 8 0 26 22 3 31 29 7 28 2 4 0 31 6 3 22 29 33 3 8 12 19 0 8 21 21 29 2 7 34 0 2 19 8 7 1 0 28 15 33 9 31 0 8 21 27 34 15 14 0 14 23 28 14 1 7 9 5 26 5 2 0 18 29 18 26 26 6 23 8 9 19 6 34 9 3 8 6
split_gain=45.021385437767471 14.583127468311655 13.343265058869257 10.946137997426201 16.349769332862579 10.511920148469699 7.9280974765139804 10.059438819108102 6.4429653690211488 7.9499116651437554 5.7723835994288697 5.6739150591939165 4.903000688713381 6.7992824826089571 4.5421823055253938 4.3689944798320361 6.073878750465342 4.4919243675273499 4.9294225378231022 4.3019517078782457 12.316116719811017 4.1402184715152712 3.9886700065558873 3.9413622025484489 3.6332226490016604 3.5896227624140096 3.8261783030874383 3.584782979088998 3.982672049931296 3.5334835304923846 3.2966966990289341 3.1923167206493721 3.8935159850763599 3.1872515099898546 3.0800581880970808 2.9808889718468841 3.0174201777103882 2.9314545440001485 3.9279226136557095 6.183731246097171 3.5181779347561974 4.2172285030508831 2.9065536370291269 2.8573332926611741 2.823912190513528 4.0057475114320829 2.6939351496007689 2.6835249153761067 2.6810173641553927 2.4716903175940299 2.4355449897678785 2.5979704902139704 2.8740646525289497 2.8016952608078629 2.4251497070232553 2.3736928673247331 2.5510397372405791 2.3644525081911816 2.3614500348679615 2.3350888365492644 2.3139743487699205 3.0408757396546431 2.2943785459480956 2.2859772878944948 2.2700314270771234 2.2693425101226761 2.2445435401957141 2.219128707403156 2.8030450558304789 2.2169305627758078 2.215938597086808 3.2444070300715859 4.3171115074181055 2.8110780956446479 2.1977014807783437 2.469860313302946 2.1876455917127764 2.185848768011283 2.1299345752521059 2.062782614618051 4.0552081412989676 2.0376133204926674 2.0279307626405623 3.1438837519626821 2.414139090148022 2.4513452766532922 2.1966166878146094 1.9608860930380061 1.9236297542293446 1.8839205914844488
threshold=0.074415131906421114 0.29366733203184986 0.078507578701904404 0.12283653846153848 0.11057131752817724 0.28461538461538466 0.012998132004981322 0.010541932886506478 0.073888888888888907 0.085301856363756437 0.079301437794970717 0.02049180327868853 0.079726651480637831 0.077979150848597314 0.096764875794338553 0.0082106455266138176 0.0019314510464952946 0.11981748940145147 0.015488792029887921 0.018005579193552935 0.02276794591370054 0.041587150127226469 7.6772905744806877e-05 0.007728952046352747 0.071136020694115135 0.0037698288293936929 0.10747061853256544 0.020101925254813139 0.035725404732254051 0.12397094430992739 0.068771363019150641 0.0066580235545000742 0.055555555555555559 0.097745821997668111 0.0073036425363422492 0.001908350700334416 0.03774038461538462 0.021394230769230773 0.007861145703611459 0.1008799830364716 0.0069035475781228 0.25439654042720472 0.016831923372404901 0.071803435114503836 0.048192771084337359 0.036803906363592313 0.013032207162782835 0.017222222222222226 0.0059543331401469722 0.021376019089282165 9.9999996826552254e-21 0.0055690072639225261 0.0049173170332369167 0.0012574549112596108 0.7346165999499813 0.0041741385159695639 0.019951923076923079 0.034311348205625612 0.27030533350805913 9.9999996826552254e-21 0.087500000000000008 0.026971212236933339 0.037500000000000012 0.28123444499751121 0.0048717438854643082 0.062500000000000014 0.01388888888888889 0.0071923694665952847 0.013906019756590079 0.0034017756353540598 0.0060658578856152522 0.014441020634387937 0.038061916878710779 0.011259470250049046 0.0051630434782608701 0.0031911581569115817 0.048097826086956529 0.010880030810706723 0.0095320623916811103 0.0054392124898112746 0.01319064211050274 0.028195124315417052 0.0030944714293510895 0.0083560046638165592 0.00080726064330052057 0.25767265102869857 0.0023522348960323095 0.015077023926581451 0.0016841952212475165 0.06717505799736663
decision_type=2 2 2 2 2 2 2 2 2 2 2 2 2 2 2 2 2 2 2 2 2 2 2 2 2 2 2 2 2 2 2 2 2 2 2 2 2 2 2 2 2 2 2 2 2 2 2 2 2 2 2 2 2 2 2 2 2 2 2 2 2 2 2 2 2 2 2 2 2 2 2 2 2 2 2 2 2 2 2 2 2 2 2 2 2 2 2 2 2 2
left_child=2 3 15 4 6 33 7 21 9 10 -8 43 13 -7 62 25 50 18 35 22 49 23 34 -2 29 47 -27 28 -22 -10 60 -4 -33 65 -20 -18 37 55 40 -40 48 66 69 -9 45 57 70 82 -39 59 51 -17 53 -53 -3 74 64 -29 -47 -21 61 63 -6 -11 67 -5 -42 -57 -69 -43 -24 72 73 -72 75 -37 -13 -71 -78 -38 -81 -12 83 84 85 86 -1 -82 -55 -46
right_child=1 54 31 5 14 12 8 11 24 30 81 76 -14 -15 -16 16 17 -19 19 20 27 -23 46 -25 -26 26 -28 44 -30 -31 -32 32 -34 -35 -36 36 79 38 39 -41 41 42 -44 -45 89 58 -48 -49 -50 -51 -52 52 -54 88 -56 56 -58 -59 -60 -61 -62 -63 -64 -65 -66 -67 -68 68 -70 77 71 -73 -74 -75 -76 -77 78 -79 -80 80 87 -83 -84 -85 -86 -87 -88 -89 -90 -91
leaf_value=-0.0027815235307417723 -0.0029706468184789022 0.028203594202766875 -0.0092856848781759094 -0.0050344125697245968 0.0062981130740896538 0.0031160618963204031 -0.007726897030240959 0.01024300503730774 0.0057509875253449238 -0.01291760444333873 0.023860485532454082 0.014261397940961845 0.00099897652165467795 0.025653710803379023 0.028432835749725799 0.027754721809656192 0.024545453172741514 -0.015810525536537171 0.043573656465326044 -0.012638074159622193 0.0025768837232268259 -0.012490481844073848 -0.013131608061058812 0.029880266530173168 9.2679663564834697e-05 -0.014199966922388178 0.0093271589762455708 -0.0012805937551984602 0.040565819665789607 0.01903282439798341 -0.02024434816975125 0.017699999962534223 0.00374309632911191 -0.0051683423401332603 -0.0047175855636596683 0.0029459204546798618 -0.025341680167633815 0.0044345235824584965 -0.014335443673631813 0.015505617990922394 -0.01867909944974459 -0.0069093875885009766 0.00024036271704567806 0.032967362273925854 -0.0056329613996420795 0.022626461744308473 -0.01696832689764273 -0.014867145843230761 -0.015245900877186511 0.038582701775534405 0.023259759429962404 -0.022458915827704259 0.029837397734324141 0.031485611342248469 0.014730540292705605 -0.0016109800176693407 -0.016209867866025806 -0.016910408093379094 0.003205663783569135 0.018815470929257574 -0.028044561314028368 0.00037108559712119727 0.01710986681838534 0.015301696908089421 -0.0065180574767680953 0.0066356623224143318 0.015622894852249712 0.034374210865874041 -0.011876907646656037 0.033394447091172952 5.6116531292597451e-05 -0.0086266764727505781 -0.0018257231615922032 0.041691415965557102 -0.016745542339656663 -0.015348464910310645 0.011346646356913778 0.013164338940068297 -0.0066923855245113384 0.012067182535348936 -0.0071561822081380152 0.0062549634664146999 -0.00088173606644776758 0.024562927867685047 -0.016012440304287147 0.011472023526827496 -0.024840973221486616 -0.015807678909862743 -0.0021618602316031297 -0.021082202036832944
leaf_count=166 105 167 99 260 291 254 144 75 811 388 168 538 469 283 268 39 33 325 28 26 89 228 189 56 787 1049 74 255 40 266 173 350 466 2287 25 169 81 160 316 89 65 25 90 211 247 75 221 260 122 58 93 61 27 21 668 1177 177 156 379 256 43 575 603 31 1435 464 27 38 20 122 24 220 136 50 345 131 144 95 120 86 683 108 919 28 305 81 62 425 89 116
internal_value=0 0.047218939489704077 -0.03971571485399971 0.03676847673108425 0.063345838735995003 -0.0038088100939388148 0.038382623858001959 0.099806018087939791 0.012417439748780961 -0.033503482330796176 0.085033915511199404 0.14915258935926592 0.08469184759122951 0.14993444839891332 0.17013769859701344 -0.048520663599830031 -0.037745743120872803 -0.042726039349587089 -0.038315000035961631 -0.0019365984615672049 0.027627707739472037 -0.038212155544972357 -0.058118712261302476 0.084557578245305132 0.052573610880600023 -0.082031251882891287 -0.12649648742068589 -0.015015072434284096 0.14356398744176524 0.090313669200727198 -0.074648694804877291 0.076721312276652603 0.097295133287415791 -0.033377611698481933 0.20794768715804479 -0.05425478350367971 -0.055937397896777048 -0.044012965681810318 0.00072757031979805498 -0.07777778270803852 0.045762510796106569 0.10333276877425751 0.15583231021840888 0.27008177683903623 -0.031673621883803939 -0.00060859959938622623 -0.074906235081808908 -0.054609802399671448 -0.040797026022106199 0.19782256860943401 0.09545454328710383 0.041638915674595892 -0.0048278711660943848 -0.052701847246515818 0.1742515107471786 -0.058247426019091789 -0.045837726421761524 -0.072130780295443939 0.064139453850128578 0.1591549868702043 -0.053329024474669098 -0.043504061383500665 0.13590604693564259 -0.10829780238340464 -0.038130539700333102 0.024447514495467611 -0.086122098176375686 -0.0066999321524430864 0.18425549309829187 0.21289256424450678 -0.041068231058043692 -0.0014011529989020768 0.087505678335825607 0.28188075608498342 -0.11302326284637747 -0.050426278213659921 0.10602821576922314 0.24537948131011927 0.031470864108114532 -0.098986936316770663 -0.088510538415493473 0.16971368202264758 -0.038942902612044673 -0.082066536646022981 -0.097010319755209379 -0.034713247254442629 -0.087801458150671238 -0.10474671466471056 0.042617479779503566 -0.10569908820893154
internal_count=24000 10985 13015 10150 6133 4017 4971 1477 3494 1630 420 1088 1006 537 1162 12100 9156 8826 8501 2590 1697 389 893 161 1864 2944 1123 1357 129 1077 1210 915 816 3011 53 5911 5878 4603 1111 405 706 424 332 286 1228 865 840 1821 282 340 330 237 198 171 835 3492 2847 411 454 282 1037 994 894 419 2670 724 92 1235 58 242 619 430 210 74 645 300 802 217 264 1275 1194 276 1561 642 614 309 228 1108 110 363
shrinkage=0.1


Tree=2
num_leaves=91
num_cat=0
split_feature=4 9 4 4 26 3 0 2 33 16 29 31 9 17 13 33 30 31 5 34 28 34 30 17 18 32 4 3 2 8 9 4 3 0 9 7 3 27 6 4 4 30 34 16 7 10 8 18 0 31 22 30 22 19 22 26 27 3 14 29 7 27 27 4 9 33 33 35 6 9 0 0 3 7 4 3 31 28 28 28 35 0 4 20 31 21 18 35 16 5
split_gain=30.960859859213372 11.374991119354908 9.6136166330481778 9.2190020813047742 8.94797787566743 7.8080987203111825 7.6385654714193896 7.4129430805261265 6.724776543790683 6.1215018215432586 5.5811588718373182 5.5481048501813452 11.149277202438331 5.5194875406150263 5.3787824938542679 5.0890318260832963 4.9845390530931724 4.6897859994829911 3.7365343213141822 4.335306549076142 6.8381868176508425 4.3642642907920486 4.2517654433070113 3.2949005155982256 4.9546268070892214 3.2384661615292121 3.2324759953927629 3.095964767332525 3.5287118103032591 3.0688752765650982 3.0626380294675499 2.9760038736006198 2.9669811767929541 4.0774491900076537 3.7855924072309524 3.3387969389260341 3.0214204857745548 4.2607926640030271 3.428836315976671 2.9582205203692973 2.9279100762055856 4.2521888085518347 2.9070187707699593 2.8442402238549378 3.9480428747119984 3.3562563228926967 3.1185214834109485 2.6814277181330888 2.6097989018303167 2.5590077916136895 2.4454931181295168 2.374623007113664 2.52503184663128 2.9051212817186256 2.3504429940128944 2.3167238375237531 2.2470084535298063 2.1875726093939516 2.8370527822214751 2.3521149014890419 2.7026132988443874 2.4381967259793518 2.1494717318673704 2.1387223517470852 2.0294769906704193 2.1392831847265636 2.0091939529634639 2.3661077553281706 2.1970927000876781 1.970640849781967 2.7710021740081339 1.9643717663017135 1.9527575946948108 1.9361275220331327 3.0094859547058341 2.4493511888393322 3.1039738954351885 2.5383685635296054 2.3023100064356061 3.7260209953178736 3.2353916813006998 2.3142045448202451 2.0503695783125879 1.9325504490143501 1.9132591828227266 1.9125092479015584 1.8907741859684495 1.7536812495970588 1.7422899465379358 2.1664787832039152
threshold=0.033440084230845164 0.015690662009496262 0.29366733203184986 0.049836583386343204 0.075004814172925108 0.025799503675609875 0.034708400911120797 0.066184266327396116 0.02687651331719132 0.077868852459016411 0.0042808219178082198 0.17532514191276857 0.097582273645145462 0.11471518987341774 0.18000000000000002 0.059806295399515826 0.0078288100208768283 0.11981748940145147 0.027219289949253038 0.35895688638448425 0.0072579041558958049 0.31235748918883482 0.020470888424959411 0.016613924050632913 0.093206521739130452 0.085301856363756437 0.023174449976968135 0.0019314510464952946 0.0060697625106022066 0.080150729414045482 0.002690607433280577 0.03048981113865187 0.0066137566137566143 0.0049210107390651285 0.0087103640233586223 0.014758094057313535 0.0037107271620545963 0.0018186226964112516 0.0051335506928334067 0.072594266160696683 0.00060321568799491119 0.002609603340292276 0.3335997903289214 0.036885245901639351 0.0024021527797345658 0.0069596141085953292 0.011540978044879564 0.22065217391304351 0.15289053222093932 0.25964647553352022 0.026896942242355611 0.10241243331013687 0.2344280860702152 0.016906335017489314 0.026896942242355611 0.023782014249951862 0.011760426770126094 0.013005103713068317 0.11250000000000002 0.010351805728518059 0.005684860097494999 0.011517943743937926 0.00036372453928225031 0.00016451336945315758 0.017491677127108012 0.029782082324455256 0.0060532687651331787 0.043925391044399173 0.0034563295504420346 0.023817060525023196 0.028347477869678579 0.7346165999499813 0.017207472959685353 0.0070867029220321792 0.0089385597402882287 0.0053963571662686716 0.0054250197600057498 0.0082521376019089304 0.0024855836150328102 0.0052694372638695574 0.045483252984147814 0.0098584947337996779 0.0057031301410427971 0.04205911010068205 0.0076525113170942015 0.0040865384615384626 0.0013586956521739132 0.052819940632828903 9.9999996826552254e-21 0.0010118884176912675
decision_type=2 2 2 2 2 2 2 2 2 2 2 2 2 2 2 2 2 2 2 2 2 2 2 2 2 2 2 2 2 2 2 2 2 2 2 2 2 2 2 2 2 2 2 2 2 2 2 2 2 2 2 2 2 2 2 2 2 2 2 2 2 2 2 2 2 2 2 2 2 2 2 2 2 2 2 2 2 2 2 2 2 2 2 2 2 2 2 2 2 2
left_child=1 15 3 4 51 6 10 69 -9 17 50 12 23 48 -11 27 -12 25 19 21 72 43 -22 39 -25 -10 -8 28 -1 -6 54 -23 33 40 35 83 37 -35 -39 -5 41 -32 57 44 -18 63 -47 -15 -14 -13 64 52 53 -2 -29 -20 -27 59 -59 61 87 86 -42 -46 65 -3 85 68 -68 70 -7 -4 -21 78 75 77 -77 -75 82 81 -81 -80 84 -34 -38 -30 -36 -61 -69 -90
right_child=2 5 71 11 29 7 26 8 9 14 16 49 13 47 -16 -17 18 -19 55 20 22 31 -24 24 -26 56 -28 30 66 -31 32 -33 34 36 42 -37 73 38 -40 -41 62 -43 -44 -45 45 46 -48 -49 -50 -51 -52 -53 -54 -55 -56 -57 -58 58 -60 60 -62 -63 -64 -65 -66 -67 67 88 -70 -71 -72 -73 -74 74 -76 76 -78 -79 79 80 -82 -83 -84 -85 -86 -87 -88 -89 89 -91
leaf_value=-0.0076729414533384102 -0.0064533869343355674 -0.0046049275994300845 0.025383234595110316 -0.0024540421637621792 0.022499011633572756 -0.011875336231856512 0.012797959438392096 0.028902436027655732 0.011792762404264407 0.001562675325032029 -0.02587718840156283 -0.012206259280740225 0.017835341580212116 0.0097596665861838308 0.024594929786997108 -0.018100953971346222 0.029586587178296059 -0.018966463929441967 0.030102052305425914 0.033559631506601968 -0.006788905168121512 -0.0084462382503457979 0.0098678195476531987 -0.013625527780182315 0.00053872305748647431 -0.021332160064152311 0.039745599031448364 -0.015643090416745442 0.0023455042788322941 0.0062018324525988829 0.028514829151173857 0.019803515458718324 -0.014010436572679662 -0.0077584391975977331 -0.015247879016030695 0.0079085612226100204 0.01451982519513852 0.034168842610190896 0.006237002224712582 0.047369875930822813 0.010684400037223218 -0.002959347999457157 0.010571919536590577 -0.0041938062156400375 0.014132932860117693 -0.0047225822811014957 0.0080240225582110369 -0.0043089370394861978 0.040656716028849287 -0.0015519823854112944 0.022575438965724993 -0.0071074278611275889 -0.0056100010087615573 0.0099852498945358879 0.0079666984842178667 0.0029468810349179992 -0.0038510927674817105 -0.01160453919853483 0.015898011922836304 0.0069032087234350351 -0.0013668185290025205 -0.015232940441837498 -0.010378539365388538 -0.017676703803307187 -0.0004329141493766539 0.027244748783783176 -0.010994404200464488 0.0032827085362071486 0.016997059303171493 -0.01339789148245224 0.022866138894306987 0.013257484521694528 0.014038608404768615 -0.012607056748719864 0.019785359015270156 -0.0060194137452662675 0.019414218062552335 0.021627966880798342 -0.014587548223321624 0.023130882685146636 -0.0077036649391457844 0.017448289692401888 -0.012096152643659222 0.0011194670005984929 -0.0047534458244903183 0.029092206781910313 5.9514710058768598e-05 0.033120383818944298 0.01032054534325233 0.045477392772833511
leaf_count=322 121 30 167 22 540 58 350 74 129 1453 70 301 304 638 109 288 58 219 70 90 308 851 305 302 1355 77 51 410 47 147 47 39 1025 83 97 84 148 85 91 26 51 495 125 620 26 256 767 172 60 898 158 144 152 964 47 57 1632 602 40 65 294 204 969 113 155 71 160 226 34 703 38 668 119 162 98 87 107 25 373 63 74 24 67 92 79 62 480 42 65 24
internal_value=0 -0.02293593397298244 0.056147640298045032 0.042469358695395171 0.096856223242771697 0.0013066363971772548 0.030437375040925668 -0.028291024148251898 -0.0093954890651687384 -0.015497469958036306 0.017740347380824827 0.014889163530124292 0.038692480420933782 0.11368719687656811 0.031699197145033435 -0.050506035350875972 0.0055728450667924898 -0.051336650325073223 0.010602508300217185 0.0045764271488732047 0.068244080365139209 -0.014593833270090404 0.014986984832835237 -0.012946110264646692 -0.020428120982021038 -0.034854697341239235 0.16225215346735908 -0.045608965740918335 0.0081515821370672665 0.19011842289172232 -0.053112293878306086 -0.072083276945553471 -0.047358868564720859 -0.025543194092676767 -0.069022179596007815 -0.11318390824514861 0.010515130399744173 0.10918796798897526 0.19726811501790176 0.24533913470804691 -0.061693857444233231 -0.0023003743473454154 -0.041809128745511105 0.013213560681628144 0.041241434582921323 0.028532125325088042 0.048342563423126907 0.067722593965353794 0.21597106599218244 -0.042266590705605921 0.12792384055789541 0.05046148670487953 0.064609546693178949 0.081520009947262606 -0.13214950201547904 0.17914298270631024 -0.046387125345054882 -0.051919348325515001 -0.098909846115335126 -0.026396590642719302 0.035858355109531087 -0.058361037821531604 -0.093253923952579504 -0.11726699823098218 0.067544048535637558 0.17784448867977257 0.052377603055975587 0.025991755349228565 -0.060886837926107586 -0.11562670757982399 0.018764976722498734 0.15682634536377685 0.22444790601730347 -0.0090382475157958827 0.041564791212500014 0.0013645227186948922 0.080084141074996631 -0.08030181931939355 -0.038312227649677205 -0.077438616685652994 0.064757255742149633 -0.12650872883328262 0.032754070803421693 -0.12764285159303124 0.078123872631972055 0.17559224968656487 -0.025138253097517653 0.17194062499242407 0.079497936604514957 0.19801043526510173
internal_count=24000 17019 6981 6146 2068 9056 4564 4492 3693 3619 4163 4078 2879 1174 1562 7963 3749 2057 3679 3552 822 2730 613 1705 1657 1838 401 7675 940 687 6735 890 6278 3128 3150 1201 1566 259 176 48 1562 542 1949 1840 1220 1162 1023 810 364 1199 414 1381 1237 1085 457 127 1709 1824 642 1182 401 781 1020 139 256 101 618 509 194 799 96 835 209 1307 479 381 194 187 828 534 137 397 294 1117 227 109 577 107 315 89
shrinkage=0.1


Tree=3
num_leaves=91
num_cat=0
split_feature=23 4 4 21 26 21 30 32 1 9 1 0 33 23 29 22 13 26 8 24 30 10 4 28 22 25 15 11 21 11 18 24 1 30 9 21 20 27 18 11 1 20 30 35 23 4 22 25 5 6 25 14 21 8 2 23 18 1 2 2 3 33 13 2 8 33 24 3 2 18 30 18 5 25 20 5 7 4 33 33 29 1 0 5 33 31 20 30 5 24
split_gain=29.749013112070919 9.5427464602765149 7.7565724158779403 7.1996275127950682 9.3527296244499354 7.1613701065317903 4.9810778765288282 6.5459922320555979 5.2196114665951647 4.8937276682143143 4.7319840110214741 6.8214460984629701 4.5064768777173327 3.8642265403221878 3.6431101510343114 3.6225380897368433 3.6046521909637042 3.3648195369420373 3.1701419578614485 3.0962771233099922 3.0620109812955576 2.9151840856793481 2.9016978345824 2.767809940194681 3.7804177744444014 2.7622629792344124 2.6853012618978562 2.6832241167477413 2.6014158400156284 2.5060900025357742 2.3898921313822141 2.3332095742392243 2.6014164499890122 3.8855624985672357 2.2735540770472102 2.1316559403784616 2.107822237375101 2.5320279076440468 2.074270607355019 2.0323628867743637 2.0314983356562859 2.027279889112771 2.0091507135715654 1.9959817502803106 1.9590360553049815 1.9565344881674078 2.1490459137272184 1.9193477333249529 4.5691763998733075 1.9040477942772807 2.8126195024063012 2.6075851280878535 1.8942565476590278 1.8901124107483085 1.8769587943167352 1.864715653729129 1.8573887713612593 1.8203427667268735 1.796140688781275 2.1169397838568642 2.9961097210234784 4.0328907859521177 3.0997816619482035 2.5685095266077056 2.5465201889133731 2.498151601809278 2.9207461257954104 2.3790727416135429 2.1494283428792516 2.1202900153599713 1.9773666398729075 3.9380934239196512 1.8981916020121017 2.2687742767634052 3.7135226512972932 2.1012154986320932 1.8480948673340487 1.7910016074294322 3.3393480137747975 3.7646418272552973 1.9129941600432485 1.7898063839999452 1.788248543495178 1.7567663878884325 1.7448299431481213 1.7191019773819907 1.7152048486767442 1.7033894779739209 1.631382425540286 1.6273867760933656
threshold=0.074415131906421114 0.29366733203184986 0.023174449976968135 0.12283653846153848 0.07616021567494706 0.28461538461538466 0.029053583855254004 0.0752092004552775 0.073888888888888907 0.02112645309174262 0.025000000000000005 0.030918803322805426 0.028329297820823253 0.024639123942259835 0.021092777085927775 0.10956964892412233 0.060000000000000005 0.012420566146735992 0.11642150923278245 0.059012345679012354 0.024646253769427053 0.020679410427119758 0.13179714404790632 0.0024855836150328102 0.011608154020385052 0.050775932480261375 0.13750000000000004 0.078947368421052641 0.041586538461538466 0.34210526315789475 0.016032608695652175 0.043308641975308648 0.081666666666666679 0.017223382045929023 0.002024777601921083 0.031971153846153851 0.11757063981812278 0.014185257032007762 0.0095108695652173936 0.078947368421052641 0.010555555555555558 0.057648587203637545 0.000637903038738112 0.043693816972274375 0.0097063215530114495 0.029645309175458996 0.018403171007927526 0.072420364824394248 0.065518503828904437 0.02552667878863879 0.0053090117070514571 9.9999996826552254e-21 0.07740384615384617 0.056408423399408721 0.2649491094147583 0.0012444001991040322 0.051902173913043484 0.03500000000000001 0.082061068702290088 0.023669423240033929 0.011413119820199468 0.020581113801452805 0.060000000000000005 0.019455046649703142 0.01933795376338875 0.020581113801452805 0.019111111111111117 0.0046237767476705544 0.019030958439355389 0.025815217391304351 0.0019137091162143357 0.0024456521739130437 0.0035746610936530699 0.0093928668663218109 0.012828840532640469 0.0099968473828192551 0.0073543915015920431 0.0014367500932242429 0.0089588377723971071 0.010411622276029068 0.001478829389788294 0.33833333333333337 0.077979150848597314 0.0032797388412606405 0.020581113801452805 0.0013293094776173028 0.0014615134784020788 0.01409185803757829 0.027219289949253038 0.025432098765432103
decision_type=2 2 2 2 2 2 2 2 2 2 2 2 2 2 2 2 2 2 2 2 2 2 2 2 2 2 2 2 2 2 2 2 2 2 2 2 2 2 2 2 2 2 2 2 2 2 2 2 2 2 2 2 2 2 2 2 2 2 2 2 2 2 2 2 2 2 2 2 2 2 2 2 2 2 2 2 2 2 2 2 2 2 2 2 2 2 2 2 2 2
left_child=2 3 12 4 6 36 7 43 15 21 11 45 14 47 23 39 82 -16 28 49 31 87 54 24 55 26 -10 -21 35 -18 38 -11 33 -33 -25 -15 37 53 -19 -8 -22 52 -26 -2 -44 -4 -47 48 -12 50 51 -14 -30 -5 -6 -1 -39 -51 59 63 61 62 72 64 65 66 69 -63 -68 70 71 -36 -61 74 -74 -76 -64 -57 -79 -80 89 -3 -7 -53 -46 -72 -82 88 -9 -81
right_child=1 81 10 5 22 16 8 9 25 20 13 -13 19 18 17 -17 29 30 -20 27 40 -23 -24 34 42 -27 -28 -29 41 -31 -32 32 -34 -35 58 -37 -38 56 -40 -41 -42 -43 44 -45 84 46 -48 -49 -50 57 -52 83 -54 -55 -56 77 -58 -59 -60 60 -62 67 76 -65 -66 -67 68 -69 -70 -71 85 -73 73 -75 75 -77 -78 78 79 80 86 -83 -84 -85 -86 -87 -88 -89 -90 -91
leaf_value=-0.016970046907663346 0.015357299826361918 0.0070724068534752677 -0.012327922757934123 -0.010396673458527371 0.0086413032625520664 0.00020480950673421226 0.002779797628855172 0.0020213904927988522 0.0029941982810618873 0.014839953141855012 -0.0055932953274601587 0.026235587447881698 -0.013295727096876856 0.0016027907257551675 -0.0028916879743337634 -0.010717419437209115 0.0015890952316634857 0.017395246191458269 0.01520634351865105 -0.0063849140955146537 0.038631655662148087 0.02492226262491538 0.036591046899557111 -0.01909700375899934 0.028599157026319794 0.00014190952458071362 0.014032541523123563 0.0067862097241661772 -0.011362386349733774 0.023984429129847773 0.0068633971562296718 0.012243167672193411 0.0082376812711174099 -0.0072016611117227325 0.031934126113590443 0.014516653884485895 -0.006294278787988875 0.011384130569247457 0.052629030123353009 -0.01021504960204131 0.010554992973593857 0.0043660775336444883 0.01391867981070564 -0.010885941857049447 0.0029369653727410287 0.033727872967720028 -0.00049308983312136893 -0.013743918314250798 0.031712383776903157 0.0078644504030066804 -0.019873181860316058 0.017955071330070498 0.0034483039875825247 0.017601494491100312 0.018948615346685311 -0.00063115823247077152 -0.00017592250924625371 -0.013630450725555422 -0.018068782578815112 -0.016721921537233436 -0.0080161346517540581 0.032764524297836502 -0.0085172420298611686 -0.014360563820355561 0.027307100718220075 -0.016396866021929562 0.01401221907951615 0.0066430600762004913 -0.016491689852305823 0.013385043957016686 -0.025238796039061113 -0.010085118699956824 0.019079636723807691 -0.011906889628097056 -0.0063390632112001639 0.010776120898398488 0.022103719107092246 -0.023337945232697582 0.022083856880664828 -0.025053890581641883 -0.022409919780843401 0.017158238541200681 0.020434653641875657 -0.0088530833748253907 -0.013416481548792695 -0.00704129944943093 0.0020377727306407434 0.022877085552765773 0.026828626855727167 0.00087639461545383239
leaf_count=100 33 252 85 332 361 54 626 183 451 141 373 180 236 364 240 488 669 55 184 2471 27 251 60 114 33 753 431 165 308 54 161 132 324 464 38 197 1073 154 24 149 566 234 147 238 614 25 69 229 36 83 419 55 120 26 346 1093 1426 75 99 115 599 39 27 365 24 185 132 329 28 55 55 54 89 207 388 88 73 109 50 84 34 583 229 44 73 925 184 78 31 34
internal_value=0 0.038383151747499969 -0.03228435768698254 0.029929450835500446 0.051483875067961385 -0.0029790091639227438 0.036719840435096678 0.069734965334835086 0.0086034400718964076 0.087822725135844895 0.019004587226620132 0.12489431565186439 -0.043904244933453261 0.00041563245661392769 -0.029298032298905645 -0.039683212671408272 0.070068183701270617 0.054809106079240638 0.029687331005793221 -0.072980817604763798 0.060780835717448009 0.17019341592411091 0.1547743702960605 -0.035430711384658371 -0.0096849651952545697 0.045903771824063876 0.083882186181691229 -0.055604696986074696 0.011275881153583916 0.032617757717768349 0.13853509190181892 0.02861422716054458 0.010255827268828517 -0.028950882938084187 -0.051761491303706712 0.061376054178584709 -0.027384680376936532 -0.0076974516098221269 0.28099180550514896 0.0028143345156023581 0.11833357042044049 -0.031180609884218866 0.043987447518378395 -0.076902703605454786 0.034411744819842369 -0.013335184844512514 0.086082300607194295 -0.064138097729428814 -0.02309665870841383 -0.12320390307720293 -0.14412017957127063 -0.075814875826906797 -0.072098563486170553 -0.083632869593923978 0.13685617238662537 -0.037252489971747328 0.0095081684144237375 -0.023388254491588736 -0.047706873450708072 -0.044255991594507063 -0.02126710763546193 0.0047680577448813242 -0.028544188330842612 -0.068393702102822043 -0.050043196302843602 -0.055311362664012806 -0.039692403807969824 0.09411367425776046 0.086740350164473054 -0.05764204057424388 -0.067466748044339581 0.07270656331725743 -0.047360962212690504 -0.029506429682432677 0.0033067217970316389 -0.031749115270726824 0.13836059600114822 -0.028911937131389263 -0.078815346835839628 -0.035169006166062826 -0.073265371489382919 0.14114370774366183 0.16574542040117216 0.060403359056723241 0.011992628614281289 -0.080625875233387462 -0.017751701381228387 0.10226077280224186 0.056149621154660379 -0.17582452474004132
internal_count=24000 10985 13015 10150 6133 4017 5366 2468 2898 2197 2404 359 10611 2045 7063 1263 1006 480 1407 3548 1654 543 767 6583 2555 1635 882 2636 1223 723 240 1061 920 596 4028 561 3011 1938 79 775 593 662 867 271 834 179 94 638 409 912 754 335 428 358 707 1688 1580 158 3914 3815 1954 1355 987 1861 1496 1472 1287 368 160 1127 1072 92 887 772 565 476 100 1588 495 386 336 835 283 99 687 980 218 292 214 118
shrinkage=0.1


Tree=4
num_leaves=91
num_cat=0
split_feature=23 13 19 19 1 16 21 29 1 31 9 9 2 32 33 31 10 25 4 33 29 5 0 29 10 2 11 22 4 23 17 32 31 2 11 22 6 3 29 9 18 12 30 1 18 18 25 15 8 8 6 3 19 7 8 7 10 12 5 5 0 6 16 7 0 31 17 8 21 32 33 20 12 31 8 31 32 34 20 23 30 20 21 32 22 21 20 8 4 35
split_gain=24.09670077663835 7.7473998211103439 7.4663805338980751 4.2912275935394568 6.2629270860224988 5.9955762783084214 5.6943701112883893 3.019334896242996 3.6399672016595481 4.2091066020577834 2.8406704771628069 4.8064595142868898 4.1993510962938601 3.0433872616481925 3.1659081209548634 2.8259247233013021 3.3007716148496655 2.7882728757495485 5.81801471760064 3.7313807873701421 2.9666182723065435 3.5652790380876813 3.6579282910067148 2.934017898063991 2.9085080305225333 2.5724518564937764 2.5319062401138415 2.5078924863786902 3.555831914188051 2.4624970596524465 2.6580680382171362 2.9232720272032946 3.0207712858526734 2.4316776623428087 2.6744666733692908 2.3791847012784757 2.3258683957099766 2.2134155677876342 2.1706883897781766 2.1609243469295869 2.149383735381265 2.1480120004197474 2.1441484533655419 2.0556337109848162 2.0314611755451089 2.5105960066977779 2.0176361721225167 1.9948013067625394 1.9711527769893931 3.2657136364629284 1.9697259821555182 1.9647831934800282 1.9633559516638639 1.9140629570608723 1.8622258860638157 1.7558571828778335 1.8442338053530056 1.7309326377004839 1.7146423381091176 2.6753732647497612 2.1705841298374358 1.9344112188012996 1.7107352378709635 1.6553010815198816 1.6355166234505845 1.6295285545883764 1.5898167298941352 1.5612360126356548 1.5595838436823302 1.5494200428584364 1.5384655132719125 2.241593455753673 1.5361725462440856 1.5282537642383165 1.5259275011310662 1.5174616274021875 2.03032852950107 2.5536269733369839 1.5465982149676663 1.4900438242957452 1.7074218145236084 1.4731019344891862 1.5596430881905476 1.5956761217162452 1.4485832976895341 1.4114066367025035 2.6483065632276155 1.7135926220152247 1.3873666172988517 1.4542483660412437
threshold=0.074415131906421114 0.38000000000000006 0.078507578701904404 0.23163622230858924 0.3477777777777778 0.045081967213114756 0.13437500000000002 0.0039694894146948953 0.073888888888888907 0.12822447366530146 0.013709545380123344 0.020515199476068332 0.081583969465648873 0.085301856363756437 0.010411622276029068 0.071136020694115135 0.050128232846992866 0.072420364824394248 0.023174449976968135 0.028329297820823253 0.013932129514321297 0.013429132216696669 0.043575505167360799 0.021092777085927775 0.034663873377519 0.15049830364715863 0.078947368421052641 0.056908267270668188 0.00086643707911996325 0.01518168242906919 0.0087025316455696233 0.069642459438558263 0.0031256736365596039 0.065256573367260401 0.078947368421052641 0.51642129105322776 0.011058687065019753 0.059711101746499982 0.0025684931506849318 0.0071603994978988164 0.023097826086956524 0.055555555555555559 0.0055091626072836944 0.059444444444444446 0.054076086956521746 0.081250000000000017 0.0053090117070514571 0.062500000000000014 0.0049011292589541035 0.0065005088935200907 0.011231111668443166 0.0020485086856768275 0.11057131752817724 0.035306714756685176 0.014957834536906899 0.0076854800078897693 0.0079194966115215745 0.055555555555555559 0.03125667388717699 0.019103843142040663 0.0092085499192061711 0.00019593704934478654 0.094262295081967221 0.034496604581701375 0.0080629098658328222 0.022346770137242223 0.022943037974683549 0.030860757039693699 0.053605769230769242 0.066429328465699197 0.066828087167070283 0.019974017538161744 9.9999996826552254e-21 0.032226773011424882 0.013200940241360927 0.00061076381404038236 0.0702568826026473 0.25557594024374253 0.010555375121792792 0.011199601791936289 0.019311064718162841 0.023546606040922381 0.0084134615384615415 0.074101224257739906 0.034258210645526622 0.0050480769230769242 0.005358882754140956 0.014412591479668493 0.0077321283642984061 0.045041157028273195
decision_type=2 2 2 2 2 2 2 2 2 2 2 2 2 2 2 2 2 2 2 2 2 2 2 2 2 2 2 2 2 2 2 2 2 2 2 2 2 2 2 2 2 2 2 2 2 2 2 2 2 2 2 2 2 2 2 2 2 2 2 2 2 2 2 2 2 2 2 2 2 2 2 2 2 2 2 2 2 2 2 2 2 2 2 2 2 2 2 2 2 2
left_child=2 3 17 6 5 -5 7 42 9 10 -9 12 -12 14 -13 16 -10 18 19 23 44 -22 84 27 -24 -3 -8 29 -29 30 31 32 88 46 70 -7 -25 -28 48 -4 47 68 -2 -14 -20 -46 50 -33 72 -50 55 -40 -17 63 -38 56 -21 79 59 60 64 -62 -18 65 -16 -15 -58 -26 -41 -19 71 -35 75 -67 -52 -31 77 -77 -78 -56 -81 82 83 -32 -23 -48 87 -87 89 -1
right_child=1 25 39 4 -6 35 26 8 15 -11 11 13 43 53 58 52 62 69 20 33 21 22 24 36 67 -27 37 28 -30 38 81 40 -34 34 -36 -37 54 -39 51 41 -42 -43 -44 -45 45 -47 85 -49 49 -51 74 -53 -54 -55 57 -57 66 -59 -60 -61 61 -63 -64 -65 -66 73 -68 -69 -70 -71 -72 -73 -74 -75 -76 76 78 -79 -80 80 -82 -83 -84 -85 -86 86 -88 -89 -90 -91
leaf_value=-0.0066853421874818091 -0.0077464522918065399 0.032931941598653793 -0.011769305192507231 -0.0034234752732774489 -0.0018462531114832323 0.018480680813159435 -0.0045695845883203723 -0.015877357442328273 -0.0012143886210967084 -0.019085621946262864 -0.0014886506729655795 -0.024402649788295525 0.021399567089974883 -0.0087218886627903527 3.1339228153228765e-05 -0.0015543733868093727 0.0055823117960244421 0.0044382776699814141 -0.0088525526283323303 -0.026632885870180634 0.034982285716316917 -0.00049513669117637305 0.030708538474781173 -0.0034956703146735396 0.020775505055242512 0.011384944613631917 -0.0049480060703334626 0.017706527312596639 -0.012712142840687153 0.022450949491993076 -0.012118476520885123 0.0010472516172883139 -0.020887353306724914 0.0036634918820513829 0.012344081699848176 0.0085249293772062459 0.031399711431601106 0.0055632853249277621 0.020381237252762446 0.024039670922186063 0.020773386568934831 0.002584887676484595 0.015677274668256844 -0.0086429307460784907 0.012961314053371035 -0.0039571510778891074 -0.020113941732343738 -0.027064890930285825 0.042949687170259883 -0.00060203919808069872 0.013514788518118305 -0.0025434815440402627 0.007158822872212544 0.0046784758468136744 0.016782222711850727 -0.017852217555046082 0.019812514163829661 0.030438055457739994 -0.0065025459442819879 0.018395815482459121 -0.021123508810997012 0.0036774847488249504 0.013271608656885576 -0.029189312458038331 0.036070104644579049 0.0064653440277175154 -0.0050946132058189032 0.0043132276285593818 0.0091088173426177414 -0.014239225692527238 -0.0080631921035331372 -0.0076045165308340698 0.018878973848544634 -0.0035639559075260636 -0.00637045911380223 0.0011470479502094736 0.0025396389727081574 -0.020330436074215433 0.025428539695161761 0.0079440551261379302 -0.015509785159870429 0.0056785517118193886 -0.017008541406769502 -0.0029779948392455371 -0.022478248656920666 -0.013187037434494286 -0.013139572851091838 0.0081767504323612562 0.010943130031228066 0.0093012565085964834
leaf_count=692 45 60 65 230 533 598 1617 94 294 106 162 34 256 424 20 689 448 51 258 38 44 69 56 182 67 724 301 42 452 31 385 865 126 381 96 401 39 599 38 92 54 466 297 25 145 222 182 26 33 36 86 2313 414 299 63 140 27 29 84 194 35 310 817 26 34 202 504 411 292 344 745 329 52 613 70 139 280 92 33 73 54 66 228 379 53 57 695 110 56 62
internal_value=0 0.034544835711371971 -0.029055922985351687 0.027182517040244457 0.072068624206893694 0.11133071190948114 0.017810634017654585 0.034745616758445438 0.02915554484052043 0.0047609832513160781 0.012134889185767763 0.018045630752821017 0.1133420879765504 -0.00051099806041507933 0.05373547197897223 0.055896089813209496 0.083301794116048947 -0.035642364441363282 -0.032853754375898547 -0.040819216210947792 0.029547373056411742 0.074258321566241126 0.055775334422544738 -0.027412540301938966 0.091467669449941946 0.13033949484934612 -0.022034009522656672 -0.032778126392283558 -0.1012594011510432 -0.027126647987534599 -0.047778354195276464 -0.025223932831544688 -0.064835150909220055 -0.067632568028965431 -0.03822141718587746 0.14484428234763808 0.051607909392226828 0.020478423138459524 -0.0072069353047143365 0.058043466760812561 0.014010035550152814 0.071482141719144937 0.12595205331406398 0.18726746997799312 -0.020528889274597169 0.027272561265597225 -0.091528165178064155 0.0022691973598985425 0.041848169661116326 0.20227047325908273 -0.055812342421856918 -0.021729416400511081 0.017160375390610473 -0.025171637573205601 0.11267286862513816 -0.078196153654198047 -0.05351136795037241 0.076820605693886809 0.06868954432063476 0.087630624111748059 0.040794681860390758 0.011614419239154761 0.10548442653987719 -0.042179513001159248 0.22722413749606521 -0.036939356503128719 -0.038281491022774505 0.066207016611697783 0.1268600101272265 -0.11827699941924856 -0.048887791400103228 -0.015578810303983554 0.024194040557033898 -0.010781662303245872 0.045919209909744754 0.0093088643965513803 -0.0029544068281264868 -0.074067552110333459 0.049528457581425628 0.04208777139061376 -0.020284438931097194 -0.087877471950644576 -0.097502227271756822 -0.07584127623841401 -0.1004517713531119 -0.12112029801725885 -0.10422530995029308 0.0088491864547044219 -0.04242918035130442 -0.053707942840907553
internal_count=24000 10985 13015 10201 1762 1229 8439 5922 5580 2918 2812 2718 443 2275 711 2662 1559 12100 11705 10380 1325 700 656 6920 534 784 2517 6480 494 5986 2939 1881 936 3460 1551 999 440 900 3047 915 945 850 342 281 625 367 1909 891 696 69 865 2351 1103 1564 258 709 569 219 677 593 399 345 1265 1265 54 1239 531 478 384 395 1455 710 627 815 156 575 544 231 313 190 127 1058 992 764 122 1044 862 167 810 754
shrinkage=0.1


Tree=5
num_leaves=91
num_cat=0
split_feature=23 13 9 0 10 24 31 2 23 23 22 18 6 15 22 3 4 4 0 26 7 3 4 9 29 3 33 10 4 30 18 21 26 31 6 11 22 23 23 21 29 23 31 25 12 30 16 26 0 1 8 3 9 31 25 2 7 18 16 23 30 9 32 3 32 22 23 23 19 9 23 26 29 5 32 23 24 1 24 24 29 16 23 2 30 23 2 1 16 23
split_gain=20.349385879036117 6.5799786229075057 4.201557623055824 4.3349295573873228 8.1950997418011102 4.0017925972525852 3.5906975640990608 3.1260525848436984 2.8842380045205998 3.0474503696412709 2.9314496681725255 2.7653061950020508 3.297378801610868 2.6234790374400201 3.8533025285445368 2.7203205649748101 2.589861937493203 2.5024500722794745 4.0001490303972256 2.8383345120373296 2.7622813731974869 2.9627464018143552 4.276917739406902 4.2207718790317159 3.1435537479306532 3.7381922053361532 2.6807906700868616 2.4157133010115257 3.5989586851266422 3.6058900384836523 3.4978801048405419 3.5331819416697985 4.1103304309096709 2.711700525506652 2.3105375117928535 2.2413255455561973 2.2388296311586089 2.1874432585647354 3.2871518187324993 4.2386419261632398 4.1333780588643627 3.9376354698472129 3.3083977887639144 2.7849876249310985 3.4893855409041197 2.3505750994123193 2.1637743536736718 2.0454512610540831 1.9974635087741386 2.1558645954138469 2.292099282636948 1.8248462593943575 1.8137204431312564 1.7632625191173061 1.7285855117475071 1.727800365976162 2.1682582124026499 1.8631633519746069 1.7087329565993095 1.7052389954960372 1.6749572207407453 2.5993286673267524 1.6745973124743694 1.6590095757284151 1.5969908824045005 1.5947590706181738 1.984594604745296 1.5825421108459294 2.057515031628018 1.5722694840382263 1.5151254131822554 1.491027999790826 1.4818175821964077 1.4780074731150528 1.797157476336575 1.4755116581197543 1.510701452820852 1.4583966352689046 1.4449863778244989 1.7868488907177733 1.4441987891525754 1.4205953057409888 1.8226412906992038 1.8115839095458282 2.3871624888741807 2.0309157963389168 1.4513141401228795 1.4147113030022016 1.4942024277178305 1.4191058761221584
threshold=0.0425584868093579 0.38000000000000006 0.048452764285324461 0.096403738530495761 0.050128232846992866 0.28829629629629633 0.11981748940145147 0.15049830364715863 0.04454952712792435 0.047536087605774026 0.029728199320498302 0.031250000000000007 0.047032729324722557 0.46250000000000008 0.16534541336353345 0.16069672706840851 0.072594266160696683 0.029645309175458996 0.085529892219980877 0.017427305988831122 0.018005579193552935 0.0066137566137566143 0.0059115137423501286 0.0087103640233586223 0.0021014943960149441 0.0039916654960902758 0.030750605326876543 0.0063911400049205631 0.0014367500932242429 0.0073648805381582002 0.0024456521739130437 0.018028846153846156 0.0022145195455420762 0.003844219300136524 0.054141325474951416 0.078947368421052641 0.001415628539071348 0.17546042807366855 0.089347934295669507 0.047596153846153851 0.012998132004981322 0.052513688402190152 0.001688582309405763 0.020010890280424725 9.9999996826552254e-21 0.010612386917188589 0.077868852459016411 0.015309069901790874 0.010429817191789132 0.088333333333333347 0.031357534047399806 0.0027976775764386387 0.048452764285324461 0.0021197097075519155 0.063844268989926498 0.014418999151823582 0.0045154836709966478 0.0046195652173913054 0.06147540983606558 0.030612244897959186 0.016063558339132453 0.0082028052174862205 0.10332157834007268 0.005841176195158497 0.068688928407950142 0.088901472253680655 0.080886012941762078 0.074415131906421114 0.04760979401476876 0.0034765049391475198 0.0092085614733698369 0.012998266897746968 0.0021014943960149441 0.01590037729708841 0.067498693371504423 0.0062220009955201603 0.017037037037037042 0.008333333333333335 0.022172839506172843 0.01595061728395062 0.021092777085927775 9.9999996826552254e-21 0.012692882030861127 0.0079781594571670927 0.0012178148921363956 0.0052264808362369351 0.0050625530110262945 0.015000000000000001 9.9999996826552254e-21 0.03260328521652564
decision_type=2 2 2 2 2 2 2 2 2 2 2 2 2 2 2 2 2 2 2 2 2 2 2 2 2 2 2 2 2 2 2 2 2 2 2 2 2 2 2 2 2 2 2 2 2 2 2 2 2 2 2 2 2 2 2 2 2 2 2 2 2 2 2 2 2 2 2 2 2 2 2 2 2 2 2 2 2 2 2 2 2 2 2 2 2 2 2 2 2 2
left_child=17 2 6 4 11 46 8 -3 10 -10 -2 -4 71 14 15 -5 -16 19 34 20 21 22 27 -23 -24 -26 -25 28 36 87 33 32 -32 -29 54 -28 -1 38 41 40 45 43 -43 44 60 -40 -6 52 -41 50 -50 55 75 -27 -19 56 57 81 -47 -31 61 -11 -9 77 -53 66 67 -44 -69 -34 -57 -13 -66 -21 -75 -22 -77 -55 79 -74 -12 82 83 84 86 -86 -38 88 89 -30
right_child=1 7 3 13 5 -7 -8 62 9 37 80 12 -14 -15 16 -17 -18 18 -20 73 47 23 24 26 25 53 35 30 29 59 31 -33 69 -35 -36 -37 51 -39 39 48 -42 42 65 -45 -46 58 -48 -49 49 -51 -52 64 -54 63 -56 70 -58 -59 -60 -61 -62 -63 -64 -65 72 -67 -68 68 -70 -71 -72 -73 78 74 -76 76 -78 -79 -80 -81 -82 -83 -84 -85 85 -87 -88 -89 -90 -91
leaf_value=-0.0098506431183675788 -0.011940198934684365 0.031795609041171916 -0.018861850593866927 0.0067933434857394628 0.0015886922223934002 0.013686915148119741 -0.012675821431365931 -0.0016377539470277985 -0.010251024301103551 -9.8897065177108311e-05 0.00893308139747853 0.017387501427105496 -0.0098500735564918378 0.0090557309809853048 -0.012767844381762164 -0.014327475428581239 -0.0014588187009808937 0.0050519418889197754 -0.0095811255332646957 -0.016020591884450527 0.027789802210671562 -0.011654681576115948 -0.0054051870995379513 -0.00028435265802816335 0.030614969418162392 0.022244691381267473 -0.0091572993844364486 0.028421172925404144 -0.0090900735512402121 0.0020535115272768082 0.016877675419434524 0.031120718958286137 -0.024014784581959249 -0.008612781639635211 0.012630681477246747 0.013796592553456624 0.029004645347595216 -0.0037823627824368684 0.0006803612840377679 -0.019927377015986344 0.0010437235401369253 0.025604083114548731 -0.0064087992404089416 0.021100177587224888 -0.0097270580664486957 0.018999253032682146 0.0087399995706829367 -0.0092232974297409755 0.0017123549812836265 -0.0054972810636867179 0.01693754453177846 -0.025674569928968279 -0.011496454477310181 -0.0041532718473010592 -0.0070589189755850008 0.016933016777038574 0.032188775071075988 0.022314473748207095 0.0047373216599226001 0.039506102800369265 -0.0040998398264249164 0.02537017870767444 0.011507322357142115 -0.010521523695853022 0.013526606005291606 0.0005200355189053092 -0.020422894391748644 -0.0007867479712013307 0.03017499584418077 -0.0006077200495939461 -0.0095385812781751157 0.001874060251496055 -0.0040703876359122143 0.015942771507031991 -0.0077998456866183175 -0.018504914641380311 0.0079103676284231796 0.019928821084792155 0.0158203763457445 -0.024593199576650349 0.025003666622298106 -0.0052101729479100967 0.013763319353879609 -0.018795949646404811 -0.015929216572216579 0.0081594043118613114 0.00085217436154683439 0.0051349377090280715 -0.015933677356645286 0.016248254672340725
leaf_count=274 59 68 89 802 723 1009 213 116 278 66 278 70 257 340 233 66 1547 345 264 223 35 1006 141 1053 84 51 778 21 567 31 156 52 32 338 248 45 47 1012 118 47 451 38 1032 104 142 437 1020 109 1065 385 109 37 53 45 179 25 28 50 104 20 60 102 589 72 43 508 90 123 26 278 160 539 175 33 940 23 369 57 26 56 70 180 161 42 70 70 30 55 415 23
internal_value=0 0.023445724274575981 0.018349059318010855 0.036206852503905464 0.059052040442193268 0.08674971447434536 0.00106440912579394 0.11319449968048086 0.0051255992798219146 -0.00014765729350628732 0.086712077516302721 -0.020763665250458644 -0.0035129945561737166 0.0078644456474018225 -0.0027532181801032444 0.051873826005491792 -0.029391574558247341 -0.035976882143313231 0.01044754170485445 -0.041583095350761851 -0.034262226771633431 -0.039957471612993324 -0.022033591368111852 -0.064287179981479203 0.069677803847524852 0.12613697586321909 -0.036263089579369211 -0.033954483293887852 -0.049340588102257693 -0.092318951050833903 0.011396806249596781 0.063972499437313743 0.036384079077724736 -0.064464500355521287 0.046784746909388608 -0.079022263137132551 -0.01694644886489801 0.0045801710549690615 0.013150701205935669 0.036683238055200393 0.084201414198488797 -0.014747321527631769 -0.035922004501440397 0.066422296538634643 0.025783740185402537 0.13468342427056909 0.057736225122702378 0.031431310498653726 0.0038406630122052926 0.0099640615748013348 0.03125937316039961 0.0016764137645562489 0.059513408504426477 0.05893222769101461 0.0091483483787711348 0.026045097433125573 0.049417986630690136 0.037680827562625592 0.16257587851966815 0.16740802222607182 0.10242283474980739 0.15364470368339903 0.093444445539028087 0.011005509345010779 -0.060727663404510003 -0.04215842257596724 -0.061087029267257821 -0.050178669979772154 0.04615972426113666 -0.030239331626122998 -0.059613382977408334 0.036572144096120827 -0.036552105645338694 -0.086775380233458446 -0.069945976214688219 0.081169922611473322 0.063604913727969545 0.093043683206333827 -0.065299892124035017 -0.090456147730608519 0.12165670379482467 0.022225501736005147 0.054080029399622052 0.0021415760158111689 0.038935331979654902 -0.038849061301776344 0.18036150158225717 -0.1048152488217039 -0.11336157163280752 -0.081023082137107849
internal_count=24000 14385 13612 6695 3707 2752 6917 773 6704 6297 407 955 866 2988 2648 868 1780 9615 1036 8579 7383 6794 3912 2882 450 309 1876 3462 2585 1111 877 518 466 359 772 823 1474 6019 5007 2716 1110 2291 1817 474 370 659 1743 589 1606 1559 1174 1200 480 225 524 863 678 650 541 51 228 168 705 174 337 1779 1271 1181 149 310 185 609 300 1196 973 427 392 102 257 231 348 600 420 259 217 140 77 1060 1005 590
shrinkage=0.1


Tree=6
num_leaves=91
num_cat=0
split_feature=23 4 27 18 23 18 26 15 6 8 6 23 20 20 4 19 27 29 33 33 15 17 15 4 4 0 25 4 10 26 8 10 26 25 3 19 19 34 25 26 21 22 21 24 35 3 24 0 29 6 7 23 35 17 33 10 19 23 9 28 19 29 5 28 30 29 3 8 33 9 18 21 17 30 9 9 30 7 35 4 35 35 9 23 21 27 26 29 29 20
split_gain=16.483002164056309 5.3541689342651946 3.6851597949838739 3.6324260035129576 4.4505400002221744 4.3556157870312315 4.7736610644101738 3.4767488082895701 3.0558865133259117 2.839894378770822 2.8335823328343892 2.9721502525259398 3.6507959514749477 3.6297079369961578 2.3535975363248198 2.2661997717952245 2.2471042705654778 2.1893126959926708 2.5689186290546133 2.0329724685645489 2.0399048522048906 2.8706251168422794 2.11193110092377 2.2467556877307713 2.0269845388357073 3.2401208996512127 2.3270444123456056 4.7950469508039388 2.5200959150467415 1.9721387152774115 1.9715598823602267 3.4477466316996743 2.9316379619902615 2.3550818121537449 2.1443770203974299 1.954348862018422 1.9392689829512268 1.9136788574761541 1.8744158287703536 1.8545366693122973 1.8357699896470097 1.7981001651144632 2.0322676814659624 1.9692376852172373 2.2082232229933827 1.8801263451649826 1.7921973242655642 2.2360783964702113 1.7317841777456064 1.6449571422862803 1.6243830442090819 1.6070137014311907 2.0766231714106076 2.0503267191369137 3.4751855501315196 1.9341688182434469 1.8220668379157239 1.6063025196463854 2.5659057905832148 1.6040442620983564 1.8302050427954206 1.6038645468904562 1.5893935547909681 1.6985027656920291 1.5876561728905694 1.583455046534946 1.5806094025558102 2.1808740381557787 1.5805716874596825 1.9688996597652835 1.6009354231592869 2.9866604498421188 1.5700757160312167 1.5196564682131861 1.6271655908251366 1.8593230127314579 1.4813914311400662 2.8337075225766299 1.6286275254611637 1.5245396027045999 1.4753528405047436 1.7826735358618395 1.472578660600341 1.4661980151791365 1.4810292352603329 2.0555468040519713 1.7146826510451803 1.4189786502309523 2.1989615550177199 2.0258472399312426
threshold=0.0425584868093579 0.023174449976968135 0.018549951503394765 0.10733695652173915 0.59532105525136891 0.060054347826086964 0.021278644328904299 0.087500000000000008 0.013809643237820555 0.066113749818252326 0.02526020440152988 0.089347934295669507 0.029067879181552455 0.0261448522247483 0.10957687161376649 0.027399922269724059 0.03188651794374394 0.012375466998754673 0.077723970944310009 0.033656174334140476 0.062500000000000014 0.10996835443037976 0.46250000000000008 0.055572616201276633 0.029645309175458996 0.085529892219980877 0.0058535257282875041 0.0055824870034438144 0.0090825387121545378 0.075004814172925108 0.011753017011583388 0.0042868538965638086 0.01627190448680917 0.015382521099918325 0.0066137566137566143 0.34881461329187724 0.13155849203264675 0.25716157777486554 0.058399128777566027 0.059792027729636057 0.050240384615384624 0.001415628539071348 0.0007211538461538463 0.0072592592592592604 0.048293720132207861 0.00050334784848059201 0.012395061728395064 0.0065016944989809049 0.0025684931506849318 0.015690638911530507 0.012447518949533659 0.01866600298656048 0.043799077914149283 0.011867088607594939 0.016464891041162246 0.005526313827526822 0.021958802953750491 0.021154803384768547 0.0062380614528188627 0.024557566116524165 0.0083560046638165592 0.045843711083437121 0.005791662853016852 0.00069596341220918678 0.022036650429134778 0.016422789539227899 0.013988387882193193 0.01472762080162846 0.011380145278450377 0.0022321672215248598 0.0024456521739130437 0.012740384615384617 0.0087025316455696233 0.0085247042449547675 0.010505921519401846 0.0072313485782895823 0.0019137091162143357 0.0021344642001747027 0.045041157028273195 0.0020509333391826984 0.049946316919643935 0.047230584619271286 0.0068656879331987124 0.024639123942259835 0.0093750000000000031 0.0018186226964112516 0.0027922202965530527 0.0036581569115815694 0.0052148194271481952 0.0076323481649886336
decision_type=2 2 2 2 2 2 2 2 2 2 2 2 2 2 2 2 2 2 2 2 2 2 2 2 2 2 2 2 2 2 2 2 2 2 2 2 2 2 2 2 2 2 2 2 2 2 2 2 2 2 2 2 2 2 2 2 2 2 2 2 2 2 2 2 2 2 2 2 2 2 2 2 2 2 2 2 2 2 2 2 2 2 2 2 2 2 2 2 2 2
left_child=24 2 10 5 19 6 -3 8 -4 -6 11 37 13 17 49 -10 -9 -13 -19 -5 21 -21 23 -22 26 29 27 40 72 39 34 -32 33 -33 87 -25 -14 73 -8 -26 41 -1 43 -43 -45 -44 -39 48 -48 -7 -30 53 -53 54 68 -56 -55 58 -54 -34 -61 65 63 -59 -35 -17 67 -49 69 -47 71 80 -29 74 75 -2 77 -71 -78 -79 81 -70 -80 -65 85 -85 -87 -28 89 -89
right_child=1 3 7 4 9 14 38 16 15 -11 -12 12 36 -15 -16 61 -18 18 -20 20 22 -23 -24 35 25 -27 30 28 50 -31 31 32 59 64 -36 -37 -38 46 -40 -41 -42 42 45 44 -46 51 47 66 -50 -51 -52 52 57 56 55 -57 -58 62 -60 60 -62 -63 -64 83 -66 -67 -68 -69 70 76 -72 -73 -74 -75 -76 -77 78 79 82 -81 -82 -83 -84 84 -86 86 -88 88 -90 -91
leaf_value=-0.0090892754442551561 0.016717230306043256 0.018090605321309426 0.021640311424122302 -0.010940205496410992 -0.0035518172210541321 -0.0022807145248288693 0.0035210042396002072 -0.0047990996489482643 -0.018569927200798163 0.012205810666441205 0.013919199720809334 0.0082241355559117962 -9.8887562359634205e-05 0.022273230685128109 0.028943552479550647 -0.0090795068394230773 0.0073143990541759303 -0.005266699955442186 0.0086836543912711794 -0.00066270837733220685 0.0038843442807720684 0.010748016357197375 0.0081501576129127951 -0.0038628654443192308 0.0043725803549951236 -0.0086230132672371288 -0.0077021770283475623 0.023502965234527905 -0.0059553273550168734 0.015601003709740527 0.029068274144083264 -0.0024696472789411134 -0.012185413443986888 0.0037195454041163128 -0.010568906718497643 0.002945549236562608 -0.017162591218948364 0.018667595794326381 -0.0072352998722822236 -0.0099888781982439556 -0.014872133652820732 -0.0097450190968811513 0.019108847411055313 0.016691560164982119 0.00041391822279140516 -0.0090341010933806167 0.00010298785654086511 -0.0024105600204116615 -0.015541883656936409 0.011706297580026922 0.010488331527040717 -0.012592048780061305 0.026658937183477113 -0.0094953627582045567 0.043917658654126251 0.0078671506565550098 0.02033174761704036 0.015880677041908108 0.00089077819138765339 0.019810816446940105 -0.0054830458208725051 -0.011738898847751691 0.0084281059525768212 -0.011140451630996785 0.023060582997277382 -0.0016338240600491764 -0.0059729093765346422 0.0087501807370275828 -0.0016658965746561686 -0.0097691040663492115 -0.013283188005580621 0.034347913236845107 -0.00081873904256259697 -0.0092452283138814186 0.029203988802738681 -0.0061560320131706474 -0.0072259778525972157 0.035515373661404566 0.0094295571878473608 0.0085715201993783307 0.012227037889616831 -0.026842065453529358 -0.0055761777460575108 -0.0069566140882670879 -0.0052525164261048671 0.0196294427216053 -0.0014333233473792909 0.020881319344043733 -0.010037914561954412 -0.0016944921469386623
leaf_count=425 77 151 43 129 138 92 337 226 121 668 190 879 760 135 74 368 475 337 217 377 948 531 340 1523 537 264 286 121 127 127 32 629 431 126 1161 583 73 38 312 108 132 80 38 151 186 232 103 516 226 977 114 128 59 828 22 46 21 48 112 30 616 261 161 191 64 1276 468 265 75 42 272 21 34 46 39 66 217 42 189 42 35 45 100 96 362 100 63 80 88 79
internal_value=0 0.021101151262259459 0.001842036042918272 0.04042732468222509 0.026726986761195119 0.077354071821923484 0.020760578401386738 -0.026774568183327411 -0.047396319076137991 0.095078545268948558 0.019715315345443761 0.014367713565961211 0.037556654342707371 0.065978165905998684 0.11696456590453888 -0.052995221165302121 0.034090485450374589 0.051210678796708292 0.0019760851610438487 0.014293821300294808 0.01800297240166817 0.060103035544246307 0.0067399030635830366 -0.0015832694453512366 -0.032379193868230419 0.0094027873919737392 -0.037424785730402178 -0.023346532730655081 0.08220618398803653 0.042106273009832662 -0.056692013814263684 -0.034822760683124988 -0.040316524432052539 0.0047757252050115656 -0.081582167318889079 -0.019781048750152842 -0.015942661541135085 -0.015825695764281486 -0.016499770899950448 0.019678710158481154 -0.032510943127629838 -0.029047458835718298 -0.022482960675652329 0.04359263421105538 0.077074610514881348 -0.030164455815813219 -0.027926126116942063 -0.033093983654513562 -0.10643945158796107 0.10502550981667022 0.018230009128443928 -0.032533464363911815 -0.004881571933175578 -0.048908743865289941 -0.025120038722736247 0.19530550302828059 -0.087575897100536232 0.0081158955425224052 0.097815464985998052 -0.074606730980572036 -0.043084082542558202 -0.044566249956921954 -0.0069072448833682274 -0.023978543732055397 0.10234421224970566 -0.033004975775732609 -0.013774000507912892 0.013763750637386581 -0.036544533264709682 -0.011551307203869024 -0.084745754953473806 -0.010430834340778265 0.18167881715682246 0.06993875796334785 0.11098264747268551 0.061603400048676073 0.017371495431171186 0.11439263264811228 -0.0067879181841145391 0.22043446930391447 -0.058379926604609333 -0.11106959904233614 0.042372613629667814 -0.034783586933107798 -0.011217407366311877 0.046517758641003638 0.11488619026230888 -0.029071640593696938 0.02644956220499417 0.096644067164487063
internal_count=24000 14385 7205 7180 5237 1943 800 2770 2069 806 4435 4245 2401 1568 1143 2026 701 1433 554 4431 4302 908 3394 3054 9615 1036 8579 4957 396 772 3622 1928 1896 819 1694 2106 833 1844 649 645 4561 4429 4004 417 337 3587 1616 1578 329 1069 241 3549 1320 2229 1380 68 849 1192 171 1077 646 1905 1021 860 190 1644 1249 781 1312 864 448 176 155 228 182 143 632 126 506 84 155 120 289 812 621 259 163 533 247 159
shrinkage=0.1


Tree=7
num_leaves=91
num_cat=0
split_feature=23 4 27 32 16 15 4 8 15 31 29 24 2 6 7 32 4 16 25 4 9 24 19 27 31 3 4 1 26 7 28 7 22 2 33 7 27 23 9 8 4 26 24 8 29 4 1 6 29 8 1 23 30 23 24 29 3 20 22 30 30 32 10 27 10 24 22 23 7 33 4 4 29 6 22 7 8 32 20 15 17 26 9 5 29 28 30 3 6 10
split_gain=13.351232073264063 4.3368764376982307 2.984979261866552 2.9120802737852651 3.1855975097573155 2.8161661419308643 2.7066117390528373 4.1471284845815202 3.3794473423836009 3.6315053125705208 3.530930218788666 2.8288904008889943 2.7802750117438002 2.4752681133256793 2.2936230231750097 2.2279556772506757 2.5174649333570867 2.2548758340659738 2.0388647801735527 1.9893329852875858 2.7274950445917963 1.9329715200761401 1.8356219087325334 1.8201544634425759 1.7480692611595681 1.7286678378934466 1.6418574389696499 2.4510689666875467 1.9085907438140719 1.8986212949641033 2.2222624293025941 4.2738345967627573 2.0114469569504188 1.8061218993741956 1.7889045884988168 2.4608579822442036 1.6779812133711776 1.8485448723655216 1.6697294900738646 1.6373914765057194 1.8500117989747635 1.6039454695743085 1.504763729678614 1.5523452208591426 2.4010301213708356 2.1934701332571955 1.9071205629657833 1.574658864808967 1.4928682407896829 1.7011910300354489 1.6414004988806279 1.9726683755252099 1.4923154020125495 1.6352318102548482 1.6212490375894741 1.479766743323327 1.6506221377302923 1.4430063018463954 1.596936675786496 1.4197343226376367 1.3988505014300061 2.0478286199920714 1.9452038568903742 1.7952516967705412 2.4332339806315502 1.6513552671676561 1.6183601209369955 1.5031260308452299 1.3932241625727979 1.4420094158690877 1.3656161100265081 1.9652897528196682 1.6770030638560609 2.1649068733749619 1.5195566778653613 1.4733792426114909 1.403956640866503 1.3774323503276353 1.3706653265338835 1.4293485610910803 1.351293222209486 1.3460072968246342 1.350604971031736 1.3459702431246305 1.2991302884660758 1.4357272572558746 1.2808102251450157 1.2673880375422142 2.221559840801143 2.1718367875027536
threshold=0.0425584868093579 0.023174449976968135 0.018549951503394765 0.079548773895633154 0.02049180327868853 0.087500000000000008 0.044703766259404691 0.024402655939514375 0.46250000000000008 0.17532514191276857 0.14811643835616442 0.039456790123456799 0.43418681085665822 0.013809643237820555 0.063646482008509697 0.081400996730910655 0.015277808243216567 0.10245901639344264 0.1472910427443507 0.036785189409726034 0.048452764285324461 0.15930864197530867 0.027399922269724059 0.03188651794374394 0.0013293094776173028 0.027578779791169173 0.029645309175458996 0.056111111111111119 0.017427305988831122 0.018005579193552935 0.0048717438854643082 0.0069035475781228 0.0087768969422423581 0.0056986853265479235 0.0060532687651331787 0.0029093521936374655 0.00084869059165858403 0.012692882030861127 0.040157179501173396 0.0058825667619832314 0.0089385597402882287 0.045638359329867137 0.0072592592592592604 0.0016841952212475165 0.0024128268991282695 0.0027747921647765911 0.0072222222222222228 0.0022963822183208983 0.00070049813200498141 0.00084209761062375825 0.0016666666666666668 0.0057242409158785477 0.0041173741591278134 0.20980587356893979 0.0099259259259259266 0.011285803237858034 0.020356323453668588 0.0037349788892497566 0.0042468856172140435 0.0014497796334957088 0.0023776385989329627 0.071799655520127695 0.0047975486651109745 0.0018186226964112516 0.0080686045731411856 0.013185185185185187 0.028595696489241224 0.037083125933300154 0.0025430415058187049 0.0084745762711864476 0.0049244335256311842 0.013369453157559939 0.0058374844333748451 0.0029547307041193813 0.021800679501698759 0.0048677054862069939 0.0051434595066156162 0.069777319167652493 0.018674894446248785 0.062500000000000014 0.0087025316455696233 0.015309069901790874 0.048452764285324461 0.009671415931903472 0.045843711083437121 0.015609465102406047 0.012236140106703782 0.0050920073043966858 0.0096792902376324538 0.0065887080540665477
decision_type=2 2 2 2 2 2 2 2 2 2 2 2 2 2 2 2 2 2 2 2 2 2 2 2 2 2 2 2 2 2 2 2 2 2 2 2 2 2 2 2 2 2 2 2 2 2 2 2 2 2 2 2 2 2 2 2 2 2 2 2 2 2 2 2 2 2 2 2 2 2 2 2 2 2 2 2 2 2 2 2 2 2 2 2 2 2 2 2 2 2
left_child=26 2 3 24 55 13 7 -3 9 10 14 -9 -11 -4 21 -6 17 25 -16 20 -13 -8 -15 -7 -2 -17 28 38 29 30 31 32 36 -32 35 -34 48 -38 -28 -33 -41 -23 68 -44 45 46 -45 -48 50 80 51 -1 -26 54 -54 86 -57 58 -39 -51 65 62 -62 67 66 -46 -65 -63 69 -36 72 78 73 76 -73 -75 -35 -77 79 -72 -50 82 -31 -18 85 -24 -5 -56 89 -89
right_child=1 6 5 4 15 23 8 11 -10 12 -12 19 -14 22 18 16 83 -19 -20 -21 -22 41 84 -25 52 -27 27 -29 -30 81 33 39 34 70 42 -37 37 57 -40 40 -42 -43 43 44 60 -47 47 -49 49 59 -52 -53 53 -55 87 56 -58 -59 -60 -61 61 63 -64 64 -66 -67 -68 -69 -70 -71 71 74 -74 75 -76 77 -78 -79 -80 -81 -82 -83 -84 -85 -86 -87 -88 88 -90 -91
leaf_value=-0.012295781693807463 0.015630434534766459 -0.0023195051155795125 0.019476280794587249 0.0014099214868298893 0.014057994660713691 -0.0043191898713069677 -0.0072214603802514465 -0.018446387272132072 0.0081017914567512155 -0.010220684027489352 0.025721693082767373 0.014776025429556642 -0.00020957646932692373 -0.016712934456088329 0.0075055767945164985 -0.00040164579007026941 -0.018073611883890062 0.011575509401468131 -0.0016958201316095167 0.013846713039942921 0.0039660211773495397 -9.0307879204652754e-05 -0.0096075369045138369 0.0065829589743363233 -0.011242338015854015 -0.008891085006616296 0.002017854979913223 -0.0043988969666972789 -0.0070740899388806082 0.0068253208379276467 0.013510368399474086 0.024827729963080983 0.027805192178150397 0.023676186800003052 0.0084316615794980242 -0.00084718837254289271 -0.0090829390927135 0.005069817573416467 0.014334691182667057 -0.0067694602409998569 0.017961409590283379 0.010650572163113476 0.020108463071488045 -0.009155236306737681 0.019276757935682936 -0.016313716668658464 -0.0027440648525953295 0.023293948173522951 0.025738277256488803 -0.016618529818159471 -0.010092618515639952 0.015976306075049986 -0.023190433652170245 -0.01983230392570081 0.0063566406991908218 0.021814189168314138 -0.0060223945379257208 0.0064112053727203942 -0.018490423104076677 0.0018241845930229883 -0.0025115171481762425 -0.0089595490995841697 -0.021655879169702533 0.033376918315887454 0.0032162366384341392 0.00042204785471161208 0.0055701475176546311 0.015123929131415585 -0.024302068790968728 -0.02304547063329003 -0.00060493620638778429 -0.019489280080795288 -0.011468612196597647 -0.018205010626051159 -0.0037013615129374657 -0.015323439622070731 -0.0025013713538646698 -0.00059847192350008819 -0.0075387833180365627 0.019786821222967571 -0.0011073875427246094 -0.0073532000047351253 -0.010099844437725139 0.0077325161726501355 -0.010565008628414052 -0.0016546396511462965 0.011457337055887496 -0.01351729571171429 0.0031617246938318213 0.00025527434129464001
leaf_count=41 55 433 43 232 139 226 315 38 837 392 68 316 949 121 1079 1151 21 130 310 597 893 784 272 475 173 303 406 479 1196 427 49 71 53 42 43 69 955 51 151 60 61 169 37 122 90 163 48 45 50 47 273 62 31 46 246 144 25 159 66 373 271 158 66 50 405 96 36 31 51 22 761 125 705 90 119 82 40 282 308 36 30 109 53 538 261 1372 280 230 463 228
internal_value=0 0.018991036630770709 0.0016578337308187439 0.017743784639450984 0.035804832289438572 -0.024097109330475115 0.036384591908508027 0.064875099695090088 0.023153328145496119 0.011241705215041765 0.032206508435240581 0.085555346613980163 -0.031360150694758213 -0.042656683839709934 0.02644786759117379 0.017892779447758647 0.009935002389824173 -0.010425990146368441 0.054519892876057248 0.09123681413044829 0.067914648032365896 -0.0043029550592229944 -0.047695695758160107 0.030681435119748624 -0.018611435596223757 -0.021707655167645241 -0.029141274564165778 0.00846250814072874 -0.033682307188279394 -0.027679046146449528 -0.03240073772741129 -0.017987250030112468 -0.0250465545935851 -0.055094197895003791 -0.0010424484819944564 0.1160015727652878 -0.046191130266633143 -0.069997013874115929 0.053568895698877808 0.12772120822531483 0.056981683516305337 0.018144232090973027 -0.0092773796193464948 -0.001389698465026648 -0.0061281868772066371 -0.075649790781200252 -0.0093221523040948918 0.098549737084296443 -0.012737885151551739 0.023060843765735625 -0.06034257786071047 0.047223682253106129 -0.025400686091575812 -0.013298655485800224 -0.0061942133710459991 0.09582730598211639 0.17696351341947297 0.0020860299144102178 -0.082205746036309466 -0.0023964297203790575 0.015716506618811306 0.0011334408847514389 -0.062608580782080966 0.032723236916696326 0.064601773217836375 0.095452946680848319 0.21736874725929525 -0.050093489664572256 -0.11929693227184229 -0.022221370155994707 -0.058692536201025991 -0.036668629956475178 -0.08263310793664165 -0.04047382642417701 -0.11789434549749875 -0.067483305898269369 0.10906646237140749 -0.039156349764747932 -0.018732815846059118 0.0031614693973115275 0.15671152956783771 0.026784744347700239 0.049565005054076509 0.067630551902040814 -0.040109621477252229 -0.029704474692217046 0.069046018761582673 -0.00019848602085718254 -0.017230151255537191 -0.066610817988626822
internal_count=24000 14385 7205 4435 2963 2770 7180 2277 4903 4066 2725 1844 1341 2069 2657 2282 2143 1584 1389 1806 1209 1268 2026 701 1472 1454 9615 1036 8579 7383 6794 4155 3963 2639 1856 122 2107 1231 557 192 121 953 1734 1618 1581 378 215 93 876 500 376 103 1417 1244 1198 681 169 276 117 420 1203 1017 337 680 491 186 86 189 116 65 2590 1349 1241 536 244 454 82 364 1105 797 80 589 480 559 1905 1644 512 1167 921 458
shrinkage=0.1


Tree=8
num_leaves=91
num_cat=0
split_feature=23 4 32 33 13 11 23 20 12 29 23 3 8 35 24 28 23 23 20 28 29 1 29 10 0 32 2 1 8 22 3 9 23 4 5 8 2 22 34 2 29 23 12 10 17 9 5 10 4 3 9 24 34 9 24 4 28 33 21 2 2 1 10 4 32 16 12 21 7 7 26 29 19 23 23 30 2 29 5 1 10 1 1 34 3 4 28 19 0 2
split_gain=10.814497874652487 3.5128702837001118 2.3294594928187164 3.9388307658520869 3.5812363893860537 3.2054791625313288 2.3034566192776391 4.3215631994932036 2.0806109622025799 1.9567870629463104 1.9328147503032489 1.9195902070727835 2.7386248197477001 2.1271405445442513 1.9699482021369199 2.2244278238958861 1.8581508074700006 1.8498103067646392 1.779226882239537 1.6915900977259053 1.6147952777123566 1.902917971752824 1.6002423218036252 1.5034531849082788 1.4635651889617598 1.4615182454564115 1.3555351393346227 1.3189205946742 1.309751801095608 1.3044023357256957 1.6547628581279383 2.8809067761706295 1.5610465278690853 1.3003466050681058 2.0964468747662446 1.2922417377342059 1.6037134212564275 1.3679831470484378 1.2605438949158447 1.3816365029050468 1.3069452750971564 1.2451079933488314 1.3242652728754121 1.214283164113406 1.6852269846617838 1.1961796922867669 1.1729836398493094 1.1637446397829443 1.615161997110417 1.3999666254445247 3.5642042290259024 2.4784434362932015 3.102232520275499 2.3074789636366506 1.996792151595921 1.8976214002349707 2.6288430557144951 1.8033265960563449 1.956492089073854 2.4303324818258858 2.024487728921804 1.8726259215638843 1.7788725479497942 1.7381468546341443 1.6650381094265763 2.4481677682887066 2.4502152666920551 1.6261967516492351 2.40049693083551 1.6100302669088549 2.2124479839231559 1.8830326531184611 1.6506020455812997 1.8422117699622973 1.5859456819879476 1.5340077536169283 1.4914921621664083 1.4344623172189144 1.4094543543060865 1.5439045190249727 1.4287291525465093 1.3928533102552354 1.348110738562569 1.3237383494237207 1.2823949447935636 1.2713257325049652 1.257925710895289 1.2465767893058017 1.4455501057157409 1.418362531084731
threshold=0.0425584868093579 0.023174449976968135 0.09253503834828733 0.064648910411622337 0.38000000000000006 0.078947368421052641 0.089347934295669507 0.028743098408574214 0.48148148148148151 0.0654576587795766 0.063962170233947249 0.024324577421922556 0.01472762080162846 0.058914549167386109 0.012395061728395064 0.0020878902366275607 0.050024888003982089 0.04454952712792435 0.027443975316661259 0.038973951083714466 0.012375466998754673 0.072777777777777788 0.073863636363636381 0.0097460691413618055 0.037394290369584984 0.062600655160874791 0.15049830364715863 0.010555555555555558 0.0042347210778849427 0.001415628539071348 0.0019314510464952946 0.0047972493587294671 0.029616724738675961 0.0014367500932242429 0.0031882112456905762 0.027698347307710952 0.20019614079728587 0.072763306908267281 0.4811689162626126 0.58431403731976261 0.061877334993773354 0.069437531110004988 0.12962962962962965 0.026233681997450256 0.0023734177215189878 0.060361294547836057 0.027219289949253038 0.0021303800016401878 0.0057031301410427971 0.0066137566137566143 0.0087103640233586223 0.03185185185185186 0.26874590486174799 0.0015445069038912843 0.038074074074074087 0.0060760271118032875 0.0078544442235036812 0.0060532687651331787 0.011778846153846155 0.012696140797285838 0.010257633587786261 0.0061111111111111123 0.0077834355965436782 0.0027747921647765911 0.11108244797827931 0.077868852459016411 0.20370370370370372 0.0007211538461538463 0.0040364620023105756 0.050684719208768922 0.018005006739842098 0.013153798256537985 0.020792848814613296 0.030114484818317574 0.025136884021901448 0.016527487821851084 0.078058736217133176 0.0033468244084682445 0.0055984379290356058 0.01388888888888889 0.0048888772916029855 0.029444444444444447 0.010555555555555558 0.26692438736731738 0.0080886828674439307 0.00060321568799491119 0.015012925034798173 0.0056354450058297709 0.0058397691348096373 0.01476357082273113
decision_type=2 2 2 2 2 2 2 2 2 2 2 2 2 2 2 2 2 2 2 2 2 2 2 2 2 2 2 2 2 2 2 2 2 2 2 2 2 2 2 2 2 2 2 2 2 2 2 2 2 2 2 2 2 2 2 2 2 2 2 2 2 2 2 2 2 2 2 2 2 2 2 2 2 2 2 2 2 2 2 2 2 2 2 2 2 2 2 2 2 2
left_child=25 6 -3 22 5 10 11 18 38 35 -5 12 14 23 15 -2 -17 28 20 -13 -8 45 -4 -14 -15 -1 -6 -25 -16 -27 31 32 33 -31 -35 37 -37 -9 -7 40 -40 -12 -43 44 -39 -22 -46 48 85 51 83 53 -53 -49 -54 56 57 -55 59 60 63 -61 77 -59 65 66 69 -63 -69 70 71 72 73 78 -73 -66 -72 -57 79 80 -52 -71 -56 -51 -75 -32 -76 88 -79 -89
right_child=1 2 3 4 26 8 7 9 -10 -11 41 19 13 24 17 16 -18 -19 -20 -21 21 -23 -24 27 -26 29 -28 -29 -30 30 47 -33 -34 34 -36 36 -38 43 39 -41 -42 42 -44 -45 46 -47 -48 49 -50 50 64 52 54 55 82 62 -58 58 -60 61 -62 67 -64 -65 75 -67 -68 68 -70 81 76 74 -74 84 86 -77 -78 87 -80 -81 -82 -83 -84 -85 -86 -87 -88 89 -90 -91
leaf_value=0.010279632539584719 0.029763294425275588 -0.0020430371064455808 0.012495583978420247 0.0062916252711047865 0.023149523664923274 0.0024988828785090338 0.0074143705840131876 -0.0097856432713311296 -0.0043202028892658376 0.0093640694483405063 -0.013646155125216435 -0.011421264051730613 0.001736508584555301 -0.0051997409853743112 -0.015661375845472017 -0.019859702934821449 0.011504717960077175 -0.0058844210480561883 0.017622843086719516 -0.00095656450699876851 -0.0011393461700006159 0.007224665389016823 0.0035454679581156945 0.038356231898069387 0.01018063921481371 -0.0078093785931707925 0.0082378644085092344 0.011596816145043517 0.0097645962238311762 0.0032874252313769749 4.1608350822724493e-07 0.022359674749895933 -0.026684158472787767 -0.01476784953386477 0.015338372786839803 -0.011065585578863439 -0.0021959872190224924 -0.021894017997242155 0.0050760306433760699 0.0020454863731278056 0.012302574626961897 -0.0034854611152375539 0.0033273236513137816 -0.0011095324889843509 0.0057623939270182601 -0.018787169314566116 0.027706316342720617 0.023921901951817908 0.0077200350436297336 -0.012527934286066784 -0.018494883360284747 0.026557112006998774 -0.0082168465234198663 0.0085076871042204377 0.025570482168442168 -0.0032459701674106794 0.016381018928119117 -0.00086522846990688294 -0.011321730971635885 0.0096698578271566266 -0.017295059590202989 0.023007543968117758 -0.012464589536190035 -0.016171711144295147 -0.016721799914483672 0.022971457172007787 0.033558362126350404 -0.012517301264525839 0.0048306895873031106 0.026801554560661318 -0.0083343498973561438 0.010767368121668395 0.00298142781878104 0.018725430203038594 0.006624365932359471 -0.0042453713529804465 0.0027344515597498096 -0.016833737034064072 -0.0028044975296718871 -0.015015744681197003 0.006280104419853114 0.0026422527631123861 0.0044629130319312768 -0.0055289290220506731 0.00012693410690832317 -0.014241526776459068 -0.007368946212988634 0.038593461005776014 0.016202148574369926 0.012869921813790614
leaf_count=87 36 739 668 292 68 1188 904 116 270 168 95 361 179 273 24 30 51 1124 110 270 449 324 285 20 80 482 589 233 130 514 83 64 21 101 30 260 944 21 471 413 534 1193 375 644 386 42 26 34 55 479 33 67 106 101 39 78 63 352 398 191 157 23 50 94 108 42 20 173 148 35 686 247 488 43 127 1126 148 26 508 266 79 75 135 620 269 256 130 27 27 104
internal_value=0 0.01709193330818802 0.03274613388069493 0.038847273013510701 0.02854231064568977 0.019121818125704459 0.0014920498785419981 0.015793280915938349 0.040359489692268852 -0.01068888950301425 -0.012120915084238857 -0.020862844884289578 -0.0068036557679329443 0.040445091523182618 -0.033391660515980054 0.090805822840103731 -0.0011173422321861172 -0.044761852654213077 0.052932027293529062 -0.069435003796583503 0.045042205075318899 0.012762749012262544 0.098190015379304274 0.087500412879442727 -0.017141024130937398 -0.026227146557576322 0.097812324898428019 0.13712184979274811 0.058021070701735358 -0.027405257605009975 -0.02470440964420206 0.020945024735307041 0.0014709853105716877 0.010206743404846784 -0.078732948039324235 -0.018001100645992325 -0.041113489910811679 0.0053243953094498407 0.0490170530145752 0.069147892495977192 0.089158062525649576 -0.025296412977337909 -0.018561280237472787 0.016437650695373975 0.057387388055374113 -0.026489359298208823 0.071472045649023888 -0.028711635124846799 -0.08175620285387572 -0.026073468035066768 -0.034819065346750604 -0.0058668622948662092 0.072279044290097377 -0.019120346940507637 0.02602701187133789 -0.023485922715654431 -0.036642521558439028 -0.04435695086992144 -0.052867898795132838 -0.031761514307744473 -0.075290640541174722 0.017300285914233913 0.048200673543107815 -0.040912584506075475 -0.022173012897338609 -0.010126414828851018 -0.013320238999762563 -0.02678423106323841 -0.045188506537137373 -0.015546811177575368 -0.019869689120068437 -0.0031777570372847116 -0.019209965497856321 -0.03917977427799435 0.050453797455817934 -0.053373116160617656 -0.063701021567665994 0.081186659975361272 -0.062450064695177443 -0.10868759224654506 -0.010196687653660774 0.10329303335059772 0.091939199073561309 -0.085794508796154745 0.026901883765673026 -0.10754561415464126 -0.0045396316840027092 0.12936283502241838 -4.1349316543003296e-05 0.18171719967863942
internal_count=24000 14385 7180 6441 5488 4831 7205 4394 2876 2565 1955 2811 2180 785 1395 117 81 1278 1829 631 1719 815 953 432 353 9615 657 253 154 9528 9046 730 666 645 131 2397 1204 1193 2606 1418 1005 1663 1568 1077 433 491 412 8316 394 7922 5529 2393 347 2046 280 2012 1700 1637 1536 1138 603 535 312 446 4430 3196 3154 344 321 3134 3024 2190 1686 1198 504 1234 834 262 886 378 112 110 174 1099 312 339 257 184 53 131
shrinkage=0.1


Tree=9
num_leaves=91
num_cat=0
split_feature=23 13 32 1 11 12 13 26 20 23 26 35 32 26 0 34 25 25 17 17 5 21 19 27 25 29 18 2 31 28 21 35 2 34 19 32 30 11 13 12 1 7 25 19 28 29 9 30 3 8 30 14 9 25 27 29 29 5 29 9 8 3 11 2 3 3 2 28 21 24 30 7 21 24 24 1 25 28 29 31 3 5 20 19 24 5 23 21 8 2
split_gain=8.7597436411645742 2.6647562062140469 1.9921847796036798 3.7162768644565678 3.6068647084987364 2.1191942037046521 2.0841035766293325 1.821965311961369 2.1547433249823276 1.7973680244193293 2.3588917082190424 1.7909963421744364 2.000269556304997 1.6267185643827242 1.6020533179096463 1.6712565317446979 1.5802647063598949 1.7418303355318601 1.5091886001592645 1.7404848628903984 1.4287632525000715 2.2220478533961194 1.6518746272289793 1.6456265152089635 1.6006200779488347 1.3940500689426072 1.7286872698286151 1.3759730632611449 1.3203278789754023 1.3172960600812509 1.6272357089675638 1.2681715068138373 1.2605342453909274 1.2662375501010721 1.2166387641148215 1.1838297107153588 1.1380514203069954 1.1169565690629093 2.2293077634863021 1.0156022946614072 0.96378581893689752 1.9647906199344169 1.8588937202776035 2.0935461840929706 1.6739244908592461 1.4843435349752097 1.3827483442669022 1.9229688010467765 1.7595232515280914 1.5086046193923943 1.6830371875147281 1.2775387903057283 1.4895271235344607 1.2616943133267728 1.2356830993919989 1.6713232437036278 1.936499062365713 1.700960363712734 1.5498505470785904 1.229278570223479 1.2240480045918927 1.5429748627589714 1.5417077510303676 1.2001613731744714 1.1764176757859484 1.7883838930791356 1.1572386836980728 1.5847797200753933 1.4488990703615021 1.2912146901480777 1.6952835595626388 1.2734698911584705 1.8539166902085311 2.2024067202590039 1.7740023854159399 1.2396490631329797 1.2152090853654762 2.0592276555423652 1.3383277478767863 1.1976614611306409 1.1399602942171816 1.10654362001116 1.1732168707419341 1.4855301970477945 1.8092133966682638 1.0930224510306714 1.0795627815639903 1.0672179311044352 1.0635130367226715 1.0528564506875713
threshold=0.0425584868093579 0.38000000000000006 0.079548773895633154 0.026111111111111116 0.078947368421052641 9.9999996826552254e-21 9.9999996826552254e-21 0.0039476217985750057 0.076485872036375455 0.27028372324539579 0.055170421721548242 0.047388476032083647 0.072298244809019613 0.0081840939726554995 0.0092085499192061711 0.26923076923076911 0.020010890280424725 0.055540430166076786 0.018196202531645573 0.0023734177215189878 0.022592061506544227 0.12812500000000002 0.060240963855421693 0.041585838991270614 0.0053090117070514571 0.0073941469489414704 0.010054347826086959 0.15049830364715863 0.0039879284328519079 0.0062636707098826811 0.10072115384615386 0.052819940632828903 0.021973070398642918 0.30627702791246214 0.06587640886125147 0.062600655160874791 0.0065530039434006032 9.9999996826552254e-21 0.060000000000000005 0.055555555555555559 0.028333333333333335 0.018005579193552935 0.01020963789817588 0.0009716284492809951 0.012626764764366675 0.0063044831880448328 0.0047972493587294671 0.0024936209696126191 0.0037809617455635161 0.0044164687636310774 0.0023776385989329627 0.037500000000000012 0.016160017464389023 0.031854070242308748 9.9999996826552254e-21 0.00070049813200498141 0.001478829389788294 9.9999996826552254e-21 0.00038916562889165638 0.026240244501446273 0.011753017011583388 0.0041555461909444221 0.078947368421052641 0.041269083969465652 0.025799503675609875 0.0186238703937819 0.012060008481764209 0.004076357128653809 0.021394230769230773 0.010617283950617286 0.0043493389004871262 0.0081715461128800491 0.005528846153846155 0.0063703703703703709 0.0081481481481481492 0.0016666666666666668 0.0085760958344677386 0.0078544442235036812 0.0022571606475716068 0.0067184019544442057 0.0020485086856768275 0.0035746610936530699 0.027443975316661259 0.038282160901671212 0.059901234567901245 0.0029644771231859741 0.01518168242906919 0.034855769230769239 0.0033502156739204192 0.012378074639525023
decision_type=2 2 2 2 2 2 2 2 2 2 2 2 2 2 2 2 2 2 2 2 2 2 2 2 2 2 2 2 2 2 2 2 2 2 2 2 2 2 2 2 2 2 2 2 2 2 2 2 2 2 2 2 2 2 2 2 2 2 2 2 2 2 2 2 2 2 2 2 2 2 2 2 2 2 2 2 2 2 2 2 2 2 2 2 2 2 2 2 2 2
left_child=35 2 11 6 5 7 14 -5 29 13 -11 37 -13 -6 -4 -16 34 31 19 -14 24 22 23 -22 -7 -17 -27 -3 -21 -9 -31 -18 -30 36 -15 39 -34 38 -2 -1 41 42 46 -44 60 -43 48 80 49 54 -51 52 63 -46 55 58 57 -57 -37 -54 61 -45 -62 -47 65 -53 69 68 89 71 -71 72 73 -49 88 -76 78 -78 -69 -73 -48 -42 83 -83 -85 -82 -80 -86 -75 -68
right_child=1 27 3 4 9 20 -8 8 -10 10 -12 12 18 16 15 25 17 -19 -20 28 21 -23 -24 -25 -26 26 -28 -29 32 30 -32 -33 33 -35 -36 40 -38 -39 -40 -41 81 45 43 44 53 51 47 66 -50 50 -52 64 59 -55 -56 56 -58 -59 -60 -61 62 -63 -64 -65 -66 -67 67 76 -70 70 -72 79 -74 74 75 -77 77 -79 86 -81 85 82 -84 84 87 -87 -88 -89 -90 -91
leaf_value=0.028405891571726117 0.0018677533394353572 0.020834571166950117 0.020395111450643252 -0.0058313182723803789 0.0094941859205710504 0.0030107472498877713 0.01746814492447623 0.0099925462057045746 -0.0058044738562430366 0.0024136779771285989 0.011169716590802943 -0.016664874904295978 -0.0182786982357502 -0.017438734067020133 0.029596147179603578 0.009137756622062539 -0.0096014456928900961 -2.0625505653551599e-05 -0.0088737740008919333 0.019701311488946282 0.0018741824891832142 -0.0029889588460491872 0.0055394743879636135 -0.010622080160467416 -0.0060547975156067029 -0.009492877026398977 0.0038438761698065989 0.0059393931449727815 -0.013763266752163571 0.0012559669275701638 0.009526617347997408 0.0063018211273736862 -0.014345151065169155 -0.021960474686189134 -0.002055645852067352 -5.4178401163429212e-05 0.0038672821564694586 -0.0031853525687946132 0.020722490675012833 0.0031571435657414522 -0.0088582747051574925 -0.022913688123226167 0.022727688401937486 0.01047052363323611 -0.018879690651027931 -0.018349266249053885 0.032911193759545036 -0.021592500016969794 -0.0098009246874620568 0.01535375464397172 -0.0059962470332781473 0.01064697377383709 0.011250759587103492 0.00088200032711029065 -0.0046561304346791335 0.0070494066785883021 -0.0036911924068744363 0.03406534718304146 -0.023603169707690969 -0.0018676280091374606 -0.0019267712525505435 -0.0093567226131757095 0.022853616702145543 0.0015374719257086097 -0.0020702471335728961 0.042046081102811377 -0.016179137726624809 0.015365550549406755 0.017159676998853686 -0.026089673923949404 -0.0058251405166367355 0.029573010825193848 -0.015361066907644272 0.0093384191117904802 0.020177736471999774 -0.0058862597585838533 0.021015301902415393 -0.0033602552399748849 -0.0084963623940764593 -0.0029764861613512041 -0.0065883320290595297 -0.0033817237187948458 -0.0068322131441811394 0.019660460303227108 -0.0075106794919286464 0.017587345706091988 -0.0016633305761773708 0.0048766728743766122 0.033645631538497082 0.0028511736415168074
leaf_count=21 537 68 66 254 271 238 174 337 236 636 596 119 50 67 25 265 53 1434 297 36 360 1529 780 149 1072 135 347 705 60 1107 303 930 37 22 221 157 472 326 71 66 406 20 24 43 168 53 23 34 374 96 60 60 181 40 1232 54 65 41 34 118 187 450 29 71 33 26 30 38 70 48 295 26 82 54 22 107 59 84 331 20 32 1352 649 60 105 45 767 206 27 940
internal_value=0 0.015382740733355833 0.012139325255931492 0.017199700167840754 0.011658585316510454 -0.0033591508982411915 0.075091209380405227 0.021427795464138821 0.031641718035867225 0.034374338882787597 0.066495537999775506 -0.016782452422642154 -0.044260370995839148 0.021076853226830242 0.054412567690192655 0.041628184154089254 0.013676699208243718 0.022020025037762347 -0.029307376142032826 -0.0032352667351417033 -0.0167914181009166 -0.0041068569936170236 0.026476383047385026 -0.017838590330131396 -0.044077748788222099 0.033116360605161994 0.001084784903714271 0.072497063474235679 0.011083051895030567 0.043757346975305249 0.030332769115343161 0.054443713395059531 -0.00024263722138154729 0.015281659987686718 -0.056343504020737276 -0.023604431952961521 0.025433921187472015 0.015373184622865672 0.040695401006623319 0.092516689464963719 -0.024664731865152903 -0.018212594186818157 -0.0233542056707274 -0.06428148240389403 -0.071912235723587001 0.038400024785477917 -0.016014284305011794 -0.0026847095714303136 -0.035784699456476228 -0.02240230685475916 0.071422155373371571 0.04827223533963805 0.022521436778084325 -0.15079365462924427 -0.031648432001688022 0.020695325061466621 0.09608873054385185 0.18708917843668085 -0.042461454400217348 0.060736032782191016 -0.048770719316849759 -0.076273684780931369 0.014002252784040239 -0.069625048747947144 0.1398065865290265 0.20139727152364198 -0.0071817711535927175 0.00366264885615151 0.032652946934103963 -0.042354092835546371 -0.086609935882140179 -0.0015483020694666012 -0.023526545865404095 0.020190249639944952 0.058418432942458562 -0.014412371456161026 -0.019910384764701153 0.066967928117805428 -0.030846651263115272 0.15421055613652521 0.13375613883137702 -0.040342172228277288 -0.032085142979432921 -0.01843580722082374 0.037617274492256082 0.075403108031718763 -0.037231971806624332 0.0069444779893593003 0.17440823254026014 0.022626073105433554
internal_count=24000 14385 13612 11585 10573 6365 1012 2237 1983 4208 1232 2027 1093 2976 838 772 2705 2417 974 677 4128 2818 1289 509 1310 747 482 773 627 1747 1410 983 591 531 288 9615 509 934 608 87 9528 6750 6188 941 917 562 5247 3134 2113 1739 156 542 423 208 1583 351 160 95 191 299 709 493 216 124 119 86 3034 2319 1040 715 343 372 326 244 210 129 1279 143 1136 46 100 2778 2372 1723 371 77 1098 311 81 970
shrinkage=0.1



feature importances:
mp_count_purchase_oct=52
mp_count_click_may=48
mp_count_favorite_sep=43
mp_count_favorite=39
mp_count_click_sep=38
mp_count_click_oct=38
mp_count_purchase=36
mp_count_purchase_aug=34
mp_count_favorite_oct=33
mp_count_click=32
mp_count_click_aug=31
mp_count_purchase_sep=29
mp_cart_slope=29
mp_count_cart=27
mp_count_purchase_jun=27
mp_count_favorite_jun=27
mp_count_favorite_nov=24
mp_click_slope=24
mp_count_favorite_may=23
mp_count_purchase_nov=23
mp_count_click_jun=22
mp_count_purchase_may=21
mp_count_favorite_aug=20
mp_count_purchase_jul=19
mp_count_click_nov=19
mp_count_click_jul=19
mp_count_favorite_jul=18
mp_purchase_slope=15
mp_count_cart_oct=13
mp_count_cart_jun=13
mp_favorite_slope=13
mp_count_cart_sep=12
mp_count_cart_nov=11
mp_count_cart_jul=11
mp_count_cart_may=11
mp_count_cart_aug=6

pandas_categorical:[]
