tree
num_class=1
num_tree_per_iteration=1
label_index=0
max_feature_idx=31
objective=regression
feature_names=mp_count_click mp_count_cart mp_count_purchase mp_count_favorite mp_count_click_may mp_count_click_jun mp_count_click_jul mp_count_click_aug mp_count_click_sep mp_count_click_oct mp_count_click_nov mp_count_cart_may mp_count_cart_jun mp_count_cart_jul mp_count_cart_aug mp_count_cart_sep mp_count_cart_oct mp_count_cart_nov mp_count_purchase_may mp_count_purchase_jun mp_count_purchase_jul mp_count_purchase_aug mp_count_purchase_sep mp_count_purchase_oct mp_count_purchase_nov mp_count_favorite_may mp_count_favorite_jun mp_count_favorite_jul mp_count_favorite_aug mp_count_favorite_sep mp_count_favorite_oct mp_count_favorite_nov
feature_infos=[0.00017222040018030727:1] [0:1] [0.0015373197625106023:1] [0:1] [0:1] [0:1] [0:1] [0:1] [0:1] [0:1] [0.00032803751556314349:1] [0:1] [0:1] [0:1] [0:1] [0:1] [0:1] [0:1] [0:1] [0:1] [0:1] [0:1] [0:1] [0:1] [0.0031604938271604936:1] [0:1] [0:1] [0:1] [0:1] [0:1] [0:1] [0:1]

Tree=0
num_leaves=31
num_cat=0
split_feature=23 22 18 2 24 10 17 23 9 16 0 18 3 25 28 7 27 10 20 17 24 6 0 27 29 19 18 23 12 25
split_gain=55.029071049696512 16.720566365824197 16.273953183048782 11.867563123017909 13.281370468297141 9.8407482491587892 9.792774682562289 9.2313687850108792 9.0877877842200618 8.0319509372729563 7.912338467155152 7.8834684140699638 7.411788127129741 7.043215270729644 6.3822709746684811 10.698296683839908 7.9892455843750003 5.1980085244964309 5.1753360857406498 4.8306539182303965 5.0228794532651211 4.5727196777801868 4.1402759631997572 3.9842773119868093 4.4414141688425923 7.2985938937766894 3.8352275013246357 3.4947025444868927 3.9772306616176047 3.4695157797662528
threshold=0.071926331508213051 0.34852774631936584 0.10625000000000001 0.37346268023748946 0.53293827160493834 0.082758646397924421 0.14319620253164558 0.018168242906918868 0.034694100311084435 0.036885245901639351 0.077365147682737098 0.026902173913043479 0.023762700753851198 0.045058535257282879 0.0062636707098826811 0.012193919242582211 0.010305528612997092 0.21924834676547558 0.036213056187073732 0.011867088607594939 0.038074074074074087 0.021607937801743058 0.87028584093723849 0.033583899127061112 0.015177459526774597 0.044500582977069582 0.024184782608695655 0.25510204081632659 9.9999996826552254e-21 0.060441056357201206
decision_type=2 2 2 2 2 2 2 2 2 2 2 2 2 2 2 2 2 2 2 2 2 2 2 2 2 2 2 2 2 2
left_child=7 2 5 -3 10 14 -7 19 12 21 -5 -11 23 -13 15 27 -16 29 -14 20 -1 -10 -6 24 -9 -26 -22 28 -2 -4
right_child=1 3 17 4 22 6 -8 8 9 11 -12 13 18 -15 16 -17 -18 -19 -20 -21 26 -23 -24 -25 25 -27 -28 -29 -30 -31
leaf_value=0.33065640612911373 0.33249678247185133 0.33309668694358968 0.32986463610643862 0.33520114948095259 0.33536155208866431 0.34523809559288476 0.33556263276282894 0.33175266170555406 0.33122362862910898 0.32871120094187184 0.34948979639986744 0.34273927420771161 0.32517580847699934 0.33293821837902926 0.3300985431769462 0.34726107267615119 0.33582974145370909 0.33586556176975724 0.33384728342207165 0.3281345564199879 0.3338541666821887 0.34473975670760121 0.34213333359559372 0.3241830062632467 0.33371613664273941 0.34724517947796618 0.35303030361731846 0.34262820540521388 0.34343434373537696 0.33398238295861066
leaf_count=2534 518 493 1773 116 567 588 471 4070 79 494 588 303 711 464 778 286 2784 724 227 2834 64 301 375 153 566 121 44 156 99 719
internal_value=0 0.051986106367309978 0.032898682035612976 0.1313698028866071 0.17213447252571365 0.065082161564012642 0.15203022171687811 -0.044093072402904818 -0.021275649363311083 0.044485071404978385 0.27604167489334941 0.0060798310032919413 -0.039728683354549627 0.069534986861526107 0.045156172448694638 0.11331445096910168 0.024892383298466943 -0.023942786783202372 -0.12117981882110587 -0.07529827348828054 -0.044536968271539211 0.17192982968531156 0.094479832964338317 -0.024168364603504872 -0.019059631988384253 0.055312956524728167 0.1666666716337204 0.052177664340699009 0.018368450034186364 -0.045612628432663449
internal_count=24000 11035 8896 2139 1646 5680 1059 12965 7489 1641 704 1261 5848 767 4621 1059 3562 3216 938 5476 2642 380 942 4910 4757 687 108 773 617 2492
shrinkage=1


Tree=1
num_leaves=31
num_cat=0
split_feature=23 22 21 23 25 19 4 25 21 31 18 2 3 7 14 26 27 21 18 8 18 1 25 26 1 4 6 19 18 23
split_gain=49.663734720494453 15.090309936052357 15.59287973624896 10.717082467178841 15.40631589961869 10.030285229185406 9.4510865657673371 9.3226792188414684 9.0753423699622129 7.8982773337526773 6.4909314628731565 6.4927577339888813 9.5178546078818052 6.0468336472887252 5.9972879342421539 5.4702764914646949 5.4316160261873936 5.2857538356526579 4.9632729550707069 4.4404811164206848 4.4007942224574581 4.3489981175920924 4.2899289777345944 4.2858337014753847 4.2832590965303776 6.0917439444215491 4.9641057136893396 3.8116250060491632 3.7419863956618751 3.7077428422144045
threshold=0.071926331508213051 0.34852774631936584 0.12283653846153848 0.27028372324539579 0.066975224612033771 0.11057131752817724 0.023174449976968135 0.072420364824394248 0.013221153846153849 0.021771933606380689 0.096467391304347838 0.071962468193384241 0.015861310109097724 0.014624249767533603 0.087500000000000008 0.045638359329867137 0.014185257032007762 0.12139423076923078 0.58586956521739142 0.0076939853632530418 0.17527173913043481 0.22611111111111112 0.13286142118159547 0.010109763142692086 0.029444444444444447 0.013522998969049552 0.014554204025330744 0.23824329576369999 0.15298913043478266 0.01866600298656048
decision_type=2 2 2 2 2 2 2 2 2 2 2 2 2 2 2 2 2 2 2 2 2 2 2 2 2 2 2 2 2 2
left_child=6 2 5 -3 -5 10 9 8 -8 17 11 -2 13 -13 23 -7 -4 29 -6 -11 -18 -17 -9 -10 -14 26 -26 -22 -24 -1
right_child=1 3 16 4 18 15 7 22 14 19 -12 12 24 -15 -16 21 20 -19 -20 -21 27 -23 28 -25 25 -27 -28 -29 -30 -31
leaf_value=-0.0031085428035980238 -0.00066164308989218122 0.00031863257791813908 -0.0069499403713865482 0.0011455962168318886 0.014433108459819446 0.0021842899283424752 -0.0051045236284615568 -0.0078377120456491027 0.015782346839856621 -0.010044824067381226 -0.001627834689305838 0.0056677186828956276 0.010300430845707021 0.017745243310928343 -0.0032021388889999568 0.014799102645809368 0.00087082579994516749 0.018631979871180752 0.0074390235384112421 -0.0042735544459775029 -0.0051680395539163331 0.0066553520881709703 0.011529069095849991 0.0049122856779712787 0.0023888219124392463 0.0042931562073995309 -0.0053713974675961909 0.0028309128786388198 -0.0028404640748694136 -0.00097429784233302305
leaf_count=4117 911 563 376 504 660 305 305 373 99 397 919 228 188 190 218 295 1816 31 412 2077 689 369 60 1079 475 1581 364 190 185 4024
internal_value=0 0.049386799565039989 0.031253747176378965 0.12480130823709631 0.16710799206331903 0.061652636829875568 -0.041888418518986614 0.01596079601610257 0.054178278650135803 -0.054489614133008013 0.043115987839818591 0.060779994549047596 0.083062120170996664 0.22315005209457361 0.088320090342046201 0.15454630813608475 -0.026406146093441198 -0.039502823945067413 0.23490166569601245 -0.10399327194054664 -0.010697485365540287 0.20546868075448346 -0.089230042107668509 0.11651627476531096 0.060609376480791469 0.049313898298366007 -0.019558957563679893 -0.068780564407439765 0.013572105461237383 -0.041072215305149609
internal_count=24000 11035 8896 2139 1576 5825 12965 2319 1701 10646 4856 3937 3026 418 1396 969 3071 8172 1072 2474 2695 664 618 1178 2608 2420 839 879 245 8141
shrinkage=0.05


Tree=2
num_leaves=31
num_cat=0
split_feature=23 22 21 2 23 19 4 25 21 26 31 18 2 3 7 14 26 27 21 0 8 18 1 25 26 1 0 16 20 31
split_gain=44.821520385616786 13.619005661496047 14.072572683592828 10.146945720487647 9.7864669395400838 9.0523324027862131 8.5296051104770534 8.4137180633151587 8.1904954958259601 7.1604350379547554 7.1281939253727842 5.8705772404208467 6.5949042132999622 8.5393734849546838 5.4572669823359838 5.4125520300651786 4.9369243996404464 4.9020337333953234 4.770392604171894 4.0368187501569324 4.0075344556672512 3.9717165868291153 3.9249696090635702 3.8716606267087554 3.8679650055730832 3.8202313399037493 8.2513988057944339 3.8851621210802119 3.8063109338785299 3.7203440299415758
threshold=0.071926331508213051 0.34852774631936584 0.12283653846153848 0.37346268023748946 0.27028372324539579 0.11057131752817724 0.023174449976968135 0.072420364824394248 0.013221153846153849 0.055170421721548242 0.021771933606380689 0.10815217391304349 0.071962468193384241 0.015861310109097724 0.014624249767533603 0.087500000000000008 0.045638359329867137 0.014185257032007762 0.12139423076923078 0.87028584093723849 0.0076939853632530418 0.17527173913043481 0.22611111111111112 0.13286142118159547 0.010109763142692086 0.029444444444444447 0.025955111875869529 0.012295081967213116 0.072263721987658347 0.011317094201336498
decision_type=2 2 2 2 2 2 2 2 2 2 2 2 2 2 2 2 2 2 2 2 2 2 2 2 2 2 2 2 2 2
left_child=6 2 5 -3 -5 11 10 8 -8 -6 18 12 29 14 -14 24 -7 -4 -1 -11 -12 -19 -18 -9 -10 -15 -27 -28 -13 -2
right_child=1 3 17 4 9 16 7 23 15 19 20 28 13 25 -16 -17 22 21 -20 -21 -22 -23 -24 -25 -26 26 27 -29 -30 -31
leaf_value=-0.0019509302504143776 0.00095737762380354488 -0.00036444514083088534 -0.006602443390070125 0.00087062983783250014 0.0031383292856862993 0.0020750754192227225 -0.0048492970476385032 -0.0074458264074121032 0.014993229418089896 0.014626984551650327 -0.009542582737708874 -0.0052379054792702495 0.0053843324971303607 0.0097854087961480977 0.016857980489730834 -0.0030420318724365411 0.014059146743709759 0.00082728460693674464 0.017700380375308376 0.0079880486408869435 -0.0040598764276642265 -0.0032670766098236194 0.0063225848887994048 0.00064467475730545665 0.004666671194170669 -0.0052378593769765672 -0.01652291715145111 0.003706527688824342 0.0015201267655764786 -0.0063754593831482943
leaf_count=8141 707 493 376 388 295 305 305 373 99 588 397 406 228 188 190 218 295 1816 31 375 2077 879 369 245 1079 310 24 2146 428 229
internal_value=0 0.046917459893993624 0.029691059527610489 0.11856124561598726 0.156255123609471 0.058570003386730803 -0.039793997092730647 0.015162755056104047 0.051469363705821766 0.19907777895040465 -0.051765132564564921 0.040960186862277828 0.056793181198796845 0.079094121567011649 0.21199254078442969 0.083904082846846487 0.14681899104694096 -0.025085836590714426 -0.037527683252542555 0.24083458269372784 -0.098793602967898311 -0.010162608488592456 0.19519524437835417 -0.084768541567148123 0.11069045723091767 0.05827270506293341 0.047854209691286086 0.069655837867117154 -0.035395092779783893 -0.01673320980153532
internal_count=24000 11035 8896 2139 1646 5825 12965 2319 1701 1258 10646 4856 4022 3086 418 1396 969 3071 8172 963 2474 2695 664 618 1178 2668 2480 2170 834 936
shrinkage=0.05


Tree=3
num_leaves=31
num_cat=0
split_feature=23 22 21 2 23 19 4 25 21 26 31 29 19 9 18 2 3 3 7 23 26 27 18 9 3 5 27 5 8 2
split_gain=40.451422153849244 12.291153179298199 12.700498504399816 9.157618027408418 8.8322858944135589 8.1697309375621536 7.6979691218749338 7.5933797418169959 7.4419999079616916 6.4622934934395957 6.4331952656788154 6.174489573154986 7.1424771735368164 5.3209348321606846 5.2981953255614949 5.9518998804599761 7.7209538532976723 5.2324650481491126 5.0553407091073659 4.6523093262492887 4.4555748504142905 4.4240852811958806 4.2937021029719222 3.7733979139287541 5.6295767998122273 6.8237164378782866 4.9212118840973247 5.410108465134174 3.7343098524931966 3.6432278547245858
threshold=0.071926331508213051 0.34852774631936584 0.12283653846153848 0.37346268023748946 0.27028372324539579 0.11057131752817724 0.023174449976968135 0.072420364824394248 0.021394230769230773 0.055170421721548242 0.021771933606380689 0.021092777085927775 0.038282160901671212 0.034694100311084435 0.10815217391304349 0.071962468193384241 0.016739242402959219 0.041988575174415892 0.014624249767533603 0.048780487804878057 0.045638359329867137 0.014185257032007762 0.031250000000000007 0.010773344976259347 0.0042257807744533419 0.0060255667083625722 0.013942774005819595 0.0069611821297454529 0.020495080695972476 0.84038379983036482
decision_type=2 2 2 2 2 2 2 2 2 2 2 2 2 2 2 2 2 2 2 2 2 2 2 2 2 2 2 2 2 2
left_child=6 2 5 -3 -5 14 10 8 22 -6 11 23 19 -10 15 -2 18 -15 -17 -13 -7 -4 -8 24 25 -1 27 -25 -23 -11
right_child=1 3 21 4 9 20 7 -9 13 29 -12 12 -14 17 -16 16 -18 -19 -20 -21 -22 28 -24 26 -26 -27 -28 -29 -30 -31
leaf_value=-0.001750164495801689 -0.00079482716595769953 -0.00034622266797942035 -0.0062723213370810167 0.00082709854948766453 0.002981412334967468 0.0019713216140621998 -0.0065443310219405306 -0.004026505406523986 0.00074526285504602054 0.013895635048345645 -0.004692696224636095 0.0033850435719881148 0.018014190236727397 0.019152286566875794 -0.0016812666893291244 0.0052678259190662886 0.002726325548626059 0.0061577939827016587 0.016015081405639647 -0.01261928989639822 0.0092717745487230375 0.006925682052969933 0.0016019957834014706 -0.00025663233487493829 -0.0043787608476765901 0.0099860607087612161 -0.0039398379646399233 0.0072536073650006075 -0.00095031583802939867 0.0075886468569437669
leaf_count=2619 936 493 376 388 295 305 268 618 413 588 2474 317 75 91 834 258 2638 521 190 53 664 160 408 1211 2806 130 662 299 2535 375
internal_value=0 0.044571586469746197 0.02820650574235286 0.11263318448325305 0.14844236762816243 0.055641504198696477 -0.037804297673578111 0.014404618596146465 0.048895894973015941 0.18912388900789434 -0.049176876748300194 -0.035651299641141693 0.078889919800704783 0.10261194735038572 0.038912177533893255 0.053953521253753217 0.075139412517603227 0.16179963211023729 0.19651627474065339 0.021850618800601445 0.13947804731973307 -0.023831548965625522 -0.032552261368410121 -0.04224775915345199 -0.056065871686574897 -0.023903186048495201 -0.006907236537661122 0.02460989198147856 -0.0096544825300878406 0.22879285523948392
internal_count=24000 11035 8896 2139 1646 5825 12965 2319 1701 1258 10646 8172 445 1025 4856 4022 3086 612 448 370 969 3071 676 7727 5555 2749 2172 1510 2695 963
shrinkage=0.05


Tree=4
num_leaves=31
num_cat=0
split_feature=23 22 18 4 2 24 23 4 20 3 19 1 0 0 19 9 2 14 1 24 4 4 1 15 22 29 19 27 7 10
split_gain=36.507405838498677 11.09276482868265 11.501274847909272 10.265277772654105 8.2647508562718528 8.6413413845197269 7.0229688049478263 8.5509240243470668 6.9151553732999709 6.8132000400763735 6.3554366373148081 5.9300321526099093 5.4788703608243239 5.2745431555822773 5.0448025317803973 4.4464835249404038 4.2842400826510918 4.4567645030665162 4.1425077739238425 3.9111356300447291 3.7918196649019738 3.7277907792970666 3.6232998863894608 4.3442937800806796 3.6075281357267359 3.5362185266929043 7.4824276603048459 3.7786002416711417 3.5878164273626014 4.2050540979040187
threshold=0.071926331508213051 0.34852774631936584 0.10625000000000001 0.019094518414529825 0.37346268023748946 0.53293827160493834 0.018168242906918868 0.023174449976968135 0.028743098408574214 0.023762700753851198 0.027011270890011662 0.026111111111111116 0.077365147682737098 0.034789269620770689 0.021181500194325693 0.027981225781804293 0.071962468193384241 0.13750000000000004 0.0094444444444444463 0.038074074074074087 0.046875342736186369 0.0099804777468248933 0.032777777777777788 0.087500000000000008 0.14467723669309177 0.018602117061021172 0.044500582977069582 0.019034917555771098 0.014758094057313535 0.0079194966115215745
decision_type=2 2 2 2 2 2 2 2 2 2 2 2 2 2 2 2 2 2 2 2 2 2 2 2 2 2 2 2 2 2
left_child=6 2 3 8 -3 12 18 9 10 15 14 13 -6 -9 -2 25 -5 22 19 -1 -4 -12 -18 -24 -22 27 -27 28 -8 -30
right_child=1 4 20 16 5 -7 7 11 -10 -11 21 -13 -14 -15 -16 -17 17 -19 -20 -21 24 -23 23 -25 -26 26 -28 -29 29 -31
leaf_value=-0.0019727159233167936 0.0017046660385099798 -0.00032891183184803624 -0.0034355931411902256 -0.0024680439304638579 0.0013107896108051828 0.003919122078616148 -0.0015481636273888592 0.0011224812397392847 -0.00082678820174678579 -0.005231669996928306 0.010294584909418071 0.0012181394387344828 0.013200853506521304 0.016902055258188792 -0.010778567663739238 0.006663519350138117 0.01762885959709392 0.00019724349475513069 -0.004338773101729111 0.0085465868854004406 0.0044495113082786107 0.0038295131576308742 0.0043750227814879873 0.010136376740644925 -0.00081238362441315645 0.00050890646608812474 0.0201009833499005 -0.0060669511486830703 0.015458888549071093 0.00099163811266152571
leaf_count=2235 893 493 1097 143 116 942 3448 93 1972 1105 363 1426 588 123 89 188 85 236 3149 92 402 578 724 597 1717 336 57 427 65 221
internal_value=0 0.04234300789975666 0.026796181850376532 0.053851924296206152 0.10700152334402298 0.14102024853881334 -0.035914079190403903 -0.016012207885373657 0.02507286697664371 -0.033918869965337821 0.067741728315611274 0.047751649107044422 0.2248339050195434 0.20216144000490507 0.011465870678546229 -0.017440684469678339 0.11664992332124577 0.13110762409838631 -0.063131959797301546 -0.031136519941179139 -0.020988835902208118 0.12646956274663984 0.1524521546758934 0.13957507052176113 0.0037172332497462171 -0.023662397565158984 0.067010108068699142 -0.032226275170087186 -0.022035824363411716 0.085592991509637631
internal_count=24000 11035 8896 5680 2139 1646 12965 7489 3895 5847 1923 1642 704 216 982 4742 1785 1642 5476 2327 3216 941 1406 1321 2119 4554 393 4161 3734 286
shrinkage=0.05


Tree=5
num_leaves=31
num_cat=0
split_feature=23 18 21 15 5 22 17 14 5 25 25 27 4 30 6 5 27 16 9 18 6 7 13 28 20 17 2 1 28 7
split_gain=31.586967582205943 9.4627095270889114 6.2739491347011409 11.207140353880582 7.2083117673708816 6.1265570756202496 7.7136223222484084 6.6158450657172345 5.922281221576668 4.9329569520872987 5.1102954392095103 5.3349031745634674 4.7675597067197266 5.7393072827852674 5.6800638025148436 4.764754769960029 5.7817673576040427 4.6411366347679195 4.3748873912922903 4.2107805956535387 3.8758292887139554 3.5728961589368442 3.4070983688553333 3.2601499390078019 4.4935899724639068 3.4088491047845055 3.2583216710555654 3.2401708814806636 3.2318899579137508 5.6757928146593351
threshold=0.067446490791438538 0.26168478260869571 0.12283653846153848 0.46250000000000008 0.038970416247165192 0.048414496036240103 0.059335443037974687 9.9999996826552254e-21 0.044187489194658862 0.013204465014974137 0.013748979036210184 0.06692531522793406 0.023174449976968135 0.010612386917188589 0.013441281585052355 0.0090663168278569337 0.0081231813773035896 0.069672131147540992 0.014020629809529008 0.16059782608695652 0.016254937613643491 0.048021922285778701 0.060000000000000005 0.075959435275402679 0.073562845079571296 0.073575949367088625 0.14328880407124686 0.039444444444444456 0.005865977331477432 0.0092211671222068824
decision_type=2 2 2 2 2 2 2 2 2 2 2 2 2 2 2 2 2 2 2 2 2 2 2 2 2 2 2 2 2 2
left_child=5 2 4 23 9 6 17 12 -3 15 -11 -12 13 14 -7 -2 -17 21 -8 26 -16 28 -10 25 -25 -4 -6 -14 29 -1
right_child=1 8 3 -5 19 7 18 -9 22 10 11 -13 27 -15 20 16 -18 -19 -20 -21 -22 -23 -24 24 -26 -27 -28 -29 -30 -31
leaf_value=-0.00155773117291693 0.0010416035289241242 -0.0015855954478426679 -6.6419385182551858e-05 0.0081395217415058257 0.0016687559500198246 0.0016680414830757815 -0.012458973777081286 -0.0019426638618082713 0.012501563595764804 -0.011765411091239556 -0.00029812350408448251 0.010301265645027161 0.013436044963882933 -0.0039803798596064251 0.026378772610967813 0.012049033940958798 0.0031906574367481797 0.011065663505291595 -0.0046918878560938673 0.00019593497117360436 0.0048739614337682726 0.0061437290106246718 0.0058986096966908664 0.008257815934890925 -0.00032292477714847761 -0.0042612165762044548 0.0073364214182405144 0.0042966199566496065 -0.0032505812706268102 0.0082303767987326089
leaf_count=4629 1194 205 858 363 323 352 224 1547 273 92 2361 125 134 375 44 266 599 69 951 375 40 134 687 172 1351 1112 1180 351 3461 153
internal_value=0 0.037125930389009631 0.027526780429887352 -0.004443678973992336 0.046448974054040859 -0.035485207785843888 -0.047537172299736863 0.0052998610105558135 0.12257896405944496 0.025280535857379757 -0.0038683414112421041 0.0046966099154057278 0.058004262914628159 0.011100680811925528 0.089118121755779336 0.061776798896965558 0.11829472446028208 -0.036975991611595885 -0.12345183790998256 0.098716305213741348 0.32276772672221776 -0.039103478666448761 0.15552649423480033 -0.021823004284868806 0.012922822939903425 -0.048684879850009979 0.12236840246680254 0.13643478886368349 -0.041736629205060702 -0.024891216851636887
internal_count=24000 11536 10371 3856 6515 12464 9621 2843 1165 4637 2578 2486 1296 811 436 2059 865 8446 1175 1878 84 8377 960 3493 1523 1970 1503 485 8243 4782
shrinkage=0.05


Tree=6
num_leaves=31
num_cat=0
split_feature=23 18 20 17 21 2 19 2 5 12 2 18 17 17 7 2 7 22 12 1 18 2 2 17 1 5 28 9 27 12
split_gain=28.507236686858313 8.5400953562818653 5.8094246565120553 5.7462070935055483 5.6622395276226092 7.7315573633658978 7.6978173877318632 6.4643596127231424 5.3448586871130246 5.0904787678287882 4.8144492912684358 4.8065739089737676 4.3508449272124672 4.0990384845955568 5.5258409693157411 5.9452217547832138 6.3788023975257779 4.1010257213125332 6.7179803305301542 3.7648775711334661 3.5583035757345751 3.7919172497981632 5.8031186392849907 6.9743058927620289 6.2643192718621812 4.4388822318872307 3.3886710579193764 4.7934781475496795 3.7238217966404772 3.35955014581649
threshold=0.067446490791438538 0.26168478260869571 0.044657356284507961 0.0039556962025316467 0.12283653846153848 0.49711089906700601 0.11057131752817724 0.54988337574215451 0.044187489194658862 0.31481481481481483 0.086699533502968634 0.18804347826086959 0.073575949367088625 0.059335443037974687 0.034031671785623725 0.03270780322307041 0.037814534080982849 0.010475651189127974 9.9999996826552254e-21 0.10611111111111113 0.10815217391304349 0.071962468193384241 0.096824639525021225 0.059335443037974687 0.053888888888888896 0.023197160610590763 0.005865977331477432 0.011330022376248432 0.0078806983511154234 0.092592592592592601
decision_type=2 2 2 2 2 2 2 2 2 2 2 2 2 2 2 2 2 2 2 2 2 2 2 2 2 2 2 2 2 2
left_child=2 4 9 -4 6 12 20 -7 -3 13 -5 -8 19 14 26 -16 -17 -15 -19 -6 21 -2 -23 25 -25 -24 27 -1 -29 -26
right_child=1 8 3 10 5 7 11 -9 -10 -11 -12 -13 -14 17 15 16 -18 18 -20 -21 -22 22 23 24 29 -27 -28 28 -30 -31
leaf_value=-0.0017657000619454447 -0.00076540396929536977 -0.0015063156005812855 0.01479701367872102 -0.0052487837485454053 4.1580105661064064e-05 0.011757514245332557 0.0074529102029923869 0.0015863599666914386 0.0073875084550430381 0.011377925604162082 0.0036562661133190191 -0.0015388735354283437 -0.0031617969196955547 -0.0091869987969967863 0.021767400168791053 0.012597688582708251 -0.0014357066449896588 0.0042844568516394897 -0.0045322314678411723 0.011034865870195277 -0.0013186913688648821 0.0069137907323614861 -0.0037431627555485191 0.014829558081331507 0.003932199761655748 0.005914177859408988 -0.0029849687283883849 0.0036332128389541538 -0.0050302657122547568 -0.0009708323671838245
leaf_count=4194 954 205 84 217 930 188 927 924 960 71 505 177 1729 335 41 106 343 258 1329 85 967 686 685 113 1396 144 4067 766 148 466
internal_value=0 0.035269633746717571 -0.033710945636722639 0.04839646309688133 0.026150441281235261 -0.0042214963152324512 0.044126525912390975 0.066118872074557716 0.11645001577205412 -0.039387611569068226 0.019596352182597004 0.12022585402904214 -0.032726776799724681 -0.041023339089506131 -0.032635863738175938 0.070831470100247124 0.037545996014949741 -0.083200732050279419 -0.0619778922878126 0.01924400191588942 0.028600069020729015 0.040562210743701962 0.055834490624403203 0.035665179540359346 0.067976537188397176 -0.041313024747788689 -0.038161639605296081 -0.021013251176875556 0.044607477225933868 0.054102502515185405
internal_count=24000 11536 12464 806 10371 3856 6515 1112 1165 11658 722 1104 2744 11587 9665 490 449 1922 1587 1015 5411 4444 3490 2804 1975 829 9175 5108 914 1862
shrinkage=0.05


Tree=7
num_leaves=31
num_cat=0
split_feature=22 19 17 18 10 30 17 9 21 10 16 14 6 9 31 2 2 21 2 7 0 6 20 31 14 5 8 29 31 26
split_gain=23.085125356675388 9.2035485048051626 7.7124314182097748 6.9341845231615693 6.5650557021809846 6.440839660004408 5.5862061386906614 6.0171592122531754 4.9433040872165677 5.6520859472747347 5.015052921728528 4.7562162470723166 7.4804019012560747 4.7472586452060206 4.4585358140354838 4.3966797304187573 3.7587412861326435 3.4071972075903743 4.79317075896408 3.7756208734832244 4.2399634701799842 3.3334891054996802 3.3211852958645274 3.2314146207386489 3.0146674837959155 4.6150236350792389 2.8649859911404896 2.6603736692091786 3.208090546416738 2.6124171174810624
threshold=0.048414496036240103 0.21842207539836769 0.35363924050632917 0.14945652173913046 0.044443491810245213 0.071445140338668542 0.059335443037974687 0.039404027724717579 0.06826923076923079 0.051399378219800056 0.02049180327868853 9.9999996826552254e-21 0.014099630070850839 0.014020629809529008 0.11363799669468996 0.14328880407124686 0.63393235793044966 0.078125000000000014 0.18105916030534355 0.028593366958775963 0.06299971995465363 0.015651451501661549 0.084443000974342333 0.011676367033124956 0.087500000000000008 0.012971494238846347 0.018556438714680368 0.059153175591531763 0.12951785585973993 0.0068361255536298869
decision_type=2 2 2 2 2 2 2 2 2 2 2 2 2 2 2 2 2 2 2 2 2 2 2 2 2 2 2 2 2 2
left_child=6 3 4 5 -3 8 7 -1 9 10 11 12 -2 -8 23 -7 -4 -10 19 -19 -21 -14 -20 -5 25 29 -15 -17 -29 -13
right_child=1 2 16 14 -6 15 13 -9 17 -11 -12 24 21 26 -16 27 -18 18 22 20 -22 -23 -24 -25 -26 -27 -28 28 -30 -31
leaf_value=-0.0016552467374076623 0.0013007515446633727 0.00016871606783261376 -0.0018087839018406831 -0.008022367567927749 0.0093804613275166888 -0.0013528772047040061 -0.011459873856178353 0.0042892718022423133 -0.0056350068542464033 0.0047440782028130308 -0.0011248670423983215 0.0041583066124741622 0.016472496487656418 -7.3522896100051467e-05 -0.0062535528680111507 0.0018254690906651305 0.0035610685024586712 -0.0011671828179277927 -0.0052381403881042749 0.0055917036462397804 -0.0071373764578610251 0.0066161809254039836 -0.00019097183967803743 9.8422858990779535e-05 -0.014962036121222709 0.007124718356055099 -0.0053601157553957706 0.010236037537671518 0.0044656439700670415 -0.0062663622167375352
leaf_count=8550 523 252 508 135 832 342 224 448 348 1109 1815 82 147 397 470 497 909 585 599 630 73 206 715 1323 36 154 723 345 798 225
internal_value=0 0.02646134004513993 0.081289158897941374 0.01417090579302409 0.14477970984479158 0.025565534345712806 -0.036167723577872304 -0.027185520865594476 0.011750034086290056 0.033390064356852496 0.011999200753764795 0.057600965507692087 0.10193340895382781 -0.096303036081649002 -0.040373195302807939 0.076080635445630387 0.032719111455185107 -0.019771054073915644 -0.0073424142246334301 0.036008429615208823 0.085398145539323095 0.21441304557046539 -0.049835478810414877 -0.013070043610774277 -0.020538311069400256 0.0012258685591939732 -0.069724147873265405 0.097588719227691981 0.12414727626614475 -0.06963845970964587
internal_count=24000 13658 2501 11157 1084 9229 10342 8998 7247 4297 3188 1373 876 1344 1928 1982 1417 2950 2602 1288 703 353 1314 1458 497 461 1120 1640 1143 307
shrinkage=0.05


Tree=8
num_leaves=31
num_cat=0
split_feature=23 19 18 21 19 23 4 3 3 26 17 24 27 7 29 15 3 10 29 18 23 6 6 25 4 30 19 4 20 20
split_gain=23.570462635927719 7.0628163867849896 9.7833965396694733 7.2047293890485138 6.4676038312489279 5.0707663997391919 5.2562658058339427 7.0038219661689389 4.4795885636204531 3.816210765585323 3.6205833896551347 4.3198556511181883 5.1600705138598144 3.5398886033034218 4.4952801903284527 4.6422352424074997 3.8888835135778388 3.4852295178640125 3.4707862160043312 3.452046696790374 3.2875426775608325 3.5942711613430567 3.3021703441248618 3.1803178045620437 6.6152205605233387 3.6059724532504602 3.8954551854629194 3.441830417376651 3.7238426817466719 3.0663072013800168
threshold=0.067446490791438538 0.31208705790905561 0.24483695652173917 0.12283653846153848 0.11057131752817724 0.018168242906918868 0.023174449976968135 0.023762700753851198 0.0018612164629863749 0.0089543616406701342 0.0071202531645569627 0.019703703703703706 0.026551891367604271 0.027705767984445889 0.020781444582814449 0.062500000000000014 0.021643957484665452 0.0015003988637973327 0.012998132004981322 0.18804347826086959 0.063962170233947249 0.047432440905385925 0.042369427550316641 0.0061257827389055277 0.0061966702494022684 0.021746694502435635 0.023902059852312477 0.016495207177169933 0.051802533290029242 0.055050341019811634
decision_type=2 2 2 2 2 2 2 2 2 2 2 2 2 2 2 2 2 2 2 2 2 2 2 2 2 2 2 2 2 2
left_child=5 3 -3 4 23 10 7 8 17 -8 11 12 -1 14 16 -16 18 -7 29 -6 21 22 -11 24 25 26 -2 28 -25 -10
right_child=1 2 -4 -5 19 6 9 -9 13 20 -12 -13 -14 -15 15 -17 -18 -19 -20 -21 -22 -23 -24 27 -26 -27 -28 -29 -30 -31
leaf_value=-0.0023566214594301781 -0.0035977452321160107 -0.00023611834828887507 0.0076905065382859355 -0.00084392644089893796 0.0068300295175086337 -0.0040439331233501439 0.01506448840653455 -0.0051938927531609549 -0.0010311624756928299 0.00091816610147973064 -0.0035917478062375018 0.0044580561017233226 0.019304448685475761 -0.010092634065906601 0.0099339120245228226 -0.0031418358286221825 0.0059711537338833125 0.011472944448922428 -0.0054407960475126565 0.00084137923900897695 -0.0076180447702822486 0.0048287682408510255 -0.0097278485276612904 0.00050462815848604365 0.012345799477247711 0.0047911802514420572 0.004653232661597932 0.0017820599700117711 -0.0045512062930018532 0.011570483932689744
leaf_count=1521 399 633 1011 3218 927 50 54 974 3252 595 3621 315 28 101 192 105 187 131 469 325 92 645 83 1082 178 601 223 2390 549 49
internal_value=0 0.0320743939654589 0.092769333281511226 0.021987204293442121 0.04072707980326417 -0.030649545993440722 -0.012768216799453022 -0.026938455263845716 -0.01041751712350408 0.040382235167057356 -0.053401377615107118 -0.017592371293531466 -0.039301441918656935 -0.016824119174521496 -0.012431104417468216 0.10622345769044125 -0.021336943423293109 0.14373028360677687 -0.028318939016099318 0.10550935487872876 0.030425339916148372 0.043136098532629841 -0.0077021415166798595 0.025768133216307023 0.066798317972716903 0.040583317531295612 -0.012791944182570724 0.01147236379483718 -0.023943649140111805 -0.016882076087557017
internal_count=24000 11536 1644 9892 6674 12464 6979 5510 4536 1469 5485 1864 1549 4355 4254 297 3957 181 3770 1252 1415 1323 678 5422 1401 1223 622 4021 1631 3301
shrinkage=0.05


Tree=9
num_leaves=31
num_cat=0
split_feature=23 19 17 19 28 0 20 30 12 5 29 30 23 0 29 20 30 2 31 9 3 3 25 5 2 2 2 23 11 8
split_gain=21.272342643352928 6.3820184389603032 7.2024133448465921 6.6158163001408301 5.2021521379309483 4.6481782042978281 4.6237333526855782 5.1951709164234181 4.1417625117315868 3.7905737192153572 4.7701251365513002 4.984953267909896 4.8126226352879522 3.5609625148151913 3.7147795834264592 3.469311483657691 3.9854438403910217 3.5842508292948656 3.3070940729784368 4.6518623408178428 5.471568715955053 4.1268559449401572 3.6112138905629396 3.2179789130219549 3.1743656362738397 2.9449312264029976 3.2046358892276778 3.727675460985715 3.0729323333481759 2.8779580697400773
threshold=0.067446490791438538 0.21842207539836769 0.35363924050632917 0.17877963466770311 0.10131238814873735 0.077979150848597314 0.044657356284507961 0.0036534446764091861 0.31481481481481483 0.042423040546724848 0.023272104607721049 0.0074808629088378579 0.124688899950224 0.0052864175011868237 0.0030354919053549195 0.06349464111724587 0.011308281141266528 0.034960771840542838 0.045735431486670981 0.027981225781804293 0.025799503675609875 0.038863136208268957 0.069970051728832042 9.9999996826552254e-21 0.63393235793044966 0.086699533502968634 0.055794105173876174 0.024639123942259835 0.078947368421052641 0.036894780206465382
decision_type=2 2 2 2 2 2 2 2 2 2 2 2 2 2 2 2 2 2 2 2 2 2 2 2 2 2 2 2 2 2
left_child=6 3 5 4 9 -3 8 -8 18 10 11 -2 13 -13 -15 16 -16 -18 19 -1 29 -20 -22 -19 -4 26 27 -9 -27 -21
right_child=1 2 24 -5 -6 -7 7 25 -10 -11 -12 12 -14 14 15 -17 17 23 21 20 22 -23 -24 -25 -26 28 -28 -29 -30 -31
leaf_value=-0.0017745422395673656 -0.0040761657037084106 0.0016732971990268504 -0.001699420064687729 -0.0033745063257304741 0.0062181273708119995 0.0090676799517089689 0.016622500070210162 -0.013430619307539679 0.010330386501802527 0.0031720546871497677 -0.0011086667395615473 -0.01414455118087622 0.00024384504704232719 0.015688653290271758 0.0086889717093220475 0.011637632405316388 0.015582013680883076 -0.011188303299096166 -0.0086727530740604783 0.0048434625290058285 -0.0026546268084997773 -0.0025527999387122691 0.0096815129851593688 0.0019301214122608116 0.0032353805056368427 0.006192916816233112 -0.0076835091231734895 0.010427540866658092 -0.0019308086198109847 0.016711589812286317
leaf_count=9090 337 298 508 819 512 741 58 22 71 1612 2732 26 1454 71 270 135 46 49 351 270 465 1280 68 1017 909 323 157 64 182 63
internal_value=0 0.030470674309812373 0.075695837917661823 0.018237964858173798 0.026737094120286076 0.1389373129841453 -0.029117068811409432 0.04413369789756557 -0.034181412435310088 0.020286683475360483 0.0089513552447221603 0.033924234298532405 0.046605402421609363 0.084197249480487388 0.090207510878817565 0.079743994464981136 0.064797418313330052 0.038335957624715006 -0.035656861569293569 -0.028818968460472678 0.04121262027815363 -0.077396937468386662 -0.021615706677732056 0.026542337985244521 0.029324706940896592 0.021777620887692601 -0.068676703015472657 0.086485811790754624 0.06530316684505727 0.14177567813847516
internal_count=24000 11536 2456 9080 8261 1039 12464 806 11658 7749 6137 3405 3068 1614 1588 1517 1382 1112 11587 9956 866 1631 533 1066 1417 748 243 86 505 333
shrinkage=0.05


Tree=10
num_leaves=31
num_cat=0
split_feature=30 11 23 12 3 13 29 14 18 9 9 29 24 28 7 28 4 5 23 16 21 21 22 7 17 24 25 5 22 31
split_gain=19.960440583325461 11.211568042926057 8.5405220935674784 5.4753318649253728 4.6749702945598841 4.3918825880768715 3.9044089396430213 4.2274581058235086 5.906829211445384 4.3197377891934057 5.3947711362030244 5.3254616856983583 4.5853821224265934 4.003542520297664 7.5918143621641176 4.0143682326284509 3.9289744031975378 3.4823993415314014 3.0636689035730384 2.9903896727211983 2.8519403487609329 2.8085482327657942 2.7873428070386872 2.7727923265924357 3.4451330706533252 4.023673141314001 3.2198215194146247 3.138521605887381 2.781217905159433 2.8061379381784763
threshold=0.06692182788216193 0.078947368421052641 0.018168242906918868 0.88888888888888895 0.10132509247553496 0.10000000000000002 0.043119551681195523 0.062500000000000014 0.045108695652173923 0.012852698793865636 0.0058123669704742689 0.022104607721046079 0.008641975308641978 0.0062636707098826811 0.012193919242582211 0.003479817061045934 0.019094518414529825 0.065345618370605416 0.14733698357391739 0.036885245901639351 0.06826923076923079 0.063701923076923087 0.13023782559456401 0.021457352982614336 0.011867088607594939 0.031555555555555566 0.00040838551592703518 0.022592061506544227 0.001981879954699887 0.00061076381404038236
decision_type=2 2 2 2 2 2 2 2 2 2 2 2 2 2 2 2 2 2 2 2 2 2 2 2 2 2 2 2 2 2
left_child=2 -2 19 5 6 17 7 9 -9 10 12 20 -4 14 15 -11 -15 -3 -7 23 -12 -14 -16 24 25 28 -26 -25 -1 -30
right_child=1 3 4 -5 -6 18 -8 8 -10 13 11 -13 21 16 22 -17 -18 -19 -20 -21 -22 -23 -24 27 26 -27 -28 -29 29 -31
leaf_value=-0.0055373667014969727 0.00021330659547127967 0.0049772996613845254 -0.007431585262430475 -0.0040120095466122481 0.0074276329839930823 -0.0042624907306403172 -0.0024670360443821877 -0.0073575699075301123 9.3639764549777332e-05 0.0037316176291694136 -0.0020912932988390526 0.0096509073953052141 0.0037336551383429883 -0.00066324232734950566 0.01371334229239184 -0.0018731976175583858 0.0020144749616942026 0.010012859794869447 0.0040809608080715366 -0.0063164100669096659 -0.0078653420345122082 0.020861720860004429 0.0043613892161484926 0.0056009887891300654 0.0012172644337018331 0.0059484815767833167 -0.0051324377339118038 -0.0019409271966980167 0.0093617893755435951 -0.0014474255609650216
leaf_count=432 2420 729 94 165 204 121 1660 434 687 831 2108 91 561 3252 201 519 2367 649 1213 458 238 25 132 236 231 175 1471 332 62 1902
internal_value=0 0.054428778280733843 -0.015108879608393595 0.096623287915271902 -0.0016729932003806008 0.10738378718143719 -0.0039946623812570714 0.0025282541803202142 -0.055822565952227864 0.0088063297507767254 -0.022358746010598594 -0.044334551540368104 0.056398662924766543 0.022109745410624285 0.064894472532731326 0.031537550908547859 0.0092948858721821851 0.1469781924531145 0.066483419516990924 -0.049095409408923159 -0.053541327179596143 0.089287493314352456 0.20012523587401565 -0.041788526801278932 -0.050514198161387872 -0.027411362230893657 -0.085412782871905277 0.023853715666582887 -0.038102795415012186 -0.022123955964070959
internal_count=24000 5297 18703 2877 13404 2712 13200 11540 1121 10419 3117 2437 680 7302 1683 1350 5619 1378 1334 5299 2346 586 333 4841 4273 2571 1702 568 2396 1964
shrinkage=0.05


Tree=11
num_leaves=31
num_cat=0
split_feature=30 23 18 31 18 29 14 18 9 9 29 10 28 7 8 17 28 1 15 18 29 4 18 28 21 26 28 21 22 22
split_gain=18.01429716895894 7.7078217868166909 7.2079439029797285 4.2191606552955587 3.8969298548928286 3.5237291751325928 3.8152811068265762 5.330913477827206 3.8985631732058357 4.8778562328009816 4.835440564011714 4.5752587334574883 3.6131971374278176 6.8516124112124244 3.6833871800956666 5.3647185057076721 3.6229676496157195 3.5246975299072369 3.2871300725466881 3.0927509768134263 2.9642623119221749 4.9908011714399692 5.9781405109712287 3.0667386496875824 2.8622504842138992 2.8235634905726883 2.6249475771048023 2.537688045747057 2.5991561022211891 2.5155764659343642
threshold=0.06692182788216193 0.018168242906918868 0.26168478260869571 0.21121649780843574 0.25163043478260877 0.043119551681195523 0.062500000000000014 0.045108695652173923 0.012852698793865636 0.005965180374392841 0.022104607721046079 0.0015003988637973327 0.0062636707098826811 0.012193919242582211 0.046066980080453651 0.029272151898734181 0.003479817061045934 0.10500000000000002 9.9999996826552254e-21 0.02798913043478261 0.059153175591531763 0.063688609094299076 0.24483695652173917 0.043646848279976148 0.045913461538461549 0.039187367610244564 0.044839928415191889 0.06826923076923079 0.0053793884484711219 0.13023782559456401
decision_type=2 2 2 2 2 2 2 2 2 2 2 2 2 2 2 2 2 2 2 2 2 2 2 2 2 2 2 2 2 2
left_child=1 25 4 5 20 6 8 -8 9 11 27 -3 13 16 17 -16 -10 -14 -13 -19 23 -22 24 -2 -23 -1 -9 28 -11 -15
right_child=2 3 -4 -5 -6 -7 7 26 12 10 -12 18 14 29 15 -17 -18 19 -20 -21 21 22 -24 -25 -26 -27 -28 -29 -30 -31
leaf_value=-0.002056351533531548 0.0027656581475023639 -0.0064149265445895111 0.00698101905939107 0.0070562513435588172 -0.0041920687112153741 -0.0023436842356101576 -0.0069896914751573641 0.0021466940203133749 0.0035450368832738535 -0.011941034346818924 0.0091683619297467742 0.0021318380883254043 -0.00048868877362859189 0.013027674901248211 0.016471169163019227 0.0023205142389621414 -0.0017795378360215411 -0.0063311700605683868 0.010569317477523902 0.0046539198107940632 0.0056706646413841634 0.010167190935966131 0.0099797708132574638 -0.0022606656690040612 0.00011638590283151988 -0.0071641514195012052 -0.0045531391108770509 -0.0074720750899374983 -0.0017059232771278199 0.0041433202159224134
leaf_count=5013 570 118 793 204 255 1660 434 476 831 64 91 436 4413 201 78 474 519 72 157 582 1114 74 186 649 1656 286 211 238 2013 132
internal_value=0 -0.01435343534613219 0.051707338809696982 -0.0015893427638981243 0.036228865762216372 -0.0037949284764401841 0.0024018423512345583 -0.053031437982947141 0.0083660142731673427 -0.021240807010800861 -0.042745492027039735 0.051530321187610868 0.021004258855765109 0.061649749694094369 0.0088301422725815988 0.086401266086360687 0.029960674268228037 0.00037952842904379411 0.087314139982500122 0.068891042370679542 0.043434775669621312 0.060187887565137529 0.029241592438584329 0.0017925040999624551 0.010926094616768677 -0.046640639907797682 0.0017791557867280607 -0.05163372463464222 -0.040426092971157554 0.19011897439355249
internal_count=24000 18703 5297 13404 4504 13200 11540 1121 10419 3117 2406 711 7302 1683 5619 552 1350 5067 593 654 4249 3030 1916 1219 1730 5299 687 2315 2077 333
shrinkage=0.05


Tree=12
num_leaves=31
num_cat=0
split_feature=30 11 23 7 15 3 29 4 14 18 19 30 9 28 7 9 29 7 30 18 25 1 20 20 19 1 2 21 17 7
split_gain=16.257903305575397 9.3253809778263932 6.9563098794084413 4.713270314816274 6.0741667159558927 3.8077925588916726 3.18016563899437 3.5167662736074772 3.354365986456453 4.3854730660052379 2.8501503848770233 2.6685269849740862 2.6521239905478606 5.3502444529242288 6.0718490009782773 5.1437173826541471 4.6970438572954798 2.8075553664342303 2.6139061282064464 2.538836955286321 2.4993165750462527 2.4085663208652242 2.6166859854973978 4.1982875482051831 4.9790687704332823 3.5793321957837003 3.2180895003082011 2.3939912233443392 2.3831512650706372 2.6424026665979401
threshold=0.06692182788216193 0.078947368421052641 0.018168242906918868 0.085920989602412026 0.46250000000000008 0.10132509247553496 0.043119551681195523 0.033911689223277551 0.062500000000000014 0.054076086956521746 0.084531675087446564 0.08658083971236373 0.010773344976259347 0.0062636707098826811 0.012193919242582211 0.005965180374392841 0.025918430884184312 0.012447518949533659 0.052598005103224314 0.063586956521739138 0.13286142118159547 0.0038888888888888892 0.013803182851575188 0.030367002273465414 0.061601243684415087 0.026111111111111116 0.095949957591178983 0.034855769230769239 0.011867088607594939 0.019238355546789151
decision_type=2 2 2 2 2 2 2 2 2 2 2 2 2 2 2 2 2 2 2 2 2 2 2 2 2 2 2 2 2 2
left_child=2 -2 18 11 -5 6 7 8 12 -10 -11 -3 15 14 -14 17 -17 -4 19 28 -8 -15 -23 25 27 -24 -27 -25 -1 -30
right_child=1 3 5 4 -6 -7 20 -9 9 10 -12 -13 13 21 -16 16 -18 -19 -20 -21 -22 22 23 24 -26 26 -28 -29 29 -31
leaf_value=-0.0011901171239931281 0.00016865412989431177 0.0097759247157308791 0.0018228276825507251 -0.00010408161924435541 0.0060328234460472405 0.0067034388508866814 -0.0024564673752047773 0.0029986486870272103 -0.0059361693257575527 0.012665919694635604 -0.0005932599488718838 0.0049553533407658678 0.0016051951108900086 0.012331684404297879 0.0090306508201020621 -0.0030649878149730152 0.010042208286238389 0.019220680991808573 -0.011611393767676942 0.0052627621008002239 0.014141175863535508 -0.0024113388532389659 0.0067693545660945809 0.0031836545744607612 0.00045869588552849917 -0.0035428032641195589 0.0025745570202762229 -0.0057439726777374746 -0.0043922895512110757 -0.00082209443500458877
leaf_count=2604 2420 450 686 910 724 204 1637 968 544 45 408 793 1589 38 333 1832 71 24 73 115 23 1138 356 86 1694 288 848 592 1775 732
internal_value=0 0.049121971746559565 -0.013635763914924328 0.087603831927230216 0.052301712379753222 -0.0015098753370515841 -0.0036051817825346281 0.0022817505578441059 -0.0030006088860504922 -0.05820180112524042 0.014477542036153359 0.13401064072898194 0.0027472332719100673 0.012943242411954551 0.057834149368347659 -0.024418712243968119 -0.05151929467900828 0.048218482648822621 -0.044308609828833792 -0.041683637310023329 -0.04453000058251691 -0.0041758693281620267 -0.0060812598083172737 0.0063311621994088648 -0.019811186355241837 0.047892590330529151 0.020473538963517671 -0.09223119562881886 -0.044989833968699364 -0.066997104745297298
internal_count=24000 5297 18703 2877 1634 13404 13200 11540 10572 997 453 1243 9575 6962 1922 2613 1903 710 5299 5226 1660 5040 5002 3864 2372 1492 1136 678 5111 2507
shrinkage=0.05


Tree=13
num_leaves=31
num_cat=0
split_feature=4 23 17 24 28 15 17 5 17 4 9 17 9 16 1 31 20 28 26 26 5 7 22 28 27 24 21 22 5 4
split_gain=14.223379356400368 5.8439133302128017 5.2120260074408868 4.6264860815129811 4.560872134982862 4.526586504443646 3.387564105746911 7.2895903710672467 4.8583140948490309 3.9260298684596191 6.3607519755199187 3.3501403639652181 3.8483645960015922 3.3177838831749167 3.3143037245122269 3.2861661323731095 3.6495608718389541 3.2328280337258235 2.9573346453325859 2.8775328753249441 2.7850514429590985 3.4293800839739932 2.775869872229094 3.0538008751643821 3.3893104850092 2.7457474242477686 2.7094375565382993 4.1419795049122996 4.0170112156933859 2.667975596464792
threshold=0.019094518414529825 0.090841214534594344 0.022943037974683549 0.059012345679012354 0.0062636707098826811 0.46250000000000008 0.060917721518987354 0.064430342414904779 0.084651898734177236 0.052819759152427127 0.050106423620586156 0.11946202531645571 0.14446324291873605 0.10245901639344264 0.16888888888888892 0.041460084788388314 0.052776875608963957 0.005865977331477432 0.029462738301559797 0.0068361255536298869 0.014441020634387937 0.021105131167403989 0.001981879954699887 0.0022867369258301857 0.0020611057225994184 0.12735802469135807 0.0060096153846153858 0.0042468856172140435 0.0071594919201472583 0.00058128057206782355
decision_type=2 2 2 2 2 2 2 2 2 2 2 2 2 2 2 2 2 2 2 2 2 2 2 2 2 2 2 2 2 2
left_child=1 2 22 -4 17 6 7 -2 25 10 -10 -11 14 18 -13 16 20 -3 19 -6 -5 -22 -1 26 -25 -8 28 -28 29 -24
right_child=5 4 3 15 13 -7 8 -9 9 11 -12 12 -14 -15 -16 -17 -18 -19 -20 -21 21 -23 23 24 -26 -27 27 -29 -30 -31
leaf_value=-0.0039919279023836974 0.0013535856941945482 0.0023907338863696486 -0.0061966023893299249 -0.0015686397051147755 -0.0045312257749693732 0.0050248903663534872 -0.0076934435758097414 0.0078593682581141813 -0.00019889159799909491 0.0035852725250054142 0.0054054724511122644 -0.00014291746962455013 0.00069162637368103466 0.0029632955982461331 -0.0065575658256752352 -0.0044945204137321121 -0.0097661450505256656 0.010142707577877982 -0.0047486623020275781 0.00069004184937183574 0.0074019474957300272 -0.00097962031570764693 0.0017958563760923604 -0.0046432048423785824 -0.00064968069370039381 -0.0012841920184079932 0.020939600862124388 0.0029724081830372886 0.01273977304327077 -0.0029784663222157041
leaf_count=621 2189 769 919 1114 322 836 203 536 926 522 1117 372 1439 618 439 914 106 163 460 1462 230 260 551 611 4073 945 34 567 58 624
internal_value=0 -0.01954147096956985 -0.03151576649805643 -0.062871005469178731 0.014172135998087929 0.030217688651156996 0.023455006881697622 0.05266510437387939 0.010106438096489619 0.024043883787137326 0.057305326560403692 -0.0004702315035492483 -0.017214989728397793 -0.0056134276378412996 -0.072304234184260435 -0.041485678529503141 -0.015613208946428802 0.074929950510995075 -0.02348126715411052 -0.0050472367237501614 -0.0037371320394506478 0.059091699670772165 -0.015954537800103447 -0.0098680117838804843 -0.023412244338749007 -0.048350705632141659 0.024723692298455481 0.079777100469030679 -0.0021109373126683541 -0.014792274414224827
internal_count=24000 14476 10682 3543 3794 9524 8688 2725 5963 4815 2043 2772 2250 2862 811 2624 1710 932 2244 1784 1604 490 7139 6518 4684 1148 1834 601 1233 1175
shrinkage=0.05


Tree=14
num_leaves=31
num_cat=0
split_feature=30 18 22 29 10 3 6 7 9 3 0 18 25 15 29 19 4 9 6 30 6 28 28 25 18 16 24 30 28 24
split_gain=13.51334009067388 5.360404142556451 4.3174594908647244 3.9531796349820696 3.872415034931421 3.2454999168738148 6.730296597055327 5.0216520244151734 3.6808780334929638 3.3451976461207487 4.9769990397127817 3.1642978182159744 3.0548365150207015 2.9965820977128317 2.7504561381700641 2.9936154300787994 2.7426869415600947 2.6879666805108133 2.5986502173572275 2.4972518190435817 3.0355011830966392 3.2940925314293095 3.8689802764528203 2.4910849273758462 2.3750504311283303 3.4393668454541979 3.9502754514420477 2.3870979737551243 4.2342992251586598 2.329767786377487
threshold=0.06692182788216193 0.26168478260869571 0.012174405436013591 0.074719800747198015 0.10498505192684765 0.025799503675609875 0.030432942504232244 0.041364929978303148 0.015908966872237081 0.0046471882755068604 0.0073126279485255701 0.25163043478260877 0.031445684726381713 0.037500000000000012 0.021092777085927775 0.02584531675087447 0.00012064313759898222 0.017622660044752502 0.056257445607875108 0.037056367432150322 0.0026412314251677226 0.0062636707098826811 0.005865977331477432 0.013748979036210184 0.24483695652173917 0.13524590163934427 0.21590123456790125 0.080897703549060548 0.033107973752237028 0.016345679012345682
decision_type=2 2 2 2 2 2 2 2 2 2 2 2 2 2 2 2 2 2 2 2 2 2 2 2 2 2 2 2 2 2
left_child=2 11 16 4 5 7 23 8 9 10 13 24 17 -4 29 -16 -1 -10 -6 20 -19 22 -22 -7 25 27 -27 28 -2 -11
right_child=1 -3 3 -5 18 6 -8 -9 12 14 -12 -13 -14 -15 15 -17 -18 19 -20 -21 21 -23 -24 -25 -26 26 -28 -29 -30 -31
leaf_value=0.00045904451274816189 0.0094466019514178462 0.0060297848090698561 -0.0002122320496199424 -0.0058332618653580111 0.0059515887631465458 -0.0083979479853923521 0.00017452511010571236 0.014075976197536175 0.0048135756081713861 -0.0052952026436617096 0.015685598473799856 -0.0038381157494058794 -0.0039508516349757031 0.0069942855121899244 -0.0007674144447914192 0.012356257564584975 -0.0027217983334621703 -0.0033102173320949078 0.00013984487737928118 0.0079188915453557909 0.0022661820594181638 0.00045653945675083242 0.011312817046536675 -0.0030754291709677401 0.006416556156952591 -0.0050716875763069658 0.0011351781488628491 0.0049049568045770563 -0.00091600118947208391 -0.0014417769772468239
leaf_count=857 121 793 1254 307 427 260 2555 65 546 455 57 255 269 163 112 71 3239 400 350 127 469 2295 158 1423 272 293 2049 982 532 2844
internal_value=0 0.044782225655141089 -0.012433623903315125 -0.0043880327767869438 -0.0019776060781278811 -0.0059221510830551778 -0.028852716046101984 0.0045441638672294058 0.0025915176193522784 -0.015941801435096884 0.023989262703801108 0.031434072429714577 0.024132589203275837 0.012334926580995763 -0.032845416754090466 0.086485668772556742 -0.041125506126263645 0.031078083143663945 0.066673722238000596 0.02075752291032355 0.015496301021222821 0.026680510146906734 0.090917527247844132 -0.077953680172181877 0.037927383512686381 0.03174437693024449 0.0071731474565502728 0.066940596763511676 0.020083497804668012 -0.039464873756629548
internal_count=24000 5297 18703 14607 14300 13523 4238 9285 9220 4956 1474 4504 4264 1417 3482 183 4096 3995 777 3449 3322 2922 627 1683 4249 3977 2342 1635 653 3299
shrinkage=0.05


Tree=15
num_leaves=31
num_cat=0
split_feature=23 4 31 15 28 18 29 14 29 25 5 18 18 4 6 31 0 23 30 24 6 25 28 29 4 23 17 26 8 10
split_gain=11.384860346269615 5.4021806943179493 5.289341523433075 4.23886329890317 4.0510449152787595 3.7705594832359419 4.1976199628026496 3.2213280714411923 3.9445623745229703 3.3338853233105388 3.2002519480481073 5.0036329892100131 3.8929252504463445 3.3841386942741569 4.1101797114016776 3.0413374732130345 2.6215808585372766 2.4674482161814382 2.3663659041495055 2.5258248482060797 2.4006644441438443 6.9431380281946726 6.2422599003124848 3.0925109684789085 3.6028597775137339 2.611567010054177 3.8217018982267685 2.7724870350164821 4.2333630692214461 2.9381166313536244
threshold=0.097809855649576921 0.024490556932593392 0.045735431486670981 0.46250000000000008 0.0068602107774905557 0.26168478260869571 0.061877334993773354 0.087500000000000008 0.084059775840597775 0.073781649877484354 0.0092188628204737076 0.10326086956521741 0.098097826086956538 0.013522998969049552 0.013621543670449559 0.010167421139613424 0.038253894801789305 0.99328023892483841 0.000637903038738112 0.0072592592592592604 0.0080334190231362481 0.0023141845902531996 0.013024458142771924 0.025918430884184312 0.0035644563381517472 0.0097063215530114495 0.011867088607594939 0.0083766608896591582 0.0053373237047448273 0.0040930135464583147
decision_type=2 2 2 2 2 2 2 2 2 2 2 2 2 2 2 2 2 2 2 2 2 2 2 2 2 2 2 2 2 2
left_child=1 2 18 4 15 10 -7 8 9 -3 -6 12 13 14 -12 -2 -4 -13 19 -1 22 23 25 24 -22 26 27 28 -20 -30
right_child=3 7 16 -5 5 6 -8 -9 -10 -11 11 17 -14 -15 -16 -17 -18 -19 20 -21 21 -23 -24 -25 -26 -27 -28 -29 29 -31
leaf_value=0.011294896211475135 -0.00032804658015569055 0.0024235648931564815 -0.0087922751557614129 0.005045582025187542 -0.0040708409992915411 0.00071942073661227565 0.0081117807101104035 -0.0016413554931298284 0.008913622965517733 -0.0029641791839491241 0.0079411087041141616 -0.00096312424955924099 0.0098999383927181068 0.0028586438076567784 -0.0019840415853720444 0.0062231985457751188 -0.0031861227137951983 0.0064258205330269963 -0.0019908893077615055 -0.00015580203414948521 0.0026460870801405766 -0.00080029171644875662 -0.010229274157721263 0.019019898417450134 0.017677116394042968 -0.00070599027834383397 -0.0061425844859925053 -0.015023890344632996 -0.0021051724851131443 0.013237686455249788
leaf_count=80 249 1558 280 734 387 430 347 780 194 352 119 3293 151 1963 845 614 817 117 1066 121 299 4048 208 42 46 4063 628 36 50 83
internal_value=0 -0.016756041052098856 -0.026190151983538201 0.027995846054723862 0.021710444630697344 0.014385419479540612 0.080415413723335605 0.022063166445609437 0.04241222325188352 0.028612806605106872 0.0069228295846418897 0.012192164415679642 0.041422256581422338 0.033344684595698421 -0.015176829955389886 0.086659566828439297 -0.092340917060781638 -0.014192065404307458 -0.019452232829430864 0.088033796098101788 -0.021496389496517065 -0.0037718951231731773 -0.034311539895242223 0.12419447672459506 0.093004486439884571 -0.028334999193603671 -0.059336787548618042 -0.027039331221870081 -0.018829335288468554 0.14939388744813159
internal_count=24000 14751 11867 9249 8515 7652 777 2884 2104 1910 6875 6488 3078 2927 964 863 1097 3410 10770 201 10569 4435 6134 387 345 5926 1863 1235 1199 133
shrinkage=0.05


Tree=16
num_leaves=31
num_cat=0
split_feature=23 19 19 21 17 23 31 6 19 1 3 4 1 7 3 5 21 9 29 3 30 24 18 2 7 16 26 19 9 27
split_gain=10.288609679261345 6.3514844669835888 3.9580952148464581 6.1477485762272366 5.3610755606986498 3.2340502804870486 3.1700542661473161 2.8603395113888839 3.2179811490148151 2.6843919788579687 5.5036620965461474 3.5392199174177978 4.0025367910668077 4.9389721065265544 2.9435203303184387 6.761564274371775 4.0407025115337252 3.7722410477879489 4.0369325428819476 3.4354909519492369 2.8499881235866402 2.7446051758710728 2.5369041342288465 2.5123985761100611 2.4152323470390007 2.3613623948352265 2.3486014356627223 2.6517295074435712 2.409072463690852 2.3440211696253206
threshold=0.089347934295669507 0.097745821997668111 0.21842207539836769 0.12283653846153848 0.35363924050632917 0.087854654056744669 0.054429834015951715 0.018504294940121641 0.089195491643995359 0.0072222222222222228 0.020356323453668588 0.019609993638816384 0.025000000000000005 0.01541322663360478 0.0046471882755068604 0.0060916699718298406 0.0050480769230769242 0.010773344976259347 0.025918430884184312 0.02496839443742099 0.002609603340292276 0.010024691358024694 0.037771739130434794 0.63393235793044966 0.020125954521119222 0.077868852459016411 0.023589447332948203 0.056937427127866307 0.052993505430333467 0.019762366634335598
decision_type=2 2 2 2 2 2 2 2 2 2 2 2 2 2 2 2 2 2 2 2 2 2 2 2 2 2 2 2 2 2
left_child=1 5 3 -2 6 9 -4 -5 -9 10 -1 14 13 -13 15 16 -11 18 -16 29 -18 -22 -3 -6 -21 -10 28 -28 -14 -19
right_child=2 22 4 7 23 -7 -8 8 25 11 -12 12 26 -15 17 -17 20 19 -20 24 21 -23 -24 -25 -26 -27 27 -29 -30 -31
leaf_value=3.991805275593541e-05 0.0017275648075874232 -0.01365608662366867 0.0014708982027078525 -0.0070460058340978864 -0.0018402705787427384 -0.0074647272932223787 0.0075042161317175728 0.0026242967595085792 -0.00032900731640917656 -0.0039484634708286098 0.016763805001974105 -0.0024550410399311468 0.00042188950407672936 0.0075683115200064661 -0.0043422556834393066 0.015088718787238404 -0.0022676302530826669 -2.7511903428306148e-05 0.0091373856914670846 -0.0076709362757694192 -0.0089685234427452094 0.0069282813297285072 0.0044201881667219759 0.0025869539140439927 -0.0024379131786617233 -0.0040481733468671647 -0.0036337930439175044 0.00066246916236781923 0.00887852374118628 -0.0042729150533997468
leaf_count=3054 4862 20 309 201 503 195 737 522 1048 467 50 190 639 348 2174 74 195 2630 57 293 30 286 658 883 891 720 897 599 97 371
internal_value=0 -0.01671257447575835 0.02542117606880839 0.013854403244821649 0.060392590778830801 -0.021443191829615033 0.11443814213599575 -0.026542342364764129 -0.016503070470547571 -0.01957458037430156 0.0061862112320575516 -0.027384845772439742 0.0031438662472184384 0.080569316408004896 -0.038708430707422754 0.01032086705413608 -0.011731852417343234 -0.046747523794261892 -0.079957264647094836 -0.029043597428032433 0.049716041396042139 0.10838182006455675 0.077739294431554182 0.019604966883019451 -0.074658192077500601 -0.036871996350013293 -0.015518719857845682 -0.038271301231760389 0.030728374891307041 -0.011047036260098309
internal_count=24000 14215 9785 7353 2432 13537 1046 2491 2290 13342 3104 10238 2770 538 7468 1052 978 6416 2231 4185 511 316 678 1386 1184 1768 2232 1496 736 3001
shrinkage=0.05


Tree=17
num_leaves=31
num_cat=0
split_feature=23 4 17 24 15 21 20 23 13 19 6 3 9 29 23 26 5 27 6 27 3 8 28 3 20 1 2 19 7 3
split_gain=9.3081717066109704 4.4655413007449134 5.134717610327983 4.217566853008055 3.5467232553887085 3.9237469247615517 5.8831874477179067 3.5879529703419255 3.4556016107530372 3.2266054623220759 2.9886655321154203 3.3917463038230933 3.7960911544206501 2.8255755385163983 4.9669579562659081 3.1618453382481468 4.8710737309836407 3.8704156578794637 3.1283166207103799 2.9710354886215926 2.7880498995526706 2.6998545879004601 2.5688860157631561 2.665616015973991 2.588669488071492 2.5111103315916123 5.3859774327240366 3.622442362948747 3.2361048329857778 2.482772486814298
threshold=0.097809855649576921 0.019259031783982982 0.022943037974683549 0.057432098765432101 0.46250000000000008 0.12283653846153848 0.17327054238389092 0.10179193628670982 0.060000000000000005 0.21842207539836769 0.031780989403724376 0.02496839443742099 0.026900616711237245 0.021092777085927775 0.048780487804878057 0.0089543616406701342 0.0059442088456336259 0.0020611057225994184 0.0041773778920308488 0.005698351115421922 0.024324577421922556 0.013231231522318617 0.0068602107774905557 0.0091422016200777279 0.015102305943488147 0.039444444444444456 0.061996395250212048 0.09366498251068793 0.050684719208768922 0.0018612164629863749
decision_type=2 2 2 2 2 2 2 2 2 2 2 2 2 2 2 2 2 2 2 2 2 2 2 2 2 2 2 2 2 2
left_child=1 2 10 -4 5 9 7 -7 -8 22 11 12 13 15 21 16 29 -18 -19 -17 -5 -15 23 -2 -24 26 28 -27 -3 -1
right_child=4 25 3 20 -6 6 8 -9 -10 -11 -12 -13 -14 14 -16 19 17 18 -20 -21 -22 -23 24 -25 -26 27 -28 -29 -30 -31
leaf_value=0.0014806510340532608 -0.00024350974632769215 -0.00068441624879837044 -0.0057937924650018624 -0.00074786902767812419 0.004600544237310945 0.0096726847515589964 0.0072251255214214327 -0.0018841573952255598 0.0011448446559026316 0.0085746351922495988 0.0061880852056272109 -0.0088495756431323722 0.0068186689724867369 0.017107018885704189 -0.0096252232789993293 -0.0097823440738312607 0.018586363978683948 0.013565916934255826 0.0015069396553659127 -0.0022833466240815051 -0.0039415405723719843 0.0043379099865265081 -0.0026915721163641598 0.0059281284269554167 0.0015936518354414373 -0.001272258118188854 0.0086866590463741313 0.0027908202346044642 0.0096081022729818857 -0.0015131277446171591
leaf_count=845 245 625 865 2004 734 69 300 2518 1057 178 165 123 174 52 55 154 40 59 608 928 1037 203 397 612 3139 1816 287 786 87 3838
internal_value=0 -0.015151782926927379 -0.025039600624364586 -0.05426388933560327 0.025313230856313797 0.019563838260284398 -0.003545915900633253 -0.03151830748604862 0.049780964741569803 0.039503648019781054 -0.0092817221447817205 -0.012382748466643393 -0.0094720414481401574 -0.013213873243514713 0.080049898643647477 -0.017681081105847884 -0.0077780007099618716 0.069591597418130882 0.051472516029492314 -0.067013431691638647 -0.036738619566042144 0.13883613406443129 0.034155582475304036 0.083275489135272579 0.022250672970894236 0.015464481257028428 0.058082400171367732 -0.00089804794951460162 0.011464739950855127 -0.019458612684457189
internal_count=24000 14751 11150 3906 9249 8515 3944 2587 1357 4571 7244 7079 6956 6782 310 6472 5390 707 667 1082 3041 255 4393 857 3536 3601 999 2602 712 4683
shrinkage=0.05


Tree=18
num_leaves=31
num_cat=0
split_feature=23 4 17 24 15 3 26 28 31 27 3 23 16 22 0 18 4 30 27 29 26 4 22 18 24 7 24 21 28 29
split_gain=8.400624778435283 4.0324650720832187 4.7016402711262133 3.9542184287665236 3.2009176232382988 3.6463570131099625 5.2733930459766007 4.3432447221695094 2.9690081064916725 2.9218600507992742 2.7416391029473886 2.6365555772057871 3.7281440777479347 2.5048484499019885 2.5043595281106503 2.4548709982501662 2.8280238922325838 2.5926446422608427 2.4099156891585776 2.9333443215986792 2.2954997029439643 2.3283113852089965 2.2318387361653085 2.221164434691592 2.5057971011636395 2.6176938224902244 2.0999945491742356 2.0653318067778201 3.348118005967454 3.1711461685506377
threshold=0.097809855649576921 0.019094518414529825 0.022943037974683549 0.057432098765432101 0.46250000000000008 0.11157934166783726 0.045638359329867137 0.0068602107774905557 0.045735431486670981 0.058802133850630461 0.0091422016200777279 0.28123444499751121 0.10245901639344264 0.31625141562853915 0.59026595322493947 0.052445652173913053 0.051361073943275791 0.054163767107399681 0.015882638215324933 0.022805105853051063 0.0051030233005969578 0.0046612121345061316 0.22848244620611555 0.058423913043478264 0.082913580246913601 0.032467806926089783 0.2650864197530865 0.0050480769230769242 0.0012925034798170613 0.021092777085927775
decision_type=2 2 2 2 2 2 2 2 2 2 2 2 2 2 2 2 2 2 2 2 2 2 2 2 2 2 2 2 2 2
left_child=1 2 9 -4 5 6 7 10 -5 27 -2 12 20 -8 -7 16 17 18 19 -3 -9 -22 -17 26 25 -25 -23 -1 -29 -30
right_child=4 15 3 8 -6 14 13 11 -10 -11 -12 -13 -14 -15 -16 22 -18 -19 -20 -21 21 23 -24 24 -26 -27 -28 28 29 -31
leaf_value=-0.0016608557508138407 -0.00057365187848231706 -0.00027449429035186768 -0.0055903172992004674 -0.00082429639985194818 0.004370516916224353 -0.0035539454039262269 0.0020854590060376166 -0.0054966138333690413 -0.0043958740384907142 0.016980222736795746 0.0056317222858566088 -0.0025796832971310504 0.0037536717765033244 0.0058054225918938553 0.00063978190558987703 0.0022349082788608765 -0.0051606910612623574 0.0045619670949552374 -0.0026720959125690691 0.010182305417218053 0.0080615666307760087 -0.0044142972485125683 -0.0059061082249337975 0.0017786213056335239 2.1972183911305555e-06 0.012310775471004573 0.0012016420934613295 0.0052215346763300344 -0.00068077516461294632 0.0037259031160847174
leaf_count=2488 251 255 857 2257 734 686 1047 196 784 24 612 836 720 797 740 1943 295 276 663 91 89 483 88 179 1537 88 254 301 3974 455
internal_value=0 -0.014394194401892053 -0.023807577301933693 -0.051809667245035232 0.02404756826482627 0.018585645396500844 0.027866854181173979 0.011694982190491246 -0.034901691684594324 -0.0087354775231143315 0.076538294726423706 -0.001075391775394128 0.010834725879372276 0.073865481399791613 -0.027553547502901579 0.01464626129084233 -0.014915275771783877 0.005355596530762164 -0.018136884858397945 0.049514089533359326 -0.0055318243501039574 0.0022485895868489952 0.037643419616272857 -0.0033198732740529076 0.015577589576762425 0.10499786180949836 -0.049576349505899397 -0.0098937150368600645 0.0023744919713405426 -0.0045613663867839329
internal_count=24000 14751 11140 3898 9249 8515 7089 5245 3041 7242 863 4382 3546 1844 1426 3611 1580 1285 1009 346 2826 2630 2031 2541 1804 267 737 7218 4730 4429
shrinkage=0.05


Tree=19
num_leaves=31
num_cat=0
split_feature=4 19 18 17 25 20 1 25 1 27 19 22 4 28 3 0 10 27 18 8 8 17 1 30 4 30 25 10 24 26
split_gain=7.1046328924102582 2.9673556324188688 4.0236526372590413 3.9828163460809671 3.971646004202277 3.3310988890379458 3.442191386192281 3.0345605061625895 2.9538393534328553 2.9050616743772499 2.9192044172369656 2.3215642783223265 5.2139142938966865 3.4456261209527037 3.6054535964484682 4.3916810478455437 3.2948103837001028 2.3923017387427983 2.6945550929257003 2.9173569557076506 2.9391178034098027 2.3792776089932275 2.3495407079966188 3.643433452199071 2.4558863234514674 3.2632338190367189 2.4198291981912243 2.8020891150065013 2.2573980065173718 2.2415460778399194
threshold=0.019094518414529825 0.21842207539836769 0.14945652173913046 0.35363924050632917 0.060441056357201206 0.040435206235790853 0.031666666666666669 0.027906343588347402 0.1788888888888889 0.0088506304558680898 0.097745821997668111 0.012174405436013591 7.6772905744806877e-05 0.0090475243587194287 0.025799503675609875 0.014918779361706271 0.024578583623472577 0.002788554801163919 0.0029891304347826092 0.0049011292589541035 0.0074880046527407559 0.024525316455696205 0.0072222222222222228 0.019311064718162841 0.0116585141152471 0.0045813036418464398 0.011026408930029949 0.084512528796475098 0.039456790123456799 0.0002888503755054882
decision_type=2 2 2 2 2 2 2 2 2 2 2 2 2 2 2 2 2 2 2 2 2 2 2 2 2 2 2 2 2 2
left_child=11 2 5 -3 -4 7 28 -2 -6 -9 -11 12 -1 14 15 16 29 -15 -19 -20 -21 -14 23 -22 25 -24 -26 -28 -7 -13
right_child=1 3 4 -5 8 6 -8 9 -10 10 -12 13 21 17 -16 -17 -18 18 19 20 22 -23 24 -25 26 -27 27 -29 -30 -31
leaf_value=0.0018508824524540589 0.0020575540565870958 0.004883119221636676 -0.0034781321497087056 0.00081591707738963039 0.002289031023379936 -0.0063196029175411582 0.0020353172922124171 0.016225921071094017 -0.0060753530360818887 -0.0021807012966874617 0.008071370198302074 -0.0028247460041727341 -0.0020054450560859252 -0.0076613729846650271 -0.0089203753114975616 0.0033885859216101484 -0.0092752548608374102 0.0030379616478820905 0.013298323969630635 -0.0074816960314805607 0.001688688603517051 -0.0055392133345206589 0.016202512383460998 0.024030431563203988 -0.0097104885812961707 -0.0027274792932366772 0.00083489002676080724 -0.0034065668413668505 0.010637127755434959 0.00070043202159849975
leaf_count=788 1081 1064 1042 1386 744 22 2331 23 123 1422 73 525 2311 138 97 1246 94 385 34 191 107 600 23 22 66 2238 1959 486 182 3197
internal_value=0 0.021668539713233487 0.011240870236554946 0.051644897314966944 -0.027956448842743543 0.025815798581389542 0.051607499766867071 0.00065921431621619026 0.022047766042828147 -0.028175902961506676 -0.033601969490481859 -0.013518756417671998 -0.035142558274091205 -0.006118086259743181 0.012565680236681462 0.016225182229424127 -0.000605788448946531 -0.023181203865523803 -0.019924738014637722 -0.025984692915989187 -0.027934091945543874 -0.054676135522686138 -0.023191250223720396 0.10997816666152126 -0.026791177880509203 -0.050698282825688459 -0.0052643103850690169 -0.00016394210617478883 0.17616921444149578 0.0040638878068765087
internal_count=24000 9493 7043 2450 1909 5134 2535 2599 867 1518 1495 14507 3699 10808 5159 5062 3816 5649 5511 5126 5092 2911 4901 129 4772 2261 2511 2445 204 3722
shrinkage=0.05



feature importances:
mp_count_purchase_may=39
mp_count_purchase_oct=36
mp_count_click_may=30
mp_count_purchase_jun=27
mp_count_purchase=26
mp_count_favorite=26
mp_count_cart_nov=25
mp_count_click_aug=24
mp_count_favorite_sep=24
mp_count_favorite_aug=24
mp_count_purchase_aug=23
mp_count_click_oct=22
mp_count_favorite_may=21
mp_count_cart=20
mp_count_favorite_jul=19
mp_count_favorite_oct=19
mp_count_purchase_sep=19
mp_count_favorite_jun=18
mp_count_purchase_nov=18
mp_count_click_jun=18
mp_count_click_jul=16
mp_count_purchase_jul=16
mp_count_favorite_nov=15
mp_count_click=13
mp_count_click_nov=11
mp_count_cart_sep=10
mp_count_cart_aug=10
mp_count_click_sep=10
mp_count_cart_oct=9
mp_count_cart_jun=6
mp_count_cart_jul=3
mp_count_cart_may=3

pandas_categorical:[]
