tree
num_class=1
num_tree_per_iteration=1
label_index=0
max_feature_idx=31
objective=regression
feature_names=mp_count_click mp_count_cart mp_count_purchase mp_count_favorite mp_count_click_may mp_count_click_jun mp_count_click_jul mp_count_click_aug mp_count_click_sep mp_count_click_oct mp_count_click_nov mp_count_cart_may mp_count_cart_jun mp_count_cart_jul mp_count_cart_aug mp_count_cart_sep mp_count_cart_oct mp_count_cart_nov mp_count_purchase_may mp_count_purchase_jun mp_count_purchase_jul mp_count_purchase_aug mp_count_purchase_sep mp_count_purchase_oct mp_count_purchase_nov mp_count_favorite_may mp_count_favorite_jun mp_count_favorite_jul mp_count_favorite_aug mp_count_favorite_sep mp_count_favorite_oct mp_count_favorite_nov
feature_infos=[0.00025907938461907092:1] [0:1] [0.0016433418150975402:1] [0:1] [0:1] [0:1] [0:1] [0:1] [0:1] [0:1] [0.00032803751556314349:1] [0:1] [0:1] [0:1] [0:1] [0:1] [0:1] [0:1] [0:1] [0:1] [0:1] [0:1] [0:1] [0:1] [0.0026666666666666666:1] [0:1] [0:1] [0:1] [0:1] [0:1] [0:1] [0:1]

Tree=0
num_leaves=31
num_cat=0
split_feature=23 19 18 8 19 2 7 25 28 0 25 26 9 22 31 9 3 23 19 7 26 27 19 10 7 20 0 28 22 17
split_gain=50.387089972811545 13.013952655286023 13.617950148074188 15.484782142796131 10.537707827028445 7.9165276585660358 7.3675975304352193 7.2283090904791392 7.1860641906354292 21.035719916562094 9.3783780151027241 7.7745812665642653 5.8952409005174502 5.7570432687323709 6.0685741562530602 7.4134622973990343 8.5070266042105711 7.3236872283239496 5.689757614350647 5.5963516580143402 4.9717810186984579 4.8001610994040025 4.5211993515269207 4.255103682424008 4.5419112025119039 4.9015723209486461 4.2254980752987734 5.0059189629497682 6.9709339572390334 4.7799734179331743
threshold=0.067446490791438538 0.34881461329187724 0.10326086956521741 0.085257839383511863 0.20501360279828998 0.54988337574215451 0.14735551861140075 0.060441056357201206 0.0062636707098826811 0.015403991619605572 0.02463925946093112 0.061139996148661668 0.025077771107351422 0.011608154020385052 0.11363799669468996 0.034694100311084435 0.025307861591047434 0.0072175211548033856 0.016517683637776916 0.085920989602412026 0.031677257847101875 0.029219204655674107 0.059657986785853094 0.11119539852830444 0.018667756206148387 0.005358882754140956 0.021713997325342311 0.0022867369258301857 0.020668176670441681 0.045094936708860771
decision_type=2 2 2 2 2 2 2 2 2 2 2 2 2 2 2 2 2 2 2 2 2 2 2 2 2 2 2 2 2 2
left_child=6 2 3 4 8 -3 13 -4 9 -2 23 20 -11 18 15 16 26 -17 21 -9 -12 -1 -20 24 -10 -26 27 28 -15 -28
right_child=1 5 7 -5 -6 -7 -8 19 10 12 11 -13 -14 14 -16 17 -18 -19 22 -21 -22 -23 -24 -25 25 -27 29 -29 -30 -31
leaf_value=0.33001937381782648 0.33258362166162453 0.34731682188216867 0.33117000550035808 0.34669421527421834 0.34694835721327105 0.33819058227304799 0.34166666691501935 0.33834125113895458 0.33503401365612639 0.35182291721769915 0.33660235808241917 0.3336408364175284 0.34130695467408323 0.33862024516078593 0.32603461227307556 0.35809523883320032 0.32614942507325917 0.33490338168930317 0.32398809495958542 0.33287519745870037 0.34481236237300678 0.34947916714784999 0.34761904804479504 0.33881431783672411 0.35053763492133028 0.33046302107515357 0.33934707921702428 0.33074806193845679 0.32960944584723928 0.3318082788216522
leaf_count=3269 578 323 2396 363 213 899 164 842 1078 256 311 542 278 517 443 35 696 1242 560 1055 453 32 21 298 31 1591 388 4300 367 459
internal_value=0 0.04782596243456546 0.036233998811181216 0.067033824872707967 0.054124476060835119 0.14539007525494757 -0.043891247072355727 -0.0067551830571319239 0.045544068319406605 0.11720623850500841 0.027029121003795734 0.097753959013345965 0.26029963322569816 -0.046692082392965385 -0.032042935330077175 -0.025737132201309146 -0.038997077620258051 0.044113809719810097 -0.078567750924705901 0.039360394776967178 0.16273996994601495 -0.062506313081655815 -0.16982215078685453 -0.0037802980890903892 -0.016296296781963773 -0.049732841597238391 -0.026916487841360252 -0.037615741861777172 0.030920061253314642 0.038567494262348519
internal_count=24000 11507 10285 5992 5629 1222 12493 4293 5416 1112 4304 1306 534 12329 8447 8004 6727 1277 3882 1897 764 3301 581 2998 2700 1622 6031 5184 884 847
shrinkage=1


Tree=1
num_leaves=31
num_cat=0
split_feature=23 19 21 6 27 31 9 2 20 18 19 11 11 2 20 20 22 19 21 13 24 24 25 6 21 4 2 27 12 25
split_gain=45.474348611634341 11.745093082199336 15.17400351499435 10.265798852595903 13.231995695032149 8.8845464847262718 13.517552744406125 7.1446656872192449 6.8812453854477873 6.6043905732332036 8.9745389372349251 5.4325002539038314 5.2860826632368374 4.9405884676306702 4.8036463031352845 6.9355737011178249 4.5252721945499346 6.1099939667853249 5.0766991559371721 6.0651526456113514 5.9064748378181857 8.6738167432029414 5.4078763065826987 7.5548933910546809 6.4482279837777252 6.143228910903864 4.4442037779677488 4.3335338094525824 4.0644172521757849 5.5703647628655704
threshold=0.067446490791438538 0.34881461329187724 0.12283653846153848 0.030754279265157693 0.014427740058195927 0.013832004023855718 0.02207062162309666 0.54988337574215451 0.044657356284507961 0.12500000000000003 0.11115429459774583 0.078947368421052641 0.078947368421052641 0.084923664122137407 0.063169860344267637 0.096135108801558969 0.011608154020385052 0.016517683637776916 0.032932692307692316 0.14000000000000004 0.055456790123456799 0.076098765432098772 0.0042199836645793638 0.013786130791899181 0.03245192307692308 0.0097501590295904737 0.060565097540288389 0.029219204655674107 0.055555555555555559 0.0044922406751973874
decision_type=2 2 2 2 2 2 2 2 2 2 2 2 2 2 2 2 2 2 2 2 2 2 2 2 2 2 2 2 2 2
left_child=8 2 3 4 5 -2 -7 -3 16 10 14 -4 13 26 -5 -16 17 27 19 22 -20 -22 23 25 -24 -18 -10 -1 29 -23
right_child=1 7 11 9 -6 6 -8 -9 12 -11 -12 -13 -14 -15 15 -17 18 -19 20 -21 21 28 24 -25 -26 -27 -28 -29 -30 -31
leaf_value=-0.003151305636706998 -0.0002868494335827791 0.013284314144691079 -0.0025827233946141975 0.0031335025716558275 -0.0028075222787484408 0.014617469623384283 0.0032582918356420399 0.0046143868343450868 0.0047315364253932039 0.0020283559034037038 0.013325193854732824 0.0012961420157601407 -0.0038618672809165541 0.0092899316733745501 0.013643988930374568 0.0024973248177375951 -9.9042116522593906e-05 -0.0085992419772443519 -0.007129470772462382 0.011473601265829437 0.0062889282168937348 -0.0085942593757172073 -0.0026607447926716137 0.014533881949526923 0.011210125546122707 0.021350588693338283 -0.0087610693846611274 0.015338542545214296 -0.0062980679997119565 0.0018441143655494267
leaf_count=3266 911 323 2037 1012 1254 347 1068 899 174 1032 433 1621 241 307 326 244 1833 565 798 98 271 171 3255 98 86 34 94 32 664 506
internal_value=0 0.045434666263183834 0.034422300440858276 0.062959497054453903 0.026648965744332894 0.071288029284489532 0.12087798784141406 0.13812057664175861 -0.041696682683291568 0.10562169006076609 0.13893996216818949 -0.017276989323575357 0.047084456492288443 0.099191507463869844 0.10402518646454842 0.17744868936245903 -0.047900794147475285 -0.075899055475957836 -0.034059319421095954 -0.017037543790107475 -0.07222764950817552 -0.037395956443054205 -0.021590490976774689 0.020037620835025194 -0.046073950931933852 0.005831556679031462 -1.8894338785712397e-05 -0.0594380281870115 -0.070371568025180783 -0.015849231441052661
internal_count=24000 11507 10285 6627 3580 2326 1415 1222 12493 3047 2015 3658 816 575 1582 570 11677 3863 7814 5404 2410 1612 5306 1965 3341 1867 268 3298 1341 677
shrinkage=0.05


Tree=2
num_leaves=31
num_cat=0
split_feature=23 19 21 6 28 7 2 20 23 18 19 11 11 4 31 20 20 22 31 22 19 21 13 25 6 21 4 2 12 4
split_gain=41.040594643669536 10.599945814341307 13.694539644134258 9.2648834328300111 12.557665802222136 12.175285497165484 6.4480614916509893 6.210322527356162 6.0419187020020733 5.960461833277062 8.0995240117637337 5.3392284632540274 4.9028326289970625 4.8889119284874951 6.6368513340258914 4.3352909406917526 6.2593550696460483 4.3087424880481811 4.2352198734550823 4.0840550591155598 5.5142704104737028 4.5817208862393368 5.4738002972381334 4.8806099592735492 6.8182907581602956 5.8195261503481186 5.5442645166694664 4.3870859513739333 4.4113372792702759 6.7823794966665183
threshold=0.067446490791438538 0.34881461329187724 0.12283653846153848 0.030754279265157693 0.011831378007556176 0.014560849840795741 0.54988337574215451 0.044657356284507961 0.11299153807864611 0.12500000000000003 0.11115429459774583 0.078947368421052641 0.078947368421052641 0.13428677970563077 0.028059208162678744 0.063169860344267637 0.096135108801558969 0.033125707814269538 0.0023352734066249916 0.011608154020385052 0.016517683637776916 0.032932692307692316 0.14000000000000004 0.0042199836645793638 0.013786130791899181 0.03245192307692308 0.0097501590295904737 0.045297921967769307 0.055555555555555559 0.0083024413784026866
decision_type=2 2 2 2 2 2 2 2 2 2 2 2 2 2 2 2 2 2 2 2 2 2 2 2 2 2 2 2 2 2
left_child=7 2 3 4 5 8 -3 19 -2 10 15 -7 -4 14 18 -5 -17 -10 -9 20 -1 22 23 24 26 -25 -21 -23 29 -29
right_child=1 6 12 9 -6 11 -8 13 17 -11 -12 -13 -14 -15 -16 16 -18 -19 -20 21 -22 27 -24 25 -26 -27 -28 28 -30 -31
leaf_value=-0.0028233056744530103 -0.001587097429185419 0.012620098441377882 -0.0024535877166510685 0.0029768269538526012 -0.0017725819311694268 0.014094558294512269 0.0043836670437697178 0.010815018891460366 0.012752597147805822 0.0019269381801402846 0.01265893495592179 -0.001931967574064849 0.0012313348553123335 -0.010397795736789704 0.0093693125527352095 0.012961789019451551 0.0023724582779114365 0.0031645877254217721 -0.002394312133752003 -9.4089835508235229e-05 -0.008169279628622848 -0.0077879857064060897 0.010899921080895833 -0.0025277079135957769 0.013807187518294978 0.01064961935545123 0.020283060214098762 -0.0037948927473613406 -0.005231554264879406 0.0039675388418271866
leaf_count=3298 651 323 2037 1012 1744 351 899 72 144 1032 433 61 1621 70 288 326 244 629 386 1833 565 466 98 3255 98 86 34 642 801 501
internal_value=0 0.043162929242022127 0.032701182052471363 0.059811520292259945 0.025316515606541874 0.083039642500331981 0.13121454122608892 -0.03961184723673223 0.039237348906946988 0.10034060357905702 0.13199296033116192 0.2344339776386335 -0.016413145863077822 0.044730225249248391 0.06844072095830063 0.098823918046149539 0.16857624702286303 0.099014221696619234 -0.0063547215477347896 -0.045505752447707673 -0.072104090626548989 -0.032356356442478085 -0.016185669773027333 -0.020510969614021022 0.019035743059396138 -0.043770260366270262 0.0055399826330237035 -0.068616269621611631 -0.047726945989907031 -0.0078492420656265972
internal_count=24000 11507 10285 6627 3580 1836 1222 12493 1424 3047 2015 412 3658 816 746 1582 570 773 458 11677 3863 7814 5404 5306 1965 3341 1867 2410 1944 1143
shrinkage=0.05


Tree=3
num_leaves=31
num_cat=0
split_feature=23 19 21 6 29 10 14 2 14 14 7 17 10 7 26 14 28 23 23 22 7 6 9 28 7 29 17 6 19 7
split_gain=37.039140369780043 9.5664507571464128 12.359320506389585 8.3615566200540812 12.684564784931458 12.068426053327117 6.2071976197969683 5.8193750988780053 5.6512048309839287 7.0357631197303547 5.619141499494301 8.2468087365248248 7.2272975643427015 6.9005709177870154 9.0121093824375738 6.8784753670659651 6.0561386101265136 5.3450151834586075 4.9509750628003815 4.838341596597183 4.7528172716061636 5.7402837808874994 5.2643233786485935 4.6118143756062899 6.5480994285085998 4.3147894536455524 4.0193450705788294 3.8482886181456237 3.6830380666297984 4.2893688139609347
threshold=0.067446490791438538 0.34881461329187724 0.12283653846153848 0.030754279265157693 0.012998132004981322 0.020679410427119758 9.9999996826552254e-21 0.54988337574215451 0.087500000000000008 9.9999996826552254e-21 0.018076023556595006 0.041930379746835451 0.024459297254176889 0.14735551861140075 0.023589447332948203 0.037500000000000012 0.012825611453569299 0.11299153807864611 0.018168242906918868 0.11013590033975086 0.014758094057313535 0.01731299768010534 0.026240244501446273 0.075959435275402679 0.084969990701344103 0.013153798256537985 0.14319620253164558 0.014554204025330744 0.11640108822386321 0.040695708529403483
decision_type=2 2 2 2 2 2 2 2 2 2 2 2 2 2 2 2 2 2 2 2 2 2 2 2 2 2 2 2 2 2
left_child=10 2 3 4 5 19 -7 -3 9 -5 16 12 -12 14 -13 -14 18 -6 -1 -2 21 22 -20 28 -25 -11 -27 -24 -4 -30
right_child=1 7 23 8 17 6 -8 -9 -10 25 11 13 15 -15 -16 -17 -18 -19 20 -21 -22 -23 27 24 -26 26 -28 -29 29 -31
leaf_value=-0.0033374317787656406 -0.0012327290919774908 0.011989093292792885 1.8357573310571611e-05 0.00087469001976157076 -0.0044240131788378127 0.013143058785473009 0.004130351194049006 0.0041644837321906259 0.0010275577152042365 -0.0034871037917978626 -0.00062453102009097164 0.0013242959763874046 0.01017650321293413 0.0080943722519781682 -0.005594237887641882 -0.0010653282762790213 -0.0062885667269046491 0.0008662156853735391 -0.0011186687939265777 0.0085915916605500998 0.0083294318331515096 -0.0077306573121965708 0.011933359846794347 0.0099595368211039433 0.00010064051107124047 0.009404520988925337 0.0036304662283746948 -0.0012494655083055083 0.0001955799193720363 -0.0060604908416070141
leaf_count=4009 737 323 1061 517 882 415 354 899 759 85 694 772 445 154 1206 196 962 1041 3380 151 136 308 139 197 1161 1293 393 92 409 830
internal_value=0 0.041004783667748963 0.031066124014444123 0.056820943755982636 0.024050690633291637 0.088175289301391679 0.17988332168178534 0.1246538135648359 0.095323571317267097 0.12012788273029394 -0.037631257918821291 -0.0034118604687541371 0.058221948459353787 -0.042005263338840478 -0.057879619805106503 0.13478126638393134 -0.050775358401801883 -0.031203838744265178 -0.041828665812130246 0.0087569594584606791 -0.017191388677580584 -0.023569057329359881 -0.01239166065650249 -0.015592484631585319 0.030616677277042519 0.150089385026865 0.16117222854604643 0.133661142159334 -0.042875981097636018 -0.079906621654732182
internal_count=24000 11507 10285 6627 3580 1657 769 1222 3047 2288 12493 3467 1335 2132 1978 641 9026 1923 8064 888 4055 3919 3611 3658 1358 1771 1686 231 2300 1239
shrinkage=0.05


Tree=4
num_leaves=31
num_cat=0
split_feature=23 19 18 4 19 20 23 9 2 12 20 11 5 6 22 4 31 9 5 20 20 13 29 31 14 22 19 20 31 9
split_gain=33.427821828769545 8.6337226797608473 9.5286175970579734 15.927374735166129 6.2289356187813425 5.8120865118704987 11.479262547672739 5.8772306127796909 5.923398926620095 5.3982731999115288 5.2213751921185523 4.831805239597486 4.6911891985230607 5.7674797865072769 4.6045162050027395 4.1764611513086329 5.354294763529686 4.1356720222719607 3.9594522490352402 4.8432247221378359 5.9768445126308265 4.1162704162139576 3.8159023413119373 3.7838603211670039 3.7769822369710062 3.5334201352297079 4.8487516159842023 3.9192563301883006 3.8928479061117347 5.4489034246379369
threshold=0.067446490791438538 0.34881461329187724 0.10326086956521741 0.019094518414529825 0.11115429459774583 0.028743098408574214 0.097809855649576921 0.021377503683894562 0.041030534351145044 0.055555555555555559 0.044657356284507961 0.23684210526315791 0.02778879498835566 0.030432942504232244 0.0671007927519819 0.13428677970563077 0.028059208162678744 0.024275500736778918 0.026914197964019487 0.12374147450470933 0.17327054238389092 0.060000000000000005 0.0098848069738480711 0.0023352734066249916 0.13750000000000004 0.011608154020385052 0.016517683637776916 0.032965248457291339 0.11981748940145147 0.034694100311084435
decision_type=2 2 2 2 2 2 2 2 2 2 2 2 2 2 2 2 2 2 2 2 2 2 2 2 2 2 2 2 2 2
left_child=10 2 3 5 12 6 14 8 -8 -3 25 -11 13 22 -2 16 23 -9 -4 -20 -21 -22 -5 -12 -7 26 -1 28 29 -27
right_child=1 9 18 4 -6 24 7 17 -10 11 15 -13 -14 -15 -16 -17 -18 -19 19 20 21 -23 -24 -25 -26 27 -28 -29 -30 -31
leaf_value=-0.0025615195886629001 0.0015180730571349463 0.018393804224920863 -0.0036334227381059378 0.01079981548757088 0.01179271654182712 -0.0013463028404585888 -0.012387712920705479 -0.0079355035571084514 0.013395810261849434 -0.00057706331334462981 0.010338821510473889 0.0069218382553417742 0.0024547812576387446 0.014149342591025266 -0.0058443841638617039 -0.0095981940201350629 0.0085168474974731609 0.0047572468377016734 0.0017827662894675843 -0.0052968095477796623 0.010613925957564012 -0.00032332300625998399 -0.00051539062507568849 -0.0021468064791180311 0.0084820947890142783 -0.001454529297337355 -0.0075745204302061974 -0.0050996979351548254 -0.0064665227574829719 0.0024492682434886074
leaf_count=3298 504 81 746 123 453 1918 24 69 310 287 72 854 765 249 367 70 288 918 2243 679 103 522 189 386 103 5762 565 671 323 1058
internal_value=0 0.038954544287008862 0.029512817139873589 0.055276464312791186 0.13461678513252984 0.021773869786725429 0.05743812732942348 0.11619983228835799 0.23086204018421516 0.11842112669968176 -0.035749692588813178 0.10071222960792227 0.1000311077540097 0.16948858402842082 -0.031682667447559869 0.041585939845033719 0.06350080233476757 0.077398234074359723 -0.0064470649612496959 0.0074805236464323783 -0.040982728812592163 0.02958271245956421 0.078908235694353401 -0.0036800066456524044 -0.016907996880070282 -0.041153981024714438 -0.065894360064596147 -0.028923102571801331 -0.022058963629606305 -0.016978510292219626
internal_count=24000 11507 10285 5992 1779 4213 2192 1321 334 1222 12493 1141 1326 561 871 816 746 987 4293 3547 1304 625 312 458 2021 11677 3863 7814 7143 6820
shrinkage=0.05


Tree=5
num_leaves=31
num_cat=0
split_feature=23 4 18 4 28 0 23 28 25 0 30 9 1 1 1 25 8 21 23 3 5 10 13 4 28 9 21 16 7 10
split_gain=32.079460301339587 8.3952124215803323 7.4161099006103743 9.0668645049332746 6.5037858242147708 13.791563760202326 5.8521892538287545 5.0309295453282203 4.9897102544240965 4.4784519726914764 4.4767132855445455 4.4144414145363093 6.8236443648688585 5.5708227201065323 4.6961852660758048 4.5696053868389725 4.3241351212589212 4.2780017603924749 4.2307023690931587 4.1152857419951658 3.6305412406154707 3.4602338161907475 4.3134969049307141 3.9040748542853656 3.3969326596974643 5.94881450208789 6.332641665781173 3.6656541606355448 3.5074973298422805 3.4784050673836155
threshold=0.067446490791438538 0.29366733203184986 0.10326086956521741 0.019094518414529825 0.0062636707098826811 0.015403991619605572 0.59532105525136891 0.032710280373831786 0.054587530628913701 0.123442341358804 0.033982834609139416 0.037002674234568579 0.051666666666666673 0.050555555555555569 0.050555555555555569 0.079635175605771866 0.041032569185285715 0.035817307692307697 0.050522648083623702 0.020929905885658101 0.1788703460760086 0.033085192833871367 9.9999996826552254e-21 0.03048981113865187 0.0036786637502485586 0.004862740817551712 0.0084134615384615415 9.9999996826552254e-21 0.050684719208768922 0.0070695812302897917
decision_type=2 2 2 2 2 2 2 2 2 2 2 2 2 2 2 2 2 2 2 2 2 2 2 2 2 2 2 2 2 2
left_child=11 2 3 4 5 -2 10 -6 -5 -10 -4 14 13 17 21 18 -9 -13 -14 -7 -17 24 23 -23 25 27 -27 29 -26 -1
right_child=1 -3 6 8 7 19 -8 16 9 -11 -12 12 15 -15 -16 20 -18 -19 -20 -21 -22 22 -24 -25 28 26 -28 -29 -30 -31
leaf_value=-0.00074755445411660998 -0.00071193488144833533 0.0068086142168098489 -0.0039481455450438704 0.007574031406975522 -0.0008882151189002586 0.011431309666441776 0.0062392346200100717 0.0073679992720075971 -0.0040779116764372474 0.0053460289176666381 0.00026462447529417336 0.0012140375899744558 -0.002208818471790385 0.023766325649462249 -0.0052142557517533576 -0.0091329531013965622 -1.6839300491371934e-05 0.012240378507252398 0.0043930816353969677 -0.0058246768406919535 0.0082813219112508451 -0.004062942424452448 0.0070981242618662248 0.0063653493315223757 -0.0030138450778520159 -0.00069779351778264233 0.0058095706480609582 -0.006772932743756923 0.015055499805344475 -0.0098577238105494406
leaf_count=1083 581 803 764 1176 2350 522 351 401 204 330 3612 364 698 38 1136 250 392 116 372 37 34 332 235 123 5060 1509 497 487 27 116
internal_value=0 0.037550539062801751 0.030163107956968138 0.05352248992144952 0.028945400931694339 0.09364906029220213 0.00054754288120402927 0.0054766857961617644 0.11508019292912287 0.034917436735460376 -0.0094175484079111645 -0.035627586163512942 0.0091422191128516812 0.10675343491395928 -0.043530374987403045 -0.028200919576198347 0.074349727674210053 0.077574732899665835 0.0017284313094950167 0.20578284804211106 -0.14096291058919799 -0.03624160271006157 0.031944935779640637 -0.024877315039163107 -0.041600836285399824 -0.018510993977732156 0.018288994952664894 -0.062295559692071706 -0.058358787494345969 -0.032578772907957028
internal_count=24000 11523 10720 5993 4283 1140 4727 3143 1710 534 4376 12477 1872 518 10605 1354 793 480 1070 559 284 9469 690 455 8779 3692 2006 1686 5087 1199
shrinkage=0.05


Tree=6
num_leaves=31
num_cat=0
split_feature=23 19 21 18 19 18 2 30 9 24 21 9 1 23 23 1 23 21 24 23 5 30 22 24 29 23 17 22 21 7
split_gain=28.951714570558011 7.9708918714979902 9.9539559483512861 6.8771801362644531 6.0598133675335184 5.7623337993828239 4.7408320721236343 10.983501761456004 5.0889140186499979 4.5942956776381791 5.9074953426519494 3.9840329583894558 6.2243498702935272 5.2019081289812261 5.0701149565261625 4.3810167536538316 4.2641329586763792 3.9269153510684252 3.7831476682136724 3.5773159258604657 3.5642484197427287 3.4406546719578803 3.3444646049996347 3.9929193301890225 3.199139813151159 3.1942724000281717 3.1135884210859466 3.2351373455421211 2.9379335713173838 2.9107115020410355
threshold=0.067446490791438538 0.31208705790905561 0.11418269230769232 0.1940217391304348 0.11115429459774583 0.12961956521739135 0.071140797285835458 0.01409185803757829 0.0087103640233586223 0.1771851851851852 0.10793269230769233 0.037002674234568579 0.052777777777777792 0.0067197610751617729 0.01667496266799403 0.077777777777777793 0.063962170233947249 0.035817307692307697 0.14513580246913582 0.050522648083623702 0.040317905848613361 0.0081767571329157979 0.067667044167610421 0.052790123456790135 0.025140099626401 0.11772025883524143 0.13686708860759497 0.064269535673839209 0.12139423076923078 0.050684719208768922
decision_type=2 2 2 2 2 2 2 2 2 2 2 2 2 2 2 2 2 2 2 2 2 2 2 2 2 2 2 2 2 2
left_child=11 2 4 -3 5 6 24 8 -8 10 22 15 13 -13 -14 18 19 -15 28 -16 -6 -4 -9 -24 -2 -23 27 -11 29 -1
right_child=1 3 21 -5 20 -7 7 9 -10 26 -12 12 14 17 16 -17 -18 -19 -20 -21 -22 25 23 -25 -26 -27 -28 -29 -30 -31
leaf_value=-0.0021368374020778263 0.00078126535980732419 -0.00059703191121419268 -0.010211042267210941 0.0070577099275918424 -0.0012199866335566452 -0.002467634033293746 -0.010370935559272767 0.0038269674191084668 0.012979456037282944 -0.0018492387943580503 0.014381672421546832 0.022578008904268868 -0.0087709675795339028 0.0012771032955668389 -0.0016768746104528897 -0.0067921182780123464 -0.0094399728350811184 0.011628359877343836 0.0033123888097073527 0.0044827629192709341 0.0080473713677932778 0.0039084981455177565 0.0083027671669658864 -0.0023949466925289129 -0.0065253076133548575 -0.0010147836745688409 0.0015801798526223724 0.0067897299469746267 0.010182604528203304 0.014302724489459285
leaf_count=9717 770 393 94 1158 123 663 25 391 350 122 73 38 203 436 562 469 111 116 343 406 663 366 95 1066 186 3300 715 970 49 27
internal_value=0 0.035673014273259064 0.025300466543309332 0.10236227666078884 0.049880638752187824 0.037993282475156889 0.05015166449541808 0.065961396315293824 0.22845526528358459 0.048206384408793525 0.0096240745140955992 -0.033846206671058289 0.0086851061090954355 0.09368376681360148 -0.030432842265053214 -0.041353855659690797 -0.0031554915763582756 0.069047347197066178 -0.036981804441916441 0.018132194507220561 0.1319427191073658 -0.015309115840082472 -0.0034523973260650932 -0.030391908585255152 -0.012806127385614307 -0.010465225339976413 0.08290270625654346 0.11649140871160633 -0.040597422348397583 -0.04182568857712405
internal_count=24000 11523 9972 1551 6212 5426 4763 3807 375 3432 1625 12477 1872 590 1282 10605 1079 552 10136 968 786 3760 1552 1161 956 3666 1807 1092 9793 9744
shrinkage=0.05


Tree=7
num_leaves=31
num_cat=0
split_feature=9 26 1 22 28 2 6 20 20 27 27 21 27 17 13 28 10 15 9 9 2 30 17 6 5 20 19 29 26 0
split_gain=22.111024529422373 8.5972856438057121 4.5655428413507746 4.4499472015713462 4.0052055470662999 11.98250536583202 6.37651587593332 5.7232999412333481 7.9444915550860067 5.2298888964326027 5.1359511999562582 5.0553868854771995 4.861751323054218 4.8397528569666468 6.7443395011520986 4.3419021634149804 5.0175856618136816 4.2689591423054107 3.8838126335388097 3.7346575567339957 3.4991502918938102 3.520000974023958 3.4815666441049045 3.4614069191382351 3.7304586830985889 3.3289999820262106 3.294469716673067 4.3623937009339864 3.9237872204910662 3.8926815982413943
threshold=0.016110898870272339 0.81080300404390537 0.028333333333333335 0.025198187995469992 0.0062636707098826811 0.071140797285835458 0.027509561728008027 0.084443000974342333 0.044657356284507961 0.047647914645974787 0.031280310378273529 0.48076923076923084 0.025096993210475271 0.041930379746835451 0.14000000000000004 0.10131238814873735 0.023346579090590545 0.13750000000000004 0.026584074660263062 0.026240244501446273 0.022874257845631896 0.012584087218742752 0.0324367088607595 0.047659727882625881 0.037800896970436593 0.0037349788892497566 0.044889234356781972 0.015722291407222918 0.0093394954746774516 0.012685904434151157
decision_type=2 2 2 2 2 2 2 2 2 2 2 2 2 2 2 2 2 2 2 2 2 2 2 2 2 2 2 2 2 2
left_child=2 4 22 -4 5 19 10 8 9 17 -6 -9 -10 14 -11 16 -14 20 -7 -2 -8 -22 26 24 -18 -21 28 29 -1 -28
right_child=1 -3 3 -5 6 18 7 11 12 13 -12 -13 15 -15 -16 -17 23 -19 -20 25 21 -23 -24 -25 -26 -27 27 -29 -30 -31
leaf_value=-0.0016024405896408235 -0.002340830753719996 0.0061152976892359682 -0.0082855373351038361 -0.0019788484356811228 -0.00034128626234790528 0.013327164844278889 0.013914718061685564 -0.00055002128399414703 0.009807978145951449 -0.0018588725901857207 -0.0054910654832065874 0.009684720885753631 0.012497304120789404 -0.0048904719087612255 0.017489170011073824 0.0076451412164995 0.0012943232468530244 0.0081270121250833788 0.0049386466062197121 0.0002480017318241838 0.017071275701445919 1.3328864990077354e-05 0.0065173123613931246 0.0035064646069591075 -0.0067341015849373131 0.012608430220021142 0.0031418383975425224 0.012427179933321186 -0.0049966839388778557 -0.005845610311497813
leaf_count=5367 630 803 552 567 4214 273 50 3470 344 158 547 125 115 661 63 491 510 245 279 138 31 1239 128 1081 202 90 349 82 1012 184
internal_value=0 0.02150461364763704 -0.042418183284887279 -0.10179845705109052 0.016092506391012468 0.066815006944304658 0.010812813066035206 0.026785000383548595 0.048028112382328347 0.0066047551610492229 -0.018659076365671396 -0.0038830806383337198 0.084981431784614175 -0.054977008849044509 0.073132655334688421 0.069039257082555525 0.047458014148336287 0.041310899478558913 0.18174631904432739 -0.0071268162249407286 0.018809998690178902 0.0085940789050004615 -0.033088426707467818 0.034470770505973233 -0.019668080456806031 0.10254236480645966 -0.036079510245317727 0.033819123836067631 -0.042818444241250003 0.0007845892467820846
internal_count=24000 15759 8241 1119 14956 1410 13546 8785 5190 2447 4761 3595 2743 882 221 2399 1908 1565 552 858 1320 1270 7122 1793 712 228 6994 615 6379 533
shrinkage=0.05


Tree=8
num_leaves=31
num_cat=0
split_feature=23 19 18 4 18 28 0 19 28 25 22 30 27 20 27 20 25 4 27 11 21 31 31 23 25 7 20 17 0 28
split_gain=23.823920419289315 6.6746756355834069 8.4442611254339432 7.0599553395782628 6.1024132313823376 4.8003800637598015 10.610372720831986 4.6217746181233146 4.1084030652432908 3.6448990334795059 3.5814963310359662 3.7536990318871948 3.1593345583530379 3.110590575445392 3.6433938235258414 3.0133375359258521 2.9055955527516666 7.104179650121603 5.3438961758625441 4.9899602532936624 5.4045709696507158 3.6132156556849857 4.1711815899272704 3.5231458965005906 3.0711542775579463 4.36855312843538 3.4295410712857404 2.8532425535295491 4.8186471689915873 3.2532599715536232
threshold=0.067446490791438538 0.31208705790905561 0.10326086956521741 0.019094518414529825 0.24483695652173917 0.0062636707098826811 0.013598672555106784 0.11115429459774583 0.032710280373831786 0.037707595970596246 0.012740656851642131 0.000637903038738112 0.002546071774975752 0.12374147450470933 0.043768186226964122 0.060246833387463471 0.073781649877484354 0.023174449976968135 0.020004849660523769 0.078947368421052641 0.015625000000000003 0.042178630451965231 0.030681899834734499 0.010701841712294676 0.0091206098557037856 0.018076023556595006 0.019324455992205263 0.059335443037974687 0.026945753569080601 0.0036786637502485586
decision_type=2 2 2 2 2 2 2 2 2 2 2 2 2 2 2 2 2 2 2 2 2 2 2 2 2 2 2 2 2 2
left_child=10 2 3 5 -3 6 -2 9 -7 -5 27 -12 -8 14 -4 -10 17 18 21 20 -19 22 24 -22 25 -13 -26 28 29 -1
right_child=1 4 13 7 -6 8 12 -9 15 -11 11 16 -14 -15 -16 -17 -18 19 -20 -21 23 -23 -24 -25 26 -27 -28 -29 -30 -31
leaf_value=-0.0015710593725420435 -0.0012059281885851432 0.00099641851374497842 -0.0011717683367384304 0.0057500740782040916 0.0073474112212857283 -0.00081351227582769192 0.0012306187886837101 0.0096515570295925002 0.005403329711577063 0.00034336475744814883 0.01565000743550413 -0.00047466849232193748 0.010243484179178874 -0.0026229116584168002 0.002606214095067799 -0.0012747162433921315 -0.0050438310782869753 -0.0052353038581518033 -0.0043448638122797921 -0.0020089409377548723 0.020574651697748587 -0.0080625830990512203 0.0074479781981534182 0.0050143244628195471 -0.0051929619412334005 0.0076467900183694124 0.0006631161364697919 -0.006074600002834888 0.0050112330007113619 -0.0048126573482708077
leaf_count=2283 524 654 1590 776 897 2350 121 413 549 521 34 3422 495 1323 1066 244 421 130 1315 455 38 164 159 852 703 174 388 551 217 1171
internal_value=0 0.032362225405263435 0.022870458471239499 0.046581712490963691 0.093388595402740346 0.024894543877556422 0.080482862654485204 0.10090109446243933 0.0047320610885972095 0.071564387406582275 -0.030700736882987193 -0.018584221348771177 0.16946199812091789 -0.012842420478297346 0.0068909079060856119 0.066970926816346213 -0.019955571376991714 -0.015587909565522121 -0.030161797024986961 0.0469068959809966 0.085753955005430704 -0.015270149285445908 -0.010329792685760628 0.11357395970419551 -0.015733464054901614 -0.0016338938683503462 -0.062206474495633386 -0.054391365905951006 -0.044319873283488069 -0.053400986116610309
internal_count=24000 11523 9972 5993 1551 4283 1140 1710 3143 1297 12477 8255 616 3979 2656 793 8221 7800 6325 1475 1020 5010 4846 890 4687 3596 1091 4222 3671 3454
shrinkage=0.05


Tree=9
num_leaves=31
num_cat=0
split_feature=23 19 21 23 19 25 4 4 0 2 21 9 1 23 23 1 17 30 9 22 23 21 30 29 5 23 5 29 16 22
split_gain=21.501088393146947 6.0238954853221358 7.7777760850638549 5.5074282154854064 4.655510752164103 4.132450209479388 8.2261383745540986 3.5750998036531874 4.49300238278905 3.4149894134864831 3.3700420371057049 3.2582295744882543 5.0688434144842116 4.2112556782335835 3.7762474385721951 3.6019607129580038 4.8258547672817826 3.7365248616924234 5.1321315845621367 3.9164013853987587 3.5038077357888935 3.3485295387163707 3.030768575972143 3.0032877931954989 4.9865627348851955 2.8309179549214547 2.7920176846982674 2.6680814084720357 4.551483399033236 3.2537817330258108
threshold=0.067446490791438538 0.31208705790905561 0.11418269230769232 0.27028372324539579 0.11115429459774583 0.0058535257282875041 0.005823773278641778 0.013007523744762993 0.012540640270520811 0.064858990670059388 0.10072115384615386 0.037002674234568579 0.052777777777777792 0.01667496266799403 0.0067197610751617729 0.027222222222222228 0.027689873417721524 0.029053583855254004 0.017491677127108012 0.025198187995469992 0.063962170233947249 0.035817307692307697 0.0081767571329157979 0.045843711083437121 0.017929238998891501 0.050522648083623702 0.040317905848613361 0.021092777085927775 0.012295081967213116 0.029728199320498302
decision_type=2 2 2 2 2 2 2 2 2 2 2 2 2 2 2 2 2 2 2 2 2 2 2 2 2 2 2 2 2 2
left_child=11 2 4 -3 5 6 9 8 -7 -2 23 15 14 -14 -13 16 27 18 19 -17 25 -16 -4 24 -9 -15 -6 -1 -29 -30
right_child=1 3 22 -5 26 7 -8 10 -10 -11 -12 12 13 20 21 17 -18 -19 -20 -21 -22 -23 -24 -25 -26 -27 -28 28 29 -31
leaf_value=-0.0017625956544632783 -0.00083011877502971426 0.00094659771622138643 -0.0095736273108644691 0.0069800409385591851 -0.0011495379291898836 0.0071630524948608776 0.011853545998681839 -0.0028532542912653707 -0.003146299118410328 0.0046070304681669989 0.0059166157267766424 0.019545917448244597 -0.0079070436470027039 -0.0013905791784520677 0.0012418306612093514 -0.0078065473478799762 0.0041699069012434056 -0.007726167368601604 -0.00027308237020816871 -0.0019690937111934452 -0.0084712586692861618 0.010800432490891423 -0.00048119330578531914 -0.0011148162434986392 0.0038355387575396867 0.0040889109627073031 0.0070526750086839021 0.0069700968879486879 0.014254378595135429 -0.0063190039933512096
leaf_count=7055 529 654 94 897 123 121 268 358 835 636 404 38 203 562 436 589 390 415 1188 561 111 116 3666 1018 1257 406 663 233 22 152
internal_value=0 0.030744114950341937 0.021726935820985022 0.088719169932899744 0.0434546871428634 0.033035368452290083 0.079102426704957776 0.016502913036293893 -0.036829088117038854 0.042762893489502019 0.033290991107609698 -0.029165699522665529 0.0092968587628287132 -0.02600385678725756 0.086001125432677183 -0.035955129896116281 -0.025042558211303766 -0.067079544305541583 -0.051558082255672655 -0.099177703650101368 -0.0011439733034598815 0.065010447001111679 -0.014170083118245956 0.020242493323758215 0.04705643568983757 0.018152734557212877 0.11538245204750819 -0.030710190418769195 0.04801672221108795 -0.074355434240966009
internal_count=24000 11523 9972 1551 6212 5426 1433 3993 956 1165 3037 12477 1872 1282 590 10605 7852 2753 2338 1150 1079 552 3760 2633 1615 968 786 7462 407 174
shrinkage=0.05


Tree=10
num_leaves=31
num_cat=0
split_feature=23 19 19 21 18 4 25 5 0 19 14 25 19 3 18 5 4 15 27 27 1 22 22 25 4 16 29 6 22 9
split_gain=18.475964855221786 5.9685192450500075 5.9920513798326756 6.2275467294723397 5.9698606130865155 5.6941716207265056 5.3920384298755959 4.6419569251358137 4.4493902685103794 4.4009920976109713 3.7623849096661552 4.176558556440769 6.0467182413243163 4.2922248287738363 4.4078517902609278 3.645346066813973 3.5506944038437327 3.1492361152944808 3.1154864044387756 3.6081453809745692 3.0823569444607855 3.0560407689186944 4.6428982296984946 3.000944133730465 6.576193686924908 4.2352217181115277 3.4812214214293276 3.1206445905639661 2.9458575114963796 2.9342277543253754
threshold=0.097809855649576921 0.035561601243684425 0.31208705790905561 0.12283653846153848 0.24483695652173917 0.020564171181644698 0.0091206098557037856 0.0061170943039326369 0.077979150848597314 0.23163622230858924 0.087500000000000008 0.027361829567111359 0.057326078507578711 0.086025659034508609 0.095108695652173933 0.0081052770743712584 0.00058128057206782355 0.26250000000000007 0.036008729388942777 0.0095780795344325917 0.038333333333333337 0.011608154020385052 0.015005662514156286 0.0044922406751973874 0.0054179736339906573 0.045081967213114756 0.022104607721046079 0.02058906514515017 0.018403171007927526 0.027178955411231786
decision_type=2 2 2 2 2 2 2 2 2 2 2 2 2 2 2 2 2 2 2 2 2 2 2 2 2 2 2 2 2 2
left_child=5 15 3 9 -4 6 7 16 -6 18 11 -7 13 14 -13 -2 20 -12 19 -3 21 -1 -23 24 -9 27 -27 -25 -14 -20
right_child=1 2 4 -5 8 10 -8 23 -10 -11 17 12 28 -15 -16 -17 -18 -19 29 -21 -22 22 -24 25 -26 26 -28 -29 -30 -31
leaf_value=-0.001098803507362901 0.0021475562467153028 0.0071781081522439977 0.00039744579236077244 -0.0010446588204716014 -0.0031367689955468271 0.0047360892164096677 -0.0033149978495749508 0.00092039315709405145 0.0079614186460899208 0.010088674349287537 -0.0038228707868904321 -0.0054182629098354935 0.014932242094301711 0.0045814796172557997 0.0039132235982975404 0.0073854925789742709 -0.0025072090081947368 0.0037570318250462068 0.015723191963301766 -0.00092358939705552219 -0.0065582716052637159 0.012442986667156221 0.0014709299852677495 0.00025194513843875791 0.013039093017578125 0.013304565656692425 -0.0083974920537160797 -0.0062575634036745355 0.0025777517267445613 0.0027795453035927057
leaf_count=1012 644 154 654 3118 102 742 3408 403 788 163 674 710 51 188 154 686 3880 172 45 1277 159 113 657 1034 155 94 23 224 895 1621
internal_value=0 0.03499665028841218 0.024589690207923429 0.011058009681973797 0.080486748753588438 -0.022009906208722094 -0.033147281273742918 -0.018576180055518417 0.13378983046231646 0.041617456992711029 0.01265695951234942 0.030655461876061711 0.0068630638482931024 -0.045304411859340088 -0.075100236848272661 0.0969845734144512 -0.032675714800804674 -0.045636062327569824 0.033188192256235254 -0.0010341719719682183 0.0022432164762635504 0.014146681753740835 0.061622298537910757 0.023882894829277912 0.085733973477903666 -0.0012173974514007569 0.18076698367412275 -0.018142812866095707 0.064875943810692796 0.062583272214554078
internal_count=24000 9252 7922 6378 1544 14748 11162 7754 890 3260 3586 2740 1998 1052 864 1330 5821 846 3097 1431 1941 1782 770 1933 558 1375 117 1258 946 1666
shrinkage=0.05


Tree=11
num_leaves=31
num_cat=0
split_feature=23 28 10 17 4 25 10 5 31 19 18 18 4 27 30 6 5 9 21 22 31 25 4 0 16 26 29 25 24 10
split_gain=16.674557606205372 5.5921169299924127 5.6321810792313673 8.2569979593452079 5.1458021725243146 5.1678196773233065 4.200339660772153 3.8372361079303383 3.827097748706251 5.1013539841798803 5.4569536267865137 3.8307062962257707 3.2514482426626605 3.0209757894058011 5.2336249438857001 4.9534989509388705 3.0022724830410623 3.331454642244855 3.1237199131753934 3.4573516926800587 4.3037756633216295 3.0000944616101988 5.9350149032088577 3.4604162700144592 3.4129603615737212 3.3739300649744761 3.0507193042033589 2.8672365248389955 3.6154591614630238 3.8316229362459495
threshold=0.097809855649576921 0.0062636707098826811 0.067063169587940161 0.075158227848101278 0.019017745508785017 0.0096651238769398327 0.020679410427119758 0.0061170943039326369 0.065782855500467072 0.31208705790905561 0.24483695652173917 0.16820652173913045 0.00058128057206782355 0.029461687681862272 0.052598005103224314 0.029030033230923572 0.00091527595570064385 0.0053539267587185508 0.018990384615384621 0.011608154020385052 0.0056405834590788255 0.0044922406751973874 0.0054179736339906573 0.0044844694638254802 0.045081967213114756 0.0077989601386481812 0.022104607721046079 0.013476722025592162 0.018814814814814819 0.0097460691413618055
decision_type=2 2 2 2 2 2 2 2 2 2 2 2 2 2 2 2 2 2 2 2 2 2 2 2 2 2 2 2 2 2
left_child=4 6 -3 -4 5 7 -2 12 -5 11 -11 -10 16 15 -15 -6 18 -18 19 20 -1 22 -9 -23 25 -25 -26 -7 -29 -30
right_child=1 2 3 8 13 27 -8 21 9 10 -12 -13 -14 14 -16 -17 17 -19 -20 -21 -22 23 -24 24 26 -27 -28 28 29 -31
leaf_value=0.0010148875208747146 0.0015836641840312794 -0.00037029767858251175 0.0092892528726504411 0.0047397587293138109 0.00029154381977597807 -0.0059990978804585855 0.0087367094507248243 0.00087437364954510641 0.0011257602658261063 0.0003775732734152301 0.006824398809571911 -0.0029357904849223915 -0.0023880532415258213 -0.0042456152006773882 0.0010511734616765213 0.0060390477461947333 -0.0021441830147025933 0.0084778747558593767 -0.0084226342963009352 0.0030667135229817143 -0.0057309089388166154 0.018584420035282771 0.012387138614731452 0.0026081499464885153 0.012628442012682196 -0.0029098627333268689 -0.0079776167869567878 0.0034890666343759765 -0.0095666016810215457 -0.0023914037808742115
leaf_count=541 368 3213 390 864 1226 772 464 403 1778 654 659 862 3994 710 1359 540 117 200 123 540 420 24 155 396 82 922 23 229 208 1764
internal_value=0 0.033246816725015539 0.02551865988630014 0.045834923193462523 -0.020909410850090616 -0.03198254560393067 0.11145725011682281 -0.018666698451456555 0.03450410476680215 0.021326395603122512 0.072265220659884985 -0.0040079518588203369 -0.031444196898895042 0.010600659441606007 -0.015329551068753538 0.040979824529903799 0.0021310583916231262 0.091148614413354673 -0.01524490543774196 -0.0026902372165174184 -0.038666547461181228 0.01915597151639753 0.081447278353048477 -0.0048651405878534955 -0.011216008466310427 -0.025038938714991209 0.16229467789332072 -0.067545218456485159 -0.049153050066719592 -0.062964395731385292
internal_count=24000 9252 8420 5207 14748 10913 832 7940 4817 3953 1313 2640 5935 3835 2069 1766 1941 317 1624 1501 961 2005 558 1447 1423 1318 105 2973 2201 1972
shrinkage=0.05


Tree=12
num_leaves=31
num_cat=0
split_feature=23 28 19 19 21 18 7 25 23 3 0 21 7 3 31 25 2 27 5 23 22 23 1 21 31 15 25 19 23 23
split_gain=15.048786635391686 5.0468853216113612 4.8639493656893675 4.4546999683311483 5.8195485534389046 4.8837816645183718 4.1595101288309664 5.038630483112831 4.0095577282533323 3.8192616794858871 3.7417921056594459 3.7194736473010295 3.6019181112851966 7.2944342623653533 4.9616701793398441 4.9063521970564707 4.5778933817803074 3.5498213523987516 4.3048283711897701 3.3440572208158676 3.465232506576946 3.2785637926783568 3.2598794726402156 3.7805083706556828 3.2491729961206741 3.2297689010351016 3.4045515984724046 3.1281498361830842 3.0927967057619501 3.367518355257233
threshold=0.097809855649576921 0.0062636707098826811 0.055965798678585317 0.31208705790905561 0.12283653846153848 0.24483695652173917 0.030875764321339007 0.043424993193574742 0.0092085614733698369 0.0094348457180315603 0.077979150848597314 0.040625000000000008 0.014758094057313535 0.023657348878587819 0.036035065028382558 0.0091206098557037856 0.031727099236641229 0.020368574199806016 0.0061170943039326369 0.01518168242906919 0.018969422423556061 0.1010452961672474 0.0016666666666666668 0.001682692307692308 0.044226485593159455 0.062500000000000014 0.0050367546964334335 0.0071900505246793632 0.088352414136386281 0.049527127924340476
decision_type=2 2 2 2 2 2 2 2 2 2 2 2 2 2 2 2 2 2 2 2 2 2 2 2 2 2 2 2 2 2
left_child=2 9 11 4 6 -5 -3 21 -4 -2 -7 12 15 16 -15 17 27 18 19 20 22 -8 23 -1 -16 26 -20 -14 29 -10
right_child=1 3 8 5 -6 10 7 -9 28 -11 -12 -13 13 14 24 -17 -18 -19 25 -21 -22 -23 -24 -25 -26 -27 -28 -29 -30 -31
leaf_value=-0.004094612584872679 0.00055048126873172482 0.00012493953694737615 0.014498752741901964 0.00035869466192131746 -0.00092183399143401512 -0.0029614152569396824 -0.005483306312965135 0.0010494168303496925 -0.001299622198266368 0.0077134394521289219 0.0072160971440790884 -0.0033735201395415403 0.00523406480864961 -0.0059404240396705651 0.0057308870503026202 -0.0039142397510194549 0.0077076413699736198 -0.011475876088325794 0.0071044065950516466 -0.0001395443717570842 -0.0093994209796867591 0.0066545999493354407 -0.0028090782795836128 0.0079466119408607479 -0.0009683487486928813 -0.0097969496367024452 0.00065671445234962138 -0.0055042308214661127 -0.0039071445537220903 0.0028763024319301955
leaf_count=110 281 1653 54 654 3135 102 59 1054 744 551 788 2002 129 412 234 1676 480 78 334 2930 176 975 2018 160 799 51 529 143 314 1375
internal_value=0 0.03158447381239457 -0.019863939641742226 0.024242724966691394 0.013343166692129328 0.07278246764537584 0.039975034867146216 0.06964372813530352 0.020459076691498275 0.1058843840056887 0.12099371220958367 -0.028042990422328565 -0.020348899423036092 0.015545010702361505 -0.026022668301440441 -0.030130457416771957 0.095419074745571361 -0.017492394494181548 -0.014870650688341017 -0.025624147362518099 -0.052775710506679174 0.11924022975120138 -0.042374732884597942 0.060818557496424078 0.010983870659539222 0.048591451128410824 0.063042265307999987 -0.008228724055430469 0.014477217743732878 0.028201953075921101
internal_count=24000 9252 14748 8420 6876 1544 3741 2088 2487 832 890 12261 10259 2197 1445 8062 752 6386 6308 5394 2464 1034 2288 270 1033 914 863 272 2433 2119
shrinkage=0.05


Tree=13
num_leaves=31
num_cat=0
split_feature=23 13 19 10 17 24 19 23 19 6 4 25 25 5 9 12 21 28 23 22 27 4 24 2 25 1 25 24 9 10
split_gain=13.581531445000957 4.6736764173392435 4.5812092952680814 4.7240653140269036 7.3128675747749234 3.1845712393922376 3.1523404770381038 4.8362823579733503 3.6758894213318811 3.0183891457931811 2.9664377693159185 4.1937639143896668 3.8730372056992421 3.280835185710008 3.15730981870967 4.3276346752091488 3.105265187969855 3.0951819886681138 3.0725952068530398 3.1101315020791755 2.7663769104469722 2.7270561448240365 2.6733547897995225 2.6620140220563697 2.582130496577566 2.5609750562379823 2.5178370754872166 3.2376433577844512 3.5485257949653599 3.5037062550338542
threshold=0.097809855649576921 0.34000000000000002 0.035561601243684425 0.067063169587940161 0.075158227848101278 0.014469135802469139 0.31208705790905561 0.27028372324539579 0.18052856587640889 0.0053686751520471516 0.019017745508785017 0.0096651238769398327 0.072420364824394248 0.0061170943039326369 0.041379686732521972 9.9999996826552254e-21 0.053125000000000006 0.15877908132829591 0.011697361871577902 0.018969422423556061 0.012487875848690594 0.00016451336945315758 0.028888888888888891 0.017626166242578459 0.015654778110536349 0.029444444444444447 0.013476722025592162 0.018814814814814819 0.0094362276919718411 0.0069596141085953292
decision_type=2 2 2 2 2 2 2 2 2 2 2 2 2 2 2 2 2 2 2 2 2 2 2 2 2 2 2 2 2 2
left_child=1 10 5 -4 -5 -2 8 -8 -6 -7 11 13 14 16 15 22 18 -14 19 -1 -11 -20 23 -12 -17 -16 -13 29 -29 -28
right_child=2 -3 3 4 6 9 7 -9 -10 20 12 26 17 -15 25 24 -18 -19 21 -21 -22 -23 -24 -25 -26 -27 27 28 -30 -31
leaf_value=-0.0022646803583078719 -0.013111273887065742 0.0058764452997006871 -0.00055193761529250614 0.0085524348341501685 0.0016522412956227021 0.0013081529296918443 0.00034075987721801903 0.0063043650029237664 -0.0020527468646987009 0.0087182135703807364 0.010091828133748926 -0.0055289616605624023 -0.0039752578638301934 0.00087819401537093738 0.011013565418568065 0.011187519220744863 -0.0074183839333565888 0.0044762532307407055 0.0020141950906499436 -0.01036266042363076 0.0028903419931614123 -0.0011532545620708294 0.0045003844645314806 -0.0094806586352872181 -0.0028334234965344271 0.002400132512774563 -6.00168160323439e-05 -0.0083306291653204335 -0.0020408965829790265 0.014417551430788909
leaf_count=2010 26 247 2924 390 2302 461 654 708 944 499 23 772 737 2005 94 34 211 127 912 126 344 2666 499 71 960 1053 174 258 1714 55
internal_value=0 -0.01887074387312776 0.030005251619138605 0.020887649084124653 0.039565679829279964 0.084313257094612695 0.028437559913274728 0.068815673741124975 0.011495172040960485 0.091222771746249293 -0.021194081126916047 -0.029410379803050585 0.0037037244500419441 -0.017401849892821918 0.022147629216542276 -0.0067427066338460401 -0.029234134964802094 -0.054659279753212574 -0.024834908902290447 -0.054847403872437243 0.12680109649507743 -0.0069180030173732953 0.060866007816932251 -0.093832918304078125 -0.047076678132147373 0.06212056992671338 -0.061441204622463066 -0.044206057838936497 -0.05727585261540287 0.068342567921725939
internal_count=24000 14748 9252 7922 4998 1330 4608 1362 3246 1304 14501 10903 3598 7930 2734 1587 5925 864 5714 2136 843 3578 593 94 994 1147 2973 2201 1972 229
shrinkage=0.05


Tree=14
num_leaves=31
num_cat=0
split_feature=2 28 30 13 18 19 13 18 28 17 8 9 24 2 12 15 4 25 22 21 4 2 7 17 10 2 15 4 9 29
split_gain=10.119651824178696 5.3080218491715589 4.5431986787136811 3.9384607030282091 3.6791396946327586 3.6716673995908216 5.5753254055302746 4.1837009026648184 3.0248607230342062 3.8439211818870351 3.1959805243266288 3.0677762240709696 3.3131185529102636 3.013726179638089 2.9628653559079985 3.8830501690120687 3.0869393403862713 4.9758665237832638 2.9469922225661249 3.660529900256297 2.7161456077056449 2.8545527893396407 2.7010153603194955 2.508050621565487 4.4294743577513707 3.2667430085013738 2.4704878723393033 2.3911581873737253 2.5047626357282438 3.2976462628483088
threshold=0.065442111959287549 0.0062636707098826811 0.011540245882625843 0.14000000000000004 0.037228260869565225 0.31208705790905561 0.22000000000000003 0.17309782608695654 0.0050705905746669328 0.029272151898734181 0.0057008190762370967 0.0036293183430660923 0.017925925925925932 0.019269508057675997 9.9999996826552254e-21 0.11250000000000002 0.019094518414529825 0.034985025864416021 0.029728199320498302 0.0074519230769230782 0.019017745508785017 0.022503180661577613 0.050684719208768922 0.079905063291139264 0.051529847686217212 0.11813507209499577 0.21250000000000005 0.0049683037574853586 0.004415215848933036 0.0017901618929016191
decision_type=2 2 2 2 2 2 2 2 2 2 2 2 2 2 2 2 2 2 2 2 2 2 2 2 2 2 2 2 2 2
left_child=3 4 -3 8 -2 7 -7 14 10 22 18 -12 -13 -14 16 -16 -4 -18 19 -1 21 -11 -10 25 -25 -17 -9 28 -21 -30
right_child=1 2 5 -5 -6 6 -8 26 9 20 11 12 13 -15 15 23 17 -19 -20 27 -22 -23 -24 24 -26 -27 -28 -29 29 -31
leaf_value=-0.0019893441521017371 0.0076374559211328562 -0.0029036485723086766 0.00064704737115476164 0.0069169140186439567 0.00043287548391220853 0.0076916676006752466 0.001191459325472947 -0.00065246565629820499 -0.0017176242243952058 0.0058379593283631077 0.01835099567587559 -0.0026349266782202531 0.009762774074077607 0.0015557254489539261 -0.00051104011615714796 -5.7823384950260916e-05 0.006807031804347264 0.00070764966995308278 -0.0070463723350018964 0.00031826243765892525 -0.0009404975591468163 -0.0074510516979122317 0.0069584292724080704 -0.0073606574448986332 0.0019621637912399801 0.0088140077562662809 -0.0051078443445210378 -0.0029093543224245587 0.014655868058232055 0.0033056899227879265
leaf_count=2451 474 847 1297 147 283 471 1101 1321 3598 43 26 446 125 1064 4124 167 743 608 213 372 294 671 92 138 1660 274 407 214 87 242
internal_value=0 0.017453696474598931 0.012769040057209418 -0.024147790064596573 0.098881317531416879 0.0176429888626164 0.062780816250175009 0.011035607853840711 -0.026551236668974611 -0.04497644183431701 -0.01003184470966572 0.026220195376679238 0.020800750317558965 0.048370708779590883 0.01967899104940575 0.0079813715133130424 0.047787734670311305 0.081241682160791862 -0.026856275719282646 -0.019637868286454103 -0.099704954773187637 -0.13301466213387936 -0.03002621390955235 0.0415078408753249 0.024932382269881592 0.10908760181089648 -0.034037034492939711 0.03433506632111763 0.062580060176604488 0.12614209619336578
internal_count=24000 13915 13158 10085 757 12311 1572 10739 9938 4698 5240 1661 1635 1189 9011 6363 2648 1351 3579 3366 1008 714 3690 2239 1798 441 1728 915 701 329
shrinkage=0.05


Tree=15
num_leaves=31
num_cat=0
split_feature=23 30 29 24 18 25 23 4 31 0 9 9 25 4 28 24 0 0 17 0 28 9 7 29 19 8 8 29 4 31
split_gain=12.841056961173578 3.6546393892025417 4.8998577175220692 3.7709622458122292 3.1915974142523247 7.0262479374700773 5.4724561611835751 4.121951287240682 4.1395548316579021 3.8051042403144706 3.7995885531285634 3.0812409812497092 3.4733027765073325 5.1292933903084297 3.0186831138956238 3.3886673479182723 3.1209751854139975 2.8498565183469857 4.0102846764971014 3.6506858263041302 2.8184132400650377 4.1176829437503066 3.0738481129491753 2.7775500224959666 2.7541712363482489 2.6972654475687374 2.5759171127828537 4.2920583531198986 3.4937486570713059 3.1651572262807406
threshold=0.067446490791438538 0.0050452331245650671 0.0028798256537982572 0.039456790123456799 0.10326086956521741 0.060441056357201206 0.27028372324539579 0.018622913422097442 0.0070058202198749744 0.077365147682737098 0.025257872619112592 0.037002674234568579 0.072420364824394248 0.023174449976968135 0.0062636707098826811 0.24296296296296299 0.013598672555106784 0.053608466654386615 0.083069620253164569 0.034708400911120797 0.0036786637502485586 0.004862740817551712 0.008389923638310464 0.025918430884184312 0.11115429459774583 0.11489482867251492 0.0076636940822953524 0.013776463262764634 0.032036236811511555 0.0027664008047711438
decision_type=2 2 2 2 2 2 2 2 2 2 2 2 2 2 2 2 2 2 2 2 2 2 2 2 2 2 2 2 2 2
left_child=11 -2 -3 -4 7 25 -7 8 -5 -8 -9 20 13 -13 16 -16 -10 19 -19 -15 21 -1 23 -23 -12 -6 27 28 -22 -28
right_child=1 2 3 4 5 6 9 10 14 -11 24 12 -14 17 15 -17 -18 18 -20 -21 26 22 -24 -25 -26 -27 29 -29 -30 -31
leaf_value=-0.002104006721955938 -0.0061974034079013427 0.010114772855096562 -0.0033494827281769523 0.010749721407358137 -0.002084149095709577 0.00041512007900479066 0.00021667607239822845 0.011586919194087386 -0.0025103359014395903 0.0064821063094351386 0.0022454787080533035 -0.0015853403033791007 -0.0039279218973978514 -0.0066606747416349567 -0.00083851736783981329 0.0031063012639309636 0.0056444299960697912 -0.0031083346629629332 0.0052906940015648969 0.013863286375999451 -0.0040460059642242908 0.00056786220940459537 0.010596816439226449 0.017016244221192141 0.0068707039407359827 0.0032584181685644878 0.0061100932548372013 0.018608537451787432 0.0046161243343740945 -0.0015550987433137012
leaf_count=1773 163 157 434 112 2112 1828 335 160 149 876 1177 637 318 26 2000 748 552 196 517 130 2172 1997 83 26 443 266 139 22 123 4329
internal_value=0 0.024724851649117353 0.02686016629609634 0.024399181605557017 0.028085996524444143 0.010983080887719673 0.042841402538593913 0.045432278869348926 0.02579125366964825 0.094977896140686843 0.084725363552570349 -0.021575487431790261 0.016405306511411543 0.036457411915182591 0.019647224808679382 0.0047050844959296515 0.07822212007178389 0.086423587812790248 0.059636892142168767 0.208852523794541 -0.028071827281040084 -0.0065708944142310391 0.023323636717832552 0.015585201996361568 0.070205559075614557 -0.029730728825067051 -0.040363959718822291 -0.067421267477149951 -0.071635221448079697 -0.026332674563037783
internal_count=24000 11512 11349 11192 10758 5417 3039 5341 3561 1211 1780 12488 1824 1506 3449 2748 701 869 713 156 10664 3879 2106 2023 1620 2378 6785 2317 2295 4468
shrinkage=0.05


Tree=16
num_leaves=31
num_cat=0
split_feature=23 30 29 24 18 9 23 4 31 9 9 1 28 3 24 23 23 1 24 16 19 9 4 3 13 2 28 21 24 14
split_gain=11.589053888920862 3.2983121445157195 4.4221215468090875 3.4032933892901429 2.8804168474875214 6.272332831927395 3.8432469553553701 3.720061020222273 3.7359487705599448 3.429128653613164 2.7808199132493172 2.7881020554589382 2.7243612820353582 3.6352424811993771 3.0582724596289252 2.6765570872938436 4.4146035686810379 3.6336010062076243 2.9908164083298776 2.6962135090196941 2.4856400749623635 2.330815514284184 2.8740150126097257 2.3005258569284717 2.0962623822313846 2.0808427580928281 2.0741904405180946 3.7158649536037838 2.9215275697491325 2.7037495076215396
threshold=0.067446490791438538 0.0050452331245650671 0.0028798256537982572 0.039456790123456799 0.10326086956521741 0.059897396714511823 0.59532105525136891 0.018622913422097442 0.0070058202198749744 0.025257872619112592 0.037002674234568579 0.077777777777777793 0.0062636707098826811 0.008357915437561458 0.24296296296296299 0.063962170233947249 0.050522648083623702 0.057222222222222223 0.1840493827160494 0.077868852459016411 0.11115429459774583 0.070359657261365519 0.29366733203184986 0.059711101746499982 0.060000000000000005 0.045297921967769307 0.0024855836150328102 0.0084134615384615415 0.10439506172839508 0.087500000000000008
decision_type=2 2 2 2 2 2 2 2 2 2 2 2 2 2 2 2 2 2 2 2 2 2 2 2 2 2 2 2 2 2
left_child=10 -2 25 -4 7 -6 21 8 -5 -9 11 26 13 -10 -14 16 17 19 -19 -12 -11 24 23 -23 -7 -3 27 -1 -28 -30
right_child=1 2 3 4 5 6 -8 9 12 20 15 -13 14 -15 -16 -17 -18 18 -20 -21 -22 22 -24 -25 -26 -27 28 -29 29 -31
leaf_value=-0.00079411590946532789 -0.0058875333586353475 0.0049588103827677282 -0.0031820085843861931 0.010212235990911723 -0.0024697555313477706 0.0064790221465874922 0.0051861343433459604 0.011007573222741485 -0.0055483187508323928 0.0021332046493394148 0.0016793424551491409 -0.0050492543000650609 -0.00079659150987863555 0.005115018520742802 0.0029509862994446475 -0.0071316825871420384 0.0051845497183249916 -0.0071586016872349908 -0.0002123115070258515 0.016403839172738972 0.0065271690925141762 0.0048521010049929229 0.0040383476520253125 -0.00084883924895232099 0.00063288291094680429 0.016734377030403383 -0.0019392216866664976 0.0041653370339514682 0.0024001724136298933 -0.0069170234724879268
leaf_count=2378 163 95 434 112 1324 317 600 160 92 1177 537 482 2000 609 748 101 503 255 395 33 443 192 428 2259 297 62 6591 449 676 88
internal_value=0 0.023488608694391337 0.025517157638468967 0.023179222193890764 0.026681696347508606 0.010433925981778643 0.029787369536619562 0.043160665093278913 0.024501691194974584 0.080489095459493357 -0.020496713397290599 -0.02666823617381792 0.018664863359136627 0.074311011527982487 0.0044698306566763133 0.015585040379511682 0.024859612581692527 -0.0076421784328632664 -0.058747891554465657 0.05063626635492894 0.066695281237731746 0.017087343656808574 0.0051579598794177246 -0.0080450793180306176 0.073023330456659152 0.19218068308891004 -0.023150192408659117 -0.00012855539062143763 -0.031998889601044231 0.026539750943321207
internal_count=24000 11512 11349 11192 10758 5417 4093 5341 3561 1780 12488 10664 3449 701 2748 1824 1723 1220 650 570 1620 3493 2879 2451 614 157 10182 2827 7355 764
shrinkage=0.05


Tree=17
num_leaves=31
num_cat=0
split_feature=23 30 29 24 23 19 4 9 23 28 1 4 19 2 17 26 23 21 27 19 20 4 27 0 7 9 30 28 4 0
split_gain=10.459121048284588 2.9767268014964978 4.0642291336701888 3.0267984265674555 2.6226199583863394 3.1179408806939808 3.1189981077004463 3.8911758753175807 4.4401678776591256 3.1953388617804137 2.8154950223696718 3.5018979827496164 3.0629193274550275 6.3302091756146188 2.7215492237202512 2.7023875327980518 2.5301482290044621 2.73734331898787 2.8477826483429087 2.6014865113487655 2.5079923799469475 2.8275382204861619 2.4108525315474281 2.8776232950001073 2.5676376718869336 3.8773952133406704 3.609769220156803 3.1289982688356242 2.4814275149604623 2.41474366281706
threshold=0.067446490791438538 0.0050452331245650671 0.0039694894146948953 0.039456790123456799 0.01518168242906919 0.0013602798289933931 0.023174449976968135 0.034694100311084435 0.063962170233947249 0.03231258699542653 0.0016666666666666668 0.004573471670797781 0.056548775748153916 0.063374681933842256 0.094145569620253181 0.028211053341036015 0.59532105525136891 0.11418269230769232 0.0098205625606207578 0.11115429459774583 0.061058785319909069 0.29366733203184986 0.020004849660523769 0.034257632733257569 0.014758094057313535 0.0258200076406702 0.014671769890976573 0.014615231656392924 0.014729430345039375 0.023472891760227276
decision_type=2 2 2 2 2 2 2 2 2 2 2 2 2 2 2 2 2 2 2 2 2 2 2 2 2 2 2 2 2 2
left_child=4 -2 -3 -4 10 -6 14 9 15 -8 11 -1 -12 -14 22 -9 17 19 -19 -5 -20 -22 24 -24 25 26 28 -26 -7 -27
right_child=1 2 3 16 5 6 7 8 -10 -11 12 -13 13 -15 -16 -17 -18 18 20 -21 21 -23 23 -25 27 29 -28 -29 -30 -31
leaf_value=0.0012044602460196232 -0.0055931567688661116 0.0066796358742497192 -0.0031249440493481013 0.0013632655714476076 0.0027258508179462361 -0.00035450251197011564 -2.5018087440344258e-06 0.0099990054432834916 -0.0067750978292805131 -0.0083341224222547479 -0.0025306013667106986 0.022339044724191941 0.01591944452097167 -0.0064403531203667324 -0.0046577233766769838 0.0029583096153353063 0.0040981571517138627 -0.0062677145004272463 0.0041259189434441979 0.0046995034769399847 -0.00045897921799112687 0.0038364304525551397 -0.0047730879891006387 0.0030987369375569482 0.0069408255256712438 0.011572846529945252 -0.0058645984746631564 -0.00015935959264737871 -0.0061160386577248579 -0.0065209259157595432
leaf_count=294 163 330 418 4569 712 2849 573 168 101 144 4028 21 67 60 548 722 709 168 403 670 3654 428 680 140 240 93 386 439 200 23
internal_value=0 0.022314178748955901 0.024241300275309179 0.020966414380110331 -0.019471877065417403 -0.0086515105556418809 -0.014807545480795374 0.022598365465706909 0.06319773109962433 -0.033515959978103638 -0.038880758200849193 0.052268650891288876 -0.045791002211444498 0.10711521191859809 -0.026220424347645301 0.085746796780757695 0.024257471210922164 0.020121470268467782 0.0024700256578132668 0.035798540658499363 0.0072580936693959148 -0.00017206187577647125 -0.018957086592027456 -0.068582357593425888 -0.0093370576981393442 -0.020110543329458577 -0.026182942645518539 0.047005574815578773 -0.014648641444065798 0.15970576400386877
internal_count=24000 11512 11349 11019 12488 8018 7306 1708 991 717 4470 315 4155 127 5598 890 10601 9892 4653 5239 4485 4082 5050 820 4230 3551 3435 679 3049 116
shrinkage=0.05


Tree=18
num_leaves=31
num_cat=0
split_feature=23 22 18 4 25 25 23 20 21 28 1 10 7 27 28 22 11 22 7 23 23 25 23 22 31 1 22 21 25 0
split_gain=9.4393568037124229 2.9586776424126224 4.4293442054045826 3.7536038491395702 3.6462019714017662 3.0896597594678368 3.0869755768340328 5.3180314975028953 3.2398317306043847 3.4679688538695275 2.6720996765524898 2.5354807624778863 2.4197373361031067 3.9413852679002761 3.6961414139175215 3.4543846838784762 3.4107037500693669 3.9881103256950983 3.1720951532641313 3.1514151724445378 3.1444430942916641 5.7255500721071844 2.9398634930314547 2.9371035051017618 3.8141355726951951 2.5611250598884268 2.5090916144307283 5.4166595897683347 3.7505442586353261 3.5417575455596224
threshold=0.067446490791438538 0.49150622876557198 0.10326086956521741 0.019094518414529825 0.060441056357201206 0.080996460658861971 0.097809855649576921 0.028743098408574214 0.034855769230769239 0.0060648240206800565 0.022777777777777782 0.0050976284378704412 0.018076023556595006 0.032613967022308447 0.0036786637502485586 0.045016987542468863 9.9999996826552254e-21 0.018403171007927526 0.008389923638310464 0.034594325535092091 0.018168242906918868 0.0042199836645793638 0.017670482827277255 0.024065685164212914 0.0059280017245095934 0.010555555555555558 0.016138165345413364 0.0040865384615384626 0.029948271167982581 0.0043526834184701149
decision_type=2 2 2 2 2 2 2 2 2 2 2 2 2 2 2 2 2 2 2 2 2 2 2 2 2 2 2 2 2 2
left_child=12 2 3 6 -4 -6 -2 8 9 11 -10 -8 14 15 18 19 22 -18 20 -14 -1 23 -15 -22 25 -25 28 -28 -16 -29
right_child=1 -3 4 -5 5 -7 7 -9 10 -11 -12 -13 13 16 26 -17 17 -19 -20 -21 21 -23 -24 24 -26 -27 27 29 -30 -31
leaf_value=-0.0016157454877559628 -0.001248715093039997 0.0034979612749809681 -0.0018333180667790658 0.0036339718859177889 0.0044760714191021305 1.2600988698151945e-07 -0.011591549403965474 -0.0001146954830759705 0.013455147235119931 -0.0029291415526982276 0.0051411669485030634 0.0050548232542198222 0.0015786403875064532 -0.0035500993747865001 -0.0044112543502731741 0.0047906582554181421 0.0091134962608229435 -0.0051258524444922479 0.0091889736835252169 -0.0047678405404090879 0.0051608694644447147 -0.0033532226117708348 0.002386777106456143 -0.00080774148926138873 0.0084813651756236435 -0.01276989687572826 0.020115252969593839 0.0052034063480835592 0.0032555941915647551 -0.0019964334178634905
leaf_count=2240 1219 1123 2226 1739 505 1630 24 1723 122 248 465 488 899 310 1703 636 53 681 88 250 716 465 637 240 95 55 29 181 176 3034
internal_value=0 0.021198469601814908 0.015927670788335804 0.033490289133672455 -0.0083482896303042602 0.021176781852574763 0.017600820868630653 0.03450605689702671 0.08157832295521153 0.038477090981445812 0.13738230302346016 0.085490490717347711 -0.018498283543031541 0.0039599089524818857 -0.027126092808100209 0.036684551526184508 -0.030789339705495022 -0.081953411794975603 -0.0039250001552074984 0.0039553972718194838 -0.0082592939617314141 0.026040247335015095 0.0088668682286958383 0.065184628257484153 -0.0046396202001816184 -0.060759476989002553 -0.044783922254445843 -0.027940937760027651 -0.073862496868545166 -0.031821850331537831
internal_count=24000 11512 10389 6028 4361 2135 4289 3070 1347 760 587 512 12488 3466 9022 1785 1681 734 3899 1149 3811 1571 947 1106 390 295 5123 3244 1879 3215
shrinkage=0.05


Tree=19
num_leaves=31
num_cat=0
split_feature=6 27 22 18 2 3 28 18 14 7 28 22 1 8 13 5 1 19 10 7 30 26 1 17 15 29 18 5 30 2
split_gain=7.7915336497904333 3.2615780099684732 3.381221242696907 2.8025226860874 2.7365588900437179 4.8085695674851063 4.7110753258161333 3.6921635171349312 2.4736691103950399 2.4492699914861236 3.5750891392509354 3.1750752625625562 5.529992569033567 4.8978752405846331 5.1938227662249803 3.5448650121304786 3.321214219886131 3.2621091846329415 3.0455503575792253 2.8539537468905776 2.5879151020994833 2.436078950048171 2.4307442258951464 3.6111629734875317 2.4730116666252315 2.3436859217215376 2.2504299996077997 3.187561511776638 4.6144242353588902 2.3533490227449878
threshold=0.030432942504232244 0.020004849660523769 0.49150622876557198 0.14945652173913046 0.064858990670059388 0.036919979397855511 0.0062636707098826811 0.027445652173913048 0.13750000000000004 0.020125954521119222 0.0036786637502485586 0.016138165345413364 0.010555555555555558 0.0047133233170164306 0.060000000000000005 0.0047746895689050259 0.0038888888888888892 0.012242518460940538 0.0045962529169244993 0.008389923638310464 0.036940385061470661 0.012613133063739651 0.036111111111111115 0.03401898734177216 0.11250000000000002 0.0047478206724782075 0.013315217391304349 0.007134067588044463 0.011076316399907216 0.0054866412213740471
decision_type=2 2 2 2 2 2 2 2 2 2 2 2 2 2 2 2 2 2 2 2 2 2 2 2 2 2 2 2 2 2
left_child=4 3 -3 -2 5 9 7 -6 22 10 19 -12 13 16 15 25 -13 -17 -19 26 -11 -20 23 -8 -24 -15 27 29 -29 -1
right_child=1 2 -4 -5 6 -7 8 -9 -10 20 11 12 -14 14 -16 17 -18 18 21 -21 -22 -23 24 -25 -26 -27 -28 28 -30 -31
leaf_value=-0.0038223687370618183 0.0061543664962948651 0.00059400570607655756 0.0036555588679406249 -0.0085158477084977292 0.0067567505025017821 -0.0084668830812516787 0.0006169610563501952 -0.00029141895850247975 0.0058995700155208318 0.0035216464342811074 -0.0039756053547311274 0.0011359696823453147 -0.0028206079628609495 0.0037306210985689455 0.013441537234230319 0.014003771689592624 0.016037130760757821 -0.0048509958674830779 0.0065668999351919657 0.008729525130580772 -0.0072606789214270454 -0.0076366225050555339 -0.0019828850270032796 0.011242816441280898 0.0010520137123838317 -0.0067763623276319894 -0.002657785656574731 0.01399318941909334 -0.006348724886775018 0.00038939444237885159
leaf_count=375 466 7248 1030 35 451 221 1138 316 153 477 1610 63 1831 66 69 51 92 155 187 88 63 36 2667 86 897 271 856 92 40 2870
internal_value=0 0.024240708757484266 0.019498862023729725 0.10259002464973999 -0.01316802246730671 -0.023554398456695491 0.0041419976425488341 0.077058828832894916 -0.0071770085349446774 -0.020087103884999114 -0.024119906403274161 -0.044078550827581227 -0.023855925662768559 0.036356663944745307 0.0060520418032914578 -0.017618624644242131 0.19961059612612569 0.042675052419964804 0.010644842234868852 -0.0036531733683043402 0.04527416952230312 0.085479092170304777 -0.011176750922860358 0.027270978694063384 -0.024381021700389725 -0.094372296633989244 -0.0073586880118746076 0.0042499153349997553 0.15657945925539191 -0.001946540688880603
internal_count=24000 8779 8278 501 15221 9513 5708 767 4941 9292 8752 4431 2821 990 835 766 155 429 378 4321 540 223 4788 1224 3564 337 4233 3377 132 3245
shrinkage=0.05



feature importances:
mp_count_purchase_oct=53
mp_count_purchase_jun=40
mp_count_click_may=34
mp_count_click_oct=31
mp_count_favorite_may=31
mp_count_purchase_aug=29
mp_count_purchase_sep=28
mp_count_favorite_aug=28
mp_count_purchase_may=22
mp_count_purchase=22
mp_count_click_aug=21
mp_count_purchase_jul=20
mp_count_cart=19
mp_count_favorite_jul=18
mp_count_click=18
mp_count_purchase_nov=17
mp_count_favorite_nov=17
mp_count_favorite_sep=16
mp_count_cart_nov=15
mp_count_click_jun=15
mp_count_favorite_oct=15
mp_count_click_nov=14
mp_count_click_jul=14
mp_count_cart_jul=10
mp_count_cart_aug=8
mp_count_favorite_jun=8
mp_count_favorite=8
mp_count_cart_may=7
mp_count_cart_sep=6
mp_count_click_sep=6
mp_count_cart_oct=5
mp_count_cart_jun=5

pandas_categorical:[]
